svm_type c_svc
kernel_type linear
nr_class 8
total_sv 2032
rho -0.4088921148099942 -0.4173196299968034 -0.0862503169961546 -0.29624941479683664 -0.3049456284896961 -0.07972551085360115 -0.20893595414087318 0.0684598011955327 0.4607930411789604 0.22445902850054392 0.007706366312922167 0.264692195256478 0.15510110633889118 0.36463424612432216 0.16365486785826255 -0.21622341158872782 0.47795761631689043 -0.4492275473578398 -0.3124507672492424 -0.559320093961282 -0.1819047160196542 -0.34622824709651495 0.23137712261051435 0.07197048424378465 -0.23938365495202735 0.3914776198021901 0.030901970494146676 -0.18378440818173963
label 0 2 3 5 4 7 6 1
nr_sv 148 89 281 275 417 349 157 316
SV
1.0 0.0 0.0 0.0 0.0 0.0 0.0 1:0.006713533266998661 2:0.010148123104267144 3:0.0034527293909747516 4:0.0035028773372416866 5:0.8845150422425183 6:0.0037881473492844147 7:0.005703524817638118 8:0.07968883401021468 9:0.0028293323179357497 10:0.003846486084949326 
0.0 0.0 1.0 1.0 1.0 0.0 1.0 1:0.09291156651974729 2:0.5030499461717535 3:0.0054466343265276275 4:0.013297626495065343 5:0.005008128580882192 6:0.04402592927595831 7:0.035251303507024406 8:0.29843675777225076 9:0.012126432977170363 10:0.00418820941605144 
1.0 0.0 0.0 0.0 0.0 0.0 0.0 1:0.007544908012702942 2:0.007822154371001273 3:0.0027650975487606287 4:0.002389888794073144 5:0.002250220320685603 6:0.002134143129609266 7:0.7358800718604773 8:0.2516580386144575 9:0.0029890235770498094 10:0.002794540205887132 
0.0 0.0 1.0 0.0 0.0 0.0 0.0 1:0.023769107990740414 2:0.3635760213940306 3:0.0030587188101322297 4:0.003245360733547352 5:0.002447533385823634 6:0.008165984511490568 7:0.03457203045736449 8:0.5683782620463254 9:0.004158605994003113 10:0.0023840715476287624 
1.0 0.0 1.0 1.0 1.0 1.0 0.0 1:0.07730092852642703 2:0.24288304585665088 3:0.0035526752164088196 4:0.0016408411555840613 5:0.2371474332694778 6:0.0024022300979906707 7:0.37617301979993323 8:0.06598235940734257 9:0.003710550070774084 10:0.0019466777030573913 
1.0 0.0 0.0 0.0 0.0 0.0 0.0 1:0.00936061454187437 2:0.005534330219636115 3:0.0042984708569146065 4:0.010299148948103123 5:0.02204655937258962 6:0.0035223312915959974 7:0.5655397588079514 8:0.38853638531913937 9:0.003728689118908888 10:0.005648896994443277 
0.0 0.0 1.0 0.0 0.0 1.0 0.0 1:0.45716945073552295 2:0.17597687515884455 3:0.0038324186437581936 4:0.0035435059418825196 5:0.008751503444817102 6:0.00392093387550033 7:0.04469342923072222 8:0.31886972681377 9:0.005407166320533804 10:0.00396220621470271 
1.0 0.0 0.0 0.0 0.0 0.0 0.0 1:0.006811726927762671 2:0.009297094282395658 3:0.004505293533442793 4:0.004501879201173017 5:0.7462222557859617 6:0.0047065750673638525 7:0.005196955367883264 8:0.21521822362882814 9:0.005335682646456783 10:0.00471137297092104 
1.0 0.0 0.0 0.0 0.0 1.0 0.0 1:0.0939616445846361 2:0.020540452213995565 3:0.006948938976717555 4:0.00435855896938776 5:0.2096159149938985 6:0.008139718177403592 7:0.6130833833613464 8:0.024901775609645443 9:0.02863751706408428 10:0.006537472263280648 
0.0 0.0 1.0 1.0 1.0 1.0 1.0 1:0.6680052329913326 2:0.10977316529955329 3:0.002711393697628232 4:0.0032094640589855933 5:0.019367772427561828 6:0.0029523079068216967 7:0.07262382400997379 8:0.14446237094493955 9:0.0029718125131015477 10:0.005531835702151044 
1.0 0.0 0.0 0.0 0.0 0.0 0.0 1:0.01059367862196854 2:0.004584909351652076 3:0.004941382685693512 4:0.004462234897143568 5:0.5978181947920005 6:0.0037932485857866353 7:0.03906702054686464 8:0.33253612154896 9:0.004657861791894753 10:0.006617137684915671 
1.0 1.0 1.0 1.0 1.0 1.0 1.0 1:0.6073822008417711 2:0.33295806296166164 3:0.003454397651905409 4:0.004717083102915644 5:0.006974413700376582 6:0.00502136987828449 7:0.015735508082057505 8:0.03836164487516695 9:0.008321698898720633 10:0.004430584061299001 
1.0 0.9373919760939144 1.0 1.0 1.0 1.0 1.0 1:0.6995339581069644 2:0.21577919256426079 3:0.008025742473263988 4:0.007260436506396992 5:0.007918495456344949 6:0.005067927569991789 7:0.01029615041253351 8:0.06400520680575507 9:0.005649283014487732 10:0.007847626287317278 
1.0 0.0 0.0 0.0 0.0 0.0 0.0 1:0.011975539510681575 2:0.008041108422130412 3:0.00793997234221791 4:0.021075465237378407 5:0.592930524695612 6:0.010556459273390098 7:0.014432418711210291 8:0.32688786433353223 9:0.008590219237495197 10:0.007688330951529663 
1.0 0.0 1.0 0.0 0.0 0.0 0.0 1:0.004492951090001889 2:0.0053490335092273595 3:0.006112727076264183 4:0.0051922262440528034 5:0.5276674650712957 6:0.0034668902634647446 7:0.005414309153427361 8:0.3210354083528534 9:0.006526387542201065 10:0.1251626506357739 
0.0 0.0 1.0 1.0 0.0 1.0 0.3298653606608022 1:0.5917629701129933 2:0.13573396789513523 3:0.0033817099920948365 4:0.003353305316453887 5:0.005945733131368925 6:0.004466519848550902 7:0.08608075685208506 8:0.1915847165439767 9:0.0030655437712118093 10:0.004379893775163044 
1.0 0.0 0.0 0.0 0.0 0.0 0.0 1:0.004640423755485252 2:0.0052207574152150155 3:0.004672228131284387 4:0.004067398515051494 5:0.03438535447608211 6:0.003799746414414835 7:0.7399022324860097 8:0.21119916733930505 9:0.004199763652203636 10:0.005735627252578764 
1.0 0.0 0.0 0.0 0.0 0.0 0.0 1:0.011398508081307313 2:0.005921956976440382 3:0.011458709118640704 4:0.005769475022117762 5:0.008022918562242036 6:0.003921591090536537 7:0.9439347579861481 8:0.01898129611900844 9:0.00452179846303376 10:0.004698048412559994 
1.0 0.0 0.0 0.0 0.0 0.0 0.0 1:0.0037782528196625364 2:0.0036983545275311833 3:0.004661320271353171 4:0.005130598771735043 5:0.6069365801699378 6:0.0033231302836012025 7:0.005043405218294767 8:0.3543289853425662 9:0.006089058730323265 10:0.015847131532201346 
1.0 0.0 0.0 0.0 0.0 0.0 0.0 1:0.004777015249994033 2:0.0073370834199365425 3:0.0028712765241888333 4:0.003133795711301879 5:0.6924135645916855 6:0.002954844990279938 7:0.006805866923973727 8:0.2793128871708904 9:0.004571147398021511 10:0.0030631703449282696 
1.0 0.0 0.0 0.0 0.0 0.0 0.0 1:0.010530771967817577 2:0.004831164583308238 3:0.004546003027375899 4:0.00974644035667009 5:0.6990537059902492 6:0.00582705525476218 7:0.008038334617843063 8:0.253396145456248 9:0.005672054699897449 10:0.0060688168829654615 
1.0 0.0 0.0 0.0 0.0 0.0 0.0 1:0.002491464078596715 2:0.002046646961651565 3:0.002270399624003436 4:0.0027233887451806795 5:0.7732213716492713 6:0.0018993322603714884 7:0.007814952714111383 8:0.20852340943025693 9:0.002085493343423382 10:0.00286092624811578 
1.0 0.0 0.0 0.0 0.0 0.0 0.0 1:0.008659319676234463 2:0.01642348244993022 3:0.00308465211748733 4:0.002816220843819936 5:0.3772396391585271 6:0.0063865293422135545 7:0.4654873875481113 8:0.11871980263903714 9:0.005586443321934258 10:0.0077494572014691395 
1.0 0.0 1.0 0.0 0.0 0.0 0.0 1:0.010767438487057343 2:0.011904767831426459 3:0.0070006272028016155 4:0.0038110043963211944 5:0.878413824958745 6:0.00306169998740157 7:0.04283825824974319 8:0.03143025118366016 9:0.0034682885226985857 10:0.011787765260774687 
1.0 1.0 1.0 0.0 0.0 1.0 1.0 1:0.17877709825837876 2:0.0646807068630511 3:0.019955272103160077 4:0.018583166236204075 5:0.027359172656336316 6:0.06999370240680262 7:0.5447218347523594 8:0.035268958970206425 9:0.038059923134970225 10:0.024493743105624553 
1.0 0.0 0.0 0.0 0.0 0.0 0.0 1:0.0030588739374670442 2:0.0030159128542153143 3:0.002109144031469544 4:0.0024643760671733497 5:0.7872286745028666 6:0.0019605478021183986 7:0.010744568351850517 8:0.19014897286780555 9:0.003013679745980875 10:0.0019365111533271742 
1.0 0.0 0.0 0.0 0.0 0.0 0.0 1:0.0031516544270935635 2:0.0030220986203357927 3:0.004484075687664935 4:0.004369941619592867 5:0.8655389386943568 6:0.0028965197108260926 7:0.006032423482537451 8:0.1075736483351815 9:0.003010641603176399 10:0.00451942332361471 
0.0 0.0 1.0 0.0 0.0 0.0 0.0 1:0.009537980849187234 2:0.1010105317495649 3:0.004040418170942153 4:0.0024066567793175867 5:0.0027696371521401687 6:0.0060045156516542915 7:0.0030211332647135437 8:0.6747373636648591 9:0.01457283868067756 10:0.19945910495825492 
1.0 0.0 0.0 0.0 0.0 0.0 0.0 1:0.005634772231607757 2:0.005045869023973039 3:0.0069461464713220285 4:0.0037584619235303714 5:0.6006002271280328 6:0.004884423141823232 7:0.004867374767467994 8:0.36704953192501544 9:0.006571987654077169 10:0.0035530824768498334 
1.0 0.0 0.0 0.0 0.0 0.0 0.0 1:0.005017666332865402 2:0.008309443052891686 3:0.02529482222789082 4:0.005492453092268732 5:0.590845261252977 6:0.0037352660868770616 7:0.010157143878040993 8:0.34814365013278753 9:0.003997105374001086 10:0.008687033651695692 
0.673634007574258 0.0 0.0 0.0 0.0 0.0 0.0 1:0.0034811491847255055 2:0.004268604904836607 3:0.0033822643844753234 4:0.004378693332083422 5:0.6035626366541895 6:0.0033229178260310963 7:0.006632898376016323 8:0.3704935475486998 9:0.005476521127628368 10:0.0037712891411922603 
1.0 0.0 1.0 0.0 0.0 0.0 0.0 1:0.005710203013428776 2:0.005129232477406857 3:0.022232662882097444 4:0.004214394393346963 5:0.8915434822022731 6:0.004328657331474574 7:0.006736475729359969 8:0.04468736845364697 9:0.014212807512853075 10:0.005847577561556079 
1.0 0.0 1.0 0.0 0.0 0.04265586192483934 0.0 1:0.003954823683226794 2:0.0033264990665234926 3:0.002961168660078878 4:0.0029612330662632204 5:0.9681119205734124 6:0.002354883763989656 7:0.006807072270270111 8:0.0050216646477945675 9:0.0031690590494097954 10:0.004162816869478428 
1.0 0.0 0.0 0.0 0.0 0.0 0.0 1:0.004241768184742214 2:0.003137525309772078 3:0.0021982886791048766 4:0.009221649097823451 5:0.6815597878642207 6:0.0026028599283241024 7:0.006011596112906355 8:0.29340111835838645 9:0.0028426296436462987 10:0.0025832988073964786 
1.0 0.0 0.0 0.0 0.0 0.0 0.0 1:0.003983111959906844 2:0.005316989094889491 3:0.0040631233164891405 4:0.004290890949534123 5:0.8701881030423966 6:0.0030526611739691324 7:0.006383193656367291 8:0.09247421330108073 9:0.004635427530986275 10:0.010108053168545617 
1.0 0.0 0.0 0.0 0.0 0.0 0.0 1:0.0048658692161983 2:0.004225089024345115 3:0.0032489763147404405 4:0.009115125768844304 5:0.6400451080702105 6:0.003590861384195651 7:0.005363834600251564 8:0.32695873250590546 9:0.00666765945850365 10:0.004388842649201812 
1.0 0.0 0.0 0.0 0.0 0.0 0.0 1:0.003911492323004979 2:0.004006122604257063 3:0.0036789248885348447 4:0.0059591447898861465 5:0.8020414977902267 6:0.004218375746210859 7:0.008272221707395552 8:0.16515214030912412 9:0.0042497005549206246 10:0.00419042660795742 
1.0 0.0 0.0 0.0 0.0 0.0 0.0 1:0.028151472757577903 2:0.011412598554862973 3:0.005972759341461535 4:0.001959557618159812 5:0.01067826779526505 6:0.003058545643428494 7:0.8731713033379744 8:0.07347507376369143 9:0.007662070223723965 10:0.0029638290332907866 
1.0 0.0 0.0 0.0 0.0 0.0 0.0 1:0.003258944687115723 2:0.0034278928567374654 3:0.0037702927555882957 4:0.004574194096207862 5:0.8276910270163561 6:0.004486184408444226 7:0.004586510363065755 8:0.1433146681008823 9:0.005798467909849845 10:0.004264881322006515 
0.0 0.0 1.0 1.0 1.0 0.0 1.0 1:0.05601966321939332 2:0.5908054928918748 3:0.0055762094964287336 4:0.007219522282638821 5:0.0028708576887085907 6:0.03746353336923704 7:0.015274246627123796 8:0.28837755706320023 9:0.005106781511544401 10:0.0027227627808006937 
1.0 0.0 0.0 0.0 0.0 0.0 0.0 1:0.02479049250487504 2:0.021658952199123813 3:0.0012747043369974276 4:0.0010877990976274998 5:0.6233674998543363 6:0.001472514246441716 7:0.06396293310896096 8:0.2674427011638931 9:0.00214783479519344 10:0.0012389977012708814 
1.0 0.0 0.0 0.0 0.0 0.0 0.0 1:0.0028100286150230087 2:0.08567185950278237 3:0.0034470384909177643 4:0.006473613059231811 5:0.6552799519487478 6:0.0021933432184419476 7:0.008774693817299041 8:0.2323243409573513 9:0.002641000895298474 10:0.007302593235781802 
0.9415559047664926 1.0 1.0 1.0 1.0 1.0 1.0 1:0.7039323614503008 2:0.21065780407243279 3:0.006796749418586582 4:0.0072867804563492705 5:0.007698389538382038 6:0.005859970859761475 7:0.009699870780122286 8:0.06417916665285937 9:0.006340540002006243 10:0.00906832680455954 
1.0 0.0 0.0 0.0 0.0 0.0 0.0 1:0.013327873124386316 2:0.008544693176327047 3:0.007073312966628383 4:0.020374839978334166 5:0.5934626867844727 6:0.010735987362406099 7:0.012840588217330936 8:0.32691790663461734 9:0.009008041672509655 10:0.00777867853070851 
1.0 0.0 1.0 0.0 0.0 0.0 0.0 1:0.00458687222891308 2:0.005967602923741584 3:0.007216219565794734 4:0.005370643447652502 5:0.5237675771628502 6:0.0035583254470992268 7:0.005659058683397574 8:0.3189238980050409 9:0.0062831869455285206 10:0.12919661397934945 
0.0 0.0 1.0 0.381405726725148 0.0 1.0 0.0 1:0.5942042480598054 2:0.13397602882821735 3:0.004229480826891676 4:0.003207926903725561 5:0.006593545860915704 6:0.0037699123470114363 7:0.08355799888404886 8:0.19270927972381052 9:0.0034878837823582916 10:0.004104938488508295 
1.0 0.0 0.0 0.0 0.0 0.0 0.0 1:0.002996233453250477 2:0.002504622674302901 3:0.0020385441575480148 4:0.003219784692031654 5:0.016113029700221264 6:0.0013887407383399077 7:0.9655590059409721 8:0.013062739920056321 9:0.003422556054528225 10:0.00764994720988912 
1.0 0.0 0.0 0.0 0.0 0.0 0.0 1:0.06083531898136745 2:0.02525581674761733 3:0.021631507365829382 4:0.022785642477353797 5:0.41614453487573877 6:0.032652340748465444 7:0.28626256199246447 8:0.11039888940036062 9:0.016020526964319014 10:0.022170451128015575 
1.0 0.0 1.0 0.0 0.0 0.0 0.0 1:0.04104073787507796 2:0.06695359408494403 3:0.020825048128863457 4:0.01590105326848168 5:0.5303054223239725 6:0.01627132386298517 7:0.08113323319639541 8:0.20122454664387618 9:0.013144483779152715 10:0.024206141320497386 
1.0 0.0 0.0 0.0 0.0 0.0 0.0 1:0.013047635670494342 2:0.010924722945775792 3:0.014254340097897262 4:0.017198662866124672 5:0.671655526965368 6:0.013538402539418702 7:0.04502672666591496 8:0.19376623017438496 9:0.011457372565729118 10:0.017911415980710436 
1.0 0.0 1.0 0.0 0.0 0.0 0.0 1:0.009284919484976454 2:0.00965599998076703 3:0.010966685546903167 4:0.015065759602396282 5:0.8659219549526469 6:0.009278889682311102 7:0.017962663813502287 8:0.04127932125210529 9:0.010504879777329444 10:0.01546101701593701 
0.0 1.0 1.0 1.0 1.0 1.0 1.0 1:0.09423828250156266 2:0.06521714560924864 3:0.0858664876263183 4:0.09207090926748158 5:0.08307315763451094 6:0.10814493632767451 7:0.08756916792306024 8:0.23287490107297987 9:0.09120758353580438 10:0.08467775482061372 
0.0 0.0 1.0 1.0 0.0 0.0 0.0 1:0.009609031388311236 2:0.008534186626833513 3:0.010054703554346503 4:0.017300466220723336 5:0.16829758229071648 6:0.008816599205454993 7:0.03281133643406446 8:0.2668717082925333 9:0.009338094933103395 10:0.4863002552088258 
1.0 0.0 0.0 0.0 0.0 0.0 0.0 1:0.01062341569120794 2:0.009702705578368453 3:0.012303798786175464 4:0.020412990686668717 5:0.5678066015504627 6:0.009679957801248796 7:0.01587202637790111 8:0.3201658738323649 9:0.009610023776589458 10:0.03444498751203051 
1.0 0.0 1.0 0.0 0.0 0.0 0.0 1:0.01224071697933085 2:0.010720096646644589 3:0.015221782620738486 4:0.014719327712886332 5:0.783891046125975 6:0.015639748404706888 7:0.014780959043130336 8:0.0984805808636881 9:0.01564322851426738 10:0.02549268714794247 
1.0 0.0 0.0 0.0 0.0 0.0 0.0 1:0.017723861335245998 2:0.014955052652271726 3:0.018966096317762443 4:0.01234036362035722 5:0.6958595420494229 6:0.013895879738009511 7:0.027853881868122637 8:0.17779742271661236 9:0.01195101261577581 10:0.01695571174178582 
1.0 0.0 1.0 0.0 0.0 0.0 0.0 1:0.011191148041166965 2:0.011876953411057677 3:0.018254796394325354 4:0.02259119138133036 5:0.7456336484669082 6:0.01967380598197648 7:0.022493503066971173 8:0.12846716517409168 9:0.011829322560235453 10:0.01591554197443779 
1.0 0.0 0.0 0.0 0.0 0.0 0.0 1:0.011526959948903364 2:0.00949357685701382 3:0.014707459268000506 4:0.01803340554619515 5:0.5798996154985612 6:0.012777422825360046 7:0.021013995161574237 8:0.30933537625984175 9:0.009979134474768501 10:0.023576336818787125 
1.0 0.0 0.0 0.0 0.0 0.0 0.0 1:0.025363163301607424 2:0.01985044020470155 3:0.01248350245459657 4:0.013969847110640013 5:0.6475152463704443 6:0.03350691049714418 7:0.05439083563206045 8:0.16788771782112527 9:0.012602651800462121 10:0.02143475423509802 
1.0 0.0 0.0 0.0 0.0 1.0 0.0 1:0.062028737815581506 2:0.025255816747617333 3:0.022833362517033683 4:0.023122893597019425 5:0.4177621386855299 6:0.029008416932470044 7:0.28647460305990413 8:0.10758861903295215 9:0.01786414439070767 10:0.022276758725021724 
1.0 0.0 1.0 0.0 0.0 0.0 0.0 1:0.04010790603502417 2:0.06866611759977032 3:0.022703900246886795 4:0.014612287354589668 5:0.5362447751802993 6:0.01596861014810975 7:0.07961393894431622 8:0.19440766510971874 9:0.01202300782015705 10:0.026513016175530736 
1.0 0.0 0.0 0.0 0.0 0.0 0.0 1:0.012585002287560619 2:0.010379744119823972 3:0.014409641349075106 4:0.016186664055075666 5:0.6640902270514552 6:0.013638488795740587 7:0.050150435166688725 8:0.19683120083050962 9:0.011806774296319806 10:0.01876767957319006 
1.0 0.0 1.0 0.0 0.0 1.0 0.0 1:0.009163564336417664 2:0.008564339802071911 3:0.011455537595284294 4:0.01665852749057651 5:0.8667390950215106 6:0.010657225325644193 7:0.0151165043309621 8:0.040725758302213116 9:0.01034776049150663 10:0.01605557239094561 
0.0 1.0 1.0 1.0 1.0 1.0 1.0 1:0.09181474879946216 2:0.0668855968277375 3:0.0774984907981471 4:0.09888701890660584 5:0.0794097607711609 6:0.10477438446036419 7:0.09298245164475437 8:0.23355173644448673 9:0.0908713944756982 10:0.08840946414493236 
0.0 0.0 1.0 1.0 0.0 0.0 0.0 1:0.009609031388311238 2:0.008925409671168835 3:0.009207941970543471 4:0.018111613310263917 5:0.16857647949930107 6:0.008364978462642962 7:0.03275467028673146 8:0.26874217451625415 9:0.009563325042337083 10:0.48408429167812855 
1.0 0.0 0.0 0.0 0.0 0.0 0.0 1:0.010342186524411292 2:0.00892827088309717 3:0.012020581601149199 4:0.021370453905241584 5:0.5648695188651081 6:0.010383977508686994 7:0.014419400328009657 8:0.3268418268141219 9:0.009453976977359288 10:0.03208299960585302 
1.0 0.0 1.0 0.0 0.0 0.0 0.0 1:0.011255200284523186 2:0.011353332085847814 3:0.014725540948370187 4:0.013698162694736022 5:0.7783084320475334 6:0.015000127399189387 7:0.015690516598694054 8:0.0998720284646463 9:0.017822984559792945 10:0.02908712006159906 
1.0 0.0 0.0 0.0 0.0 0.0 0.0 1:0.018719241248608718 2:0.014621362408573962 3:0.018181596615121393 4:0.011264135782600765 5:0.6865761613616157 6:0.012505527092744004 7:0.03140634931048439 8:0.1824929681064409 9:0.014178265138979157 10:0.018439914313958004 
1.0 0.0 0.7367121952507001 0.0 0.0 0.0 0.0 1:0.012054690661992638 2:0.011657928926777288 3:0.018483650876434287 4:0.022826659505421218 5:0.7409119941031941 6:0.02179764406979519 7:0.025735725604916326 8:0.12775635737081037 9:0.011255594511714507 10:0.01555926786555233 
1.0 0.0 0.0 0.0 0.0 0.0 0.0 1:0.012051194538021696 2:0.008850513877256166 3:0.01446748634951382 4:0.018774129159225918 5:0.58003714456741 6:0.013009404127968449 7:0.021246854026120792 8:0.3087297867169147 9:0.010673290023975563 10:0.022548983644480762 
1.0 0.0 0.0 0.0 0.0 0.0 0.0 1:0.02268783389019775 2:0.021323877644406006 3:0.01144429505629285 4:0.015672709771678915 5:0.6525886401375162 6:0.03540448742503904 7:0.05084276208882346 8:0.16318063546473685 9:0.013047993152810538 10:0.02270802931742163 
0.0 0.0 0.9950454948887875 0.0 0.0 0.0 0.0 1:0.0024460972470887175 2:0.007765496092654961 3:0.005704219067665209 4:0.0014892462512403576 5:0.002260369977148971 6:0.0019575520742743154 7:0.002173750284891404 8:0.7660691939291147 9:0.002749962363365815 10:0.22627110912479972 
0.0 0.0 1.0 0.0 0.0 0.0 0.0 1:0.06240846199010427 2:0.2533807683498588 3:0.033527141873772 4:0.02469673215545896 5:0.024684412906336987 6:0.030605934257598447 7:0.1356338887100376 8:0.40876476406843054 9:0.02330281579855418 10:0.020735298568432595 
0.0 0.0 1.0 0.0 0.0 0.0 0.0 1:0.019965901263969868 2:0.01069634280063462 3:0.04039878216346812 4:0.013206813904742841 5:0.01090110831808547 6:0.011846060854887784 7:0.016765614543958165 8:0.7165210175091975 9:0.01203074976464716 10:0.16820483369058045 
1.0 0.0 0.0 0.0 0.0 0.6807186721891781 0.0 1:0.0206075053223551 2:0.09790686329036044 3:0.002363014293511156 4:0.001837329767533017 5:0.1406043507201969 6:0.0055368312070538765 7:0.7071120372283326 8:0.022194464189395646 9:0.01352633177652494 10:0.0032034621839764988 
1.0 0.0 0.0 0.0 0.0 0.0 0.0 1:0.002512897469612612 2:0.006811715698782651 3:0.0012068724750890273 4:0.0010061599714388998 5:0.002646232854674069 6:0.0026685653839701737 7:0.9005390276897168 8:0.09600336031922017 9:0.0030651924594189465 10:0.001489977581903234 
1.0 0.0 0.0 1.0 0.309629040316396 0.0 0.0 1:0.018153245336923644 2:0.21894684687457253 3:0.0023918047324170827 4:0.0024372410166674076 5:0.018638937133419256 6:0.007624167152795304 7:0.667135481642584 8:0.0700637429317771 9:0.007456129771027392 10:0.00232017895531956 
1.0 0.0 0.0 0.0 0.0 0.0 0.0 1:0.008891851716248763 2:0.007319284085408685 3:0.0016464067039168898 4:7.54924622637881E-4 5:0.17216129052578688 6:0.0021698987284196913 7:0.4430828914444157 8:0.37369539502218785 9:0.00475661920438318 10:9.752310883603404E-4 
0.0 0.0 1.0 0.0 0.0 0.0 0.0 1:0.002812894983064227 2:0.015928466290137416 3:0.0031533010492524882 4:0.00215459626510447 5:0.004285160235072071 6:0.0018975355879413205 7:0.008065746632952018 8:0.4798084005955894 9:0.002766997793346986 10:0.4985000420656157 
1.0 0.0 0.05017150367323628 0.0 0.0 1.0 0.0 1:0.05370509349952701 2:0.02900539816339853 3:0.0037862346112620816 4:0.003435859486538898 5:0.6632513452503879 6:0.00516976170724788 7:0.20778837169417672 8:0.025365233732934627 9:0.013144483779152701 10:0.003783666329161107 
1.0 0.0 0.0 0.0 0.0 0.0 0.0 1:0.0048155969747515045 2:0.005441345852608773 3:0.004329018789313129 4:0.004345350580629449 5:0.6990611015157964 6:0.003408023287252198 7:0.007223296675115888 8:0.2701436049807887 9:0.003795837853809108 10:0.004716512762854157 
1.0 0.0 0.0 0.0 0.0 0.0 0.0 1:0.0023727210157428007 2:0.003176234744511779 3:0.006269844579416643 4:0.0024562996316900222 5:0.703960399223852 6:0.0018487363163551807 7:0.006690341259746923 8:0.2748023711197235 9:0.0022186188479745134 10:0.003345569347054443 
1.0 0.0 0.0 0.0 0.0 0.0 0.0 1:0.0028109478625603828 2:0.002433097702551399 3:0.002371002151392199 4:0.0033373983291707745 5:0.7587480449593507 6:0.0028082646827186446 7:0.0040021798019982124 8:0.2236785163590988 9:0.0026280985260166475 10:0.0033881832581640825 
1.0 0.0 0.0 0.0 0.0 0.0 0.0 1:0.0033928436650150157 2:0.0029240013718970876 3:0.00257561098456398 4:0.0022258149599608725 5:0.3486048072846214 6:0.002690083838894283 7:0.2906337749396927 8:0.35197340343747413 9:0.00464620901629511 10:0.003028107765817723 
1.0 0.0 0.0 0.0 0.0 0.0 0.0 1:0.00470685742685545 2:0.00850186527377311 3:0.0054959108612901 4:0.0034096175570468472 5:0.6320129145690006 6:0.005434068666068299 7:0.011350296172322347 8:0.32561602532686906 9:0.005294671749203921 10:0.00646145436728286 
1.0 0.0 0.0 0.0 0.0 0.0 0.0 1:0.006211925720224885 2:0.006169061077066723 3:0.004984340892808319 4:0.005560908117736288 5:0.8186919356928942 6:0.0042785961675729425 7:0.010268064777673558 8:0.13838162058066394 9:0.004278447418370275 10:0.006628095562939804 
1.0 0.0 0.0 0.0 0.0 0.0 0.0 1:0.030211810505142968 2:0.010223318554740742 3:0.004145917572309945 4:0.0029413764259480927 5:0.2189724513143063 6:0.0036344037562622738 7:0.34653810083200953 8:0.37583938708790904 9:0.019596717678672906 10:0.0031564754499773346 
1.0 0.0 0.0 0.0 0.0 0.0 0.0 1:0.013204771772108985 2:0.007621646950185044 3:0.00490604483293318 4:0.004013773692256738 5:0.6646401294274784 6:0.004746420798620904 7:0.006465100898603731 8:0.29325375131642023 9:0.004980580588469236 10:0.004145544371990556 
0.0 0.0 1.0 0.0 0.0 0.0 0.0 1:0.0058597928026701655 2:0.006218797649474096 3:0.006022961627161334 4:0.005089535624262357 5:0.04711798865142894 6:0.0045863403408070835 7:0.006994853291634678 8:0.6871553781370568 9:0.00463354722948413 10:0.2448160546931771 
0.0 0.0 1.0 1.0 0.0 1.0 0.0 1:0.00289732046804383 2:0.004739789665750306 3:0.004071671975227899 4:0.0028950147180342926 5:0.031017193259948644 6:0.004029008220402962 7:0.007917938170815804 8:0.22374784220889507 9:0.005336059932665557 10:0.73306601597673 
0.0 0.0 1.0 0.0 0.0 0.0 0.0 1:0.0030006333371595 2:0.003669942089198841 3:0.0032565766001689637 4:0.006082152781806285 5:0.06638607583598966 6:0.0026394566475201097 7:0.007626896042500878 8:0.6732566186872986 9:0.0022939083534987744 10:0.2499540035988452 
0.0 0.0 1.0 0.0 0.0 0.0 0.0 1:0.002606614511792829 2:0.005943881782389225 3:0.0029667688350008075 4:0.0025828867819355167 5:0.00672641720223938 6:0.002060204155616714 7:0.002679536737548717 8:0.5338292568748525 9:0.0019995719877872113 10:0.4580010433762253 
0.0 0.0 1.0 0.0 0.0 1.0 0.0 1:0.21314880622280713 2:0.05305261945262994 3:0.03990589898674196 4:0.06532827814747269 5:0.029575453026746752 6:0.1614915799730136 7:0.04736938483070728 8:0.3285548104087173 9:0.06348726739795972 10:0.02370594214145728 
0.0 1.0 1.0 0.0 0.0 1.0 0.0 1:0.11052493953319037 2:0.02279850334011024 3:0.06194828471077384 4:0.11075197619013609 5:0.012839378557222864 6:0.10627016392959009 7:0.02937480878935323 8:0.3833132588541647 9:0.16277247410485574 10:0.026210139814249064 
0.0 0.0 1.0 0.0 0.0 0.0 0.0 1:0.07817841687249974 2:0.2267746275390703 3:0.013078024354641537 4:0.032158082971350935 5:0.017899823121112702 6:0.07342121177716193 7:0.05876339623886943 8:0.45333590960096737 9:0.05055152949680373 10:0.013892198055144127 
0.0 1.0 0.0 1.0 1.0 1.0 1.0 1:0.04772288414477175 2:0.1785733834520672 3:0.011569790372875297 4:0.02274149402299145 5:0.011888928858576706 6:0.44173271625268173 7:0.02187476999879459 8:0.14758067806826392 9:0.1217904833599451 10:0.010133254138273807 
1.0 1.0 1.0 1.0 1.0 1.0 1.0 1:0.1041401487701448 2:0.10045483534373335 3:0.1049036804104076 4:0.10807082978879425 5:0.1002578192844073 6:0.10126901051836142 7:0.10164370559946481 8:0.10177188961210826 9:0.10115877971494683 10:0.10218286401469022 
1.0 1.0 1.0 1.0 1.0 1.0 1.0 1:0.1041401487701448 2:0.10045483534373335 3:0.1049036804104076 4:0.10807082978879425 5:0.1002578192844073 6:0.10126901051836142 7:0.10164370559946481 8:0.10177188961210826 9:0.10115877971494683 10:0.10218286401469022 
0.0 0.0 1.0 0.0 0.0 0.0 0.0 1:0.06490198406946969 2:0.08381481519133785 3:0.0630172073982843 4:0.06334758408647034 5:0.04137704060801808 6:0.06287842474969686 7:0.07710348606111844 8:0.4601900605935462 9:0.0489598249824629 10:0.05719880434154021 
0.0 1.0 0.0 0.0 1.0 0.0 1.0 1:0.05572282652391832 2:0.04374609304344943 3:0.023106511415034656 4:0.044205235106280445 5:0.034471728606877854 6:0.39201170949357794 7:0.030945998338250146 8:0.30909100216937946 9:0.06192055623409684 10:0.024297474441884393 
0.0 1.0 1.0 1.0 1.0 1.0 1.0 1:0.08177439489076008 2:0.0732257114579953 3:0.086825320596213 4:0.10242960220588765 5:0.06777431277904362 6:0.12032105494833324 7:0.10243455251818125 8:0.23955865036660987 9:0.07836936380300027 10:0.0726981197737955 
0.0 0.0 1.0 0.0 0.0 0.0 0.0 1:0.06522612543004057 2:0.0613047484041546 3:0.055062557273340515 4:0.07358266679858337 5:0.04050728551608708 6:0.16220565736466522 7:0.03927620472109943 8:0.40975454482676305 9:0.06767922163359186 10:0.04833906757945573 
0.4173515190543161 1.0 0.0 1.0 1.0 1.0 1.0 1:0.04490686930741726 2:0.02595292693414417 3:0.022447919072076713 4:0.030347249757634313 5:0.05067152249844174 6:0.6826508207886827 7:0.03784872082302132 8:0.03987811503519077 9:0.06197781247657392 10:0.020593185982157005 
0.0 0.0 1.0 0.0 0.0 0.0 0.0 1:0.0419216565260983 2:0.03324318767999108 3:0.041674054577944555 4:0.06873102844866687 5:0.035633572623133956 6:0.10034393616249015 7:0.05858282715124821 8:0.4550399957878218 9:0.05148461832542893 10:0.13613283552581348 
1.0 1.0 0.0 1.0 1.0 1.0 1.0 1:0.049788356680500676 2:0.04962666567864576 3:0.009033721184428717 4:0.015744502850073058 5:0.028083431253085638 6:0.7116229778626557 7:0.01653177669319429 8:0.01795363848989045 9:0.1103102513149347 10:0.007032669240399412 
0.0 0.0 1.0 0.0 0.0 0.0 0.0 1:0.06368444690008113 2:0.04377754745166682 3:0.07688832436275976 4:0.05790067541871407 5:0.04327534625539035 6:0.11758248155614355 7:0.027346386519213797 8:0.48558830790934 9:0.05279798341867501 10:0.054315210772748555 
1.0 1.0 1.0 1.0 1.0 1.0 1.0 1:0.06895659442187276 2:0.05822448116909313 3:0.07236921866828665 4:0.11444050417670108 5:0.05232282638760326 6:0.30436348581196043 7:0.0652168172222319 8:0.14153220749162573 9:0.0725827096059228 10:0.07514116432513285 
0.0 0.0 1.0 0.0 0.0 0.0 0.0 1:0.044275653986094066 2:0.03971564275840759 3:0.04241616732608937 4:0.036987275537087416 5:0.03263364187117911 6:0.12450774946495739 7:0.06413369541915409 8:0.4459733778339937 9:0.0698959698183527 10:0.12022167409245099 
0.0 0.0 0.7942516505845805 0.0 0.0 0.0 0.0 1:0.06241690030509356 2:0.03818082053098029 3:0.05972424568349472 4:0.03393866191251789 5:0.036470309051652286 6:0.11960481267652968 7:0.032368710861007746 8:0.4119279384086014 9:0.1744405239500886 10:0.05155977691812538 
0.0 1.0 0.0 0.0 0.0 0.0 1.0 1:0.02827287837709052 2:0.02502091374163602 3:0.02456727547429677 4:0.018996229225186796 5:0.015312153437837366 6:0.10089425626809098 7:0.014584441868454616 8:0.37961665891635027 9:0.3824827411996354 10:0.027406226237436687 
0.0 0.0 1.0 1.0 0.0 1.0 0.0 1:0.05476930506735408 2:0.04085775781931127 3:0.12561447256013136 4:0.13350568102110547 5:0.04643918900101079 6:0.1531418037562676 7:0.03952627489302542 8:0.3228940054833875 9:0.04229207529035726 10:0.06958129437223382 
1.0 1.0 1.0 1.0 1.0 1.0 1.0 1:0.03367961587193237 2:0.05705031524491982 3:0.14632725709005223 4:0.2888340574183696 5:0.01811589782322471 6:0.23757605406202975 7:0.01878759829209252 8:0.1101549791420572 9:0.1032162567627968 10:0.02318887790733443 
0.0 0.0 1.0 0.0 0.0 0.0 0.0 1:0.06182035259785566 2:0.05011969677853244 3:0.07240455776961618 4:0.040420722874990773 5:0.042840774787121616 6:0.08746125706388735 7:0.06463697971789598 8:0.4027853415908818 9:0.13770827036170855 10:0.0612780342681236 
0.0 1.0 1.0 1.0 1.0 1.0 1.0 1:0.028481833015479276 2:0.42476332728081523 3:0.01620925342332994 4:0.007301841744907848 5:0.006069161087036371 6:0.18101354402064737 7:0.011790714268956832 8:0.24162453651191357 9:0.08865458418845279 10:0.006400953998381848 
0.0 1.0 1.0 0.0 0.0 1.0 1.0 1:0.10998695959289853 2:0.03567314907425503 3:0.03927195983309258 4:0.045582610380370675 5:0.035696711196611816 6:0.11728442449019139 7:0.02303197702408263 8:0.30090524643055017 9:0.18609347272328947 10:0.12840688354442895 
0.0 0.0 1.0 0.0 0.0 0.0 0.0 1:0.0728804108919403 2:0.06200630393100123 3:0.05814362406039571 4:0.05779105962042403 5:0.06364605305613967 6:0.06548872991804719 7:0.1048390466851871 8:0.4051520643005162 9:0.06547044326767683 10:0.06693894261834761 
0.0 1.0 1.0 1.0 1.0 1.0 1.0 1:0.0440412556854532 2:0.0475041360978944 3:0.07409779802322834 4:0.13719384993542613 5:0.058579038382548104 6:0.13004428907651425 7:0.033459504009722855 8:0.2808745821454571 9:0.0904016508574678 10:0.1305131832960245 
0.0 0.0 1.0 0.7790388909742725 1.0 0.0 0.0 1:0.062359147162244125 2:0.2532429306538865 3:0.009827750214487053 4:0.011950172791733401 5:0.013414552932405113 6:0.20209359795384094 7:0.033475875798242426 8:0.3681628647465061 9:0.05194113792457328 10:0.009151394617388028 
0.0 0.0 1.0 0.0 0.0 0.0 0.0 1:0.06556088909934904 2:0.0677670427544865 3:0.05531540486686335 4:0.09203029689624566 5:0.0627202546492783 6:0.11819935614317967 7:0.06698209244845738 8:0.38363040221709405 9:0.05075706209623809 10:0.06089850929772587 
0.0 0.0 1.0 0.0 0.0 0.0 0.0 1:0.07227214054758446 2:0.20971306185914806 3:0.037889132317812914 4:0.021632013396328923 5:0.030449444750791987 6:0.050983625382782796 7:0.14582718821707527 8:0.39972705211395715 9:0.028761478238735042 10:0.02106702950366865 
0.0 1.0 1.0 0.0 0.0 1.0 1.0 1:0.059515654187831515 2:0.04383063453589144 3:0.087121687150544 4:0.1274755438331912 5:0.04456813176006014 6:0.10679058730462815 7:0.0419314952739145 8:0.3085697078027703 9:0.14760788276488795 10:0.05929596330066144 
0.0 1.0 1.0 0.0 0.0 1.0 1.0 1:0.08373630312579376 2:0.04410567619130297 3:0.04233740782940577 4:0.04586486076647096 5:0.04326424505277414 6:0.09171911356098218 7:0.03773688388502103 8:0.29405329826418 9:0.20034949418227047 10:0.13806758398187557 
1.0 1.0 1.0 1.0 1.0 1.0 1.0 1:0.1532384845359255 2:0.024220608120624973 3:0.0262422607640859 4:0.07765639964695002 5:0.018840166883866586 6:0.5377424300374982 7:0.0233846486341837 8:0.04665347363246409 9:0.09433739523730897 10:0.02110737515795412 
0.0 0.0 1.0 0.0 0.0 0.54184124285244 0.0 1:0.29169271959688015 2:0.04228814346095312 3:0.019001613468479055 4:0.021506772808651643 5:0.011885950254889666 6:0.10368071583953858 7:0.10042470682109099 8:0.3720989267898864 9:0.051223163470700106 10:0.011199031112815722 
0.9580034945853222 1.0 1.0 1.0 1.0 1.0 1.0 1:0.07607853227292016 2:0.2629878181079319 3:0.07645249119462588 4:0.06837075215215664 5:0.06504623699902327 6:0.08614936720648501 7:0.05325593400974149 8:0.20388014709359095 9:0.0822063925716717 10:0.04603650665589503 
0.0 0.0 1.0 0.0 0.0 0.0 0.0 1:0.2702656540000418 2:0.026666478398655147 3:0.028549217947403862 4:0.03319199594653289 5:0.020418388981915787 6:0.13967761496053072 7:0.06408819863497317 8:0.39101173891013075 9:0.03069989590650792 10:0.020999730358469904 
0.0 0.0 1.0 1.0 0.0 0.0 0.0 1:0.10834788366772144 2:0.32105808846905337 3:0.008938744427500962 4:0.010654808052416621 5:0.01089638735637251 6:0.01840696150378066 7:0.06940661080194963 8:0.4261875206894447 9:0.03294483501350309 10:0.009654676231706771 
0.0 0.0 1.0 1.0 1.0 0.0 0.0 1:0.0516496103786287 2:0.28750866891901344 3:0.043629098618174836 4:0.02797556248554136 5:0.03880800746064046 6:0.03513443378254924 7:0.08634317557480033 8:0.3716479856309597 9:0.03162982117440958 10:0.04293586840988248 
0.0 0.0 1.0 0.0 0.0 0.0 0.0 1:0.06735436936326186 2:0.05847660268655369 3:0.06400509591272117 4:0.0778826389397257 5:0.07619596261376754 6:0.09439308470904854 7:0.11257177211263485 8:0.3037057227011689 9:0.1008730190138567 10:0.06757974118919026 
0.0 1.0 1.0 0.0 0.0 0.0 0.0 1:0.0683428692816827 2:0.03424384606601956 3:0.061178214932947936 4:0.0205477506993162 5:0.027426244674090505 6:0.07281031758537128 7:0.028981649310142216 8:0.4216295346460844 9:0.21631301505685033 10:0.06873317861670693 
0.0 0.0 1.0 0.0 0.0 0.0 0.0 1:0.11509920237598145 2:0.16263119745606186 3:0.03629691017117771 4:0.02519825465383494 5:0.027948650671528432 6:0.07521796766335852 7:0.11672751571623477 8:0.3869312112312336 9:0.042573811192840656 10:0.0313683042041951 
1.0 0.0 0.0 0.0 0.0 0.0 0.0 1:0.023053102982117168 2:0.059210400057872946 3:0.004029518966852332 4:0.002814089927492242 5:0.08873733525042306 6:0.003908592309527046 7:0.706519743362368 8:0.10146070168432328 9:0.020803640664582013 10:0.005865843178526933 
0.0 0.0 1.0 0.0 0.0 0.0 0.0 1:0.0060761019461946794 2:0.009678133384529913 3:0.00554691393819261 4:0.005186140531932389 5:0.0072392670254371 6:0.004660196475982082 7:0.005814123281606677 8:0.48792038117042297 9:0.012182313979723261 10:0.4752963514772729 
0.0 0.0 1.0 1.0 1.0 1.0 1.0 1:0.22642891750875285 2:0.4235170447797319 3:0.004260383211767455 4:0.011733029230929804 5:0.002615887840991259 6:0.03459791110222023 7:0.02608332482869692 8:0.28213738694646057 9:0.004241791333106409 10:0.002265379207210238 
0.0 0.0 1.0 0.0 0.0 0.0 0.0 1:0.002956339669782736 2:0.003746342663144928 3:0.003259669211061071 4:0.0027770795073969942 5:0.003599693601780106 6:0.002493330398372999 7:0.0063012754316083405 8:0.5973708595164671 9:0.004288244346183844 10:0.39253473677786715 
1.0 1.0 0.0 0.0 1.0 1.0 1.0 1:0.022398345358142484 2:0.021395198286434262 3:0.004621886202653515 4:0.004056844039327452 5:0.7482939974582837 6:0.012895599318725288 7:0.028477581825798834 8:0.025981345931040335 9:0.13238921062194 10:0.005241531770728532 
0.0 0.0 1.0 1.0 1.0 0.0 1.0 1:0.056656970990009395 2:0.5929613727465931 3:0.005349687289296712 4:0.007517331967396624 5:0.003003082203946277 6:0.035663043242240705 7:0.015982513313640565 8:0.286056773358352 9:0.005325197334033758 10:0.0029186757196570283 
1.0 0.0 1.0 1.0 1.0 1.0 1.0 1:0.03279784630841462 2:0.3322805706486993 3:0.001785863960106895 4:0.001699163456165249 5:0.006032537053534739 6:0.0019942854843214373 7:0.5936911337172545 8:0.03931712975947618 9:0.0022576097691654915 10:0.0022561372415233786 
0.0 0.0 0.0 0.7213938768003635 0.0 0.0 0.0 1:0.033865183943597256 2:0.3074598281106946 3:0.003746435003629374 4:0.002240325129872726 5:0.005203332113822209 6:0.0028179571656239645 7:0.33032147205571544 8:0.3230268603921414 9:0.003809226272016269 10:0.002153246594384949 
0.0 0.0 1.0 1.0 0.0 0.0 0.0 1:0.004953362937967111 2:0.003142239080142878 3:0.003792735964246343 4:0.003078556451050469 5:0.005449217318462767 6:0.0027058799310326347 7:0.003130719788951731 8:0.31219668811533324 9:0.0032809233999479847 10:0.6783584371661969 
1.0 0.0 1.0 0.0 0.0 0.0 0.0 1:0.19687831738592565 2:0.1259679475624559 3:0.0033888177394589217 4:0.0017832282884952524 5:0.009334376256547193 6:0.0023754690524570203 7:0.4756806109609844 8:0.20036346408991085 9:0.0021870389649338113 10:0.0028024145042936273 
1.0 0.0 0.0 0.0 0.0 0.0 0.0 1:0.007364393453547291 2:0.0073276787556428285 3:0.0030042957362756088 4:0.00226191120346557 5:0.0022319423115354227 6:0.002124893834735289 7:0.7353972890911092 8:0.2535060887046976 9:0.0025738748587589015 10:0.0024407821570926708 
1.0 0.0 1.0 1.0 1.0 1.0 0.0 1:0.07479200030092815 2:0.24406930125381782 3:0.0031712919829532974 4:0.0015672652578285924 5:0.23430144801431624 6:0.0024483153916187743 7:0.38058310449411503 8:0.06575871340321868 9:0.004039979297232003 10:0.0019621393307720923 
0.0 0.0 1.0 0.0 0.0 0.0 0.0 1:0.006328401457534919 2:0.0061826655848698795 3:0.007268833766387458 4:0.005011846141282061 5:0.04509855969143519 6:0.005006049187978529 7:0.007086439501098054 8:0.6876867154589564 9:0.005288794696952199 10:0.24360384338400354 
0.0 0.0 1.0 1.0 0.0 0.0 0.0 1:0.0038102878364872986 2:0.005446319026901169 3:0.004623749947885664 4:0.0033607532745444047 5:0.005407667616856977 6:0.004356844370186248 7:0.008799056501703822 8:0.33454857711443237 9:0.004270417475345424 10:0.6453524581140495 
0.3275104082860127 0.0 1.0 1.0 0.0 0.0 0.0 1:0.00277144000506376 2:0.003159303165902165 3:0.002717228220249097 4:0.0025338740847412056 5:0.1573650064446002 6:0.0018632514460698512 7:0.0049585841994942755 8:0.24897717687020912 9:0.0023010955621427243 10:0.5906703258020629 
0.0 0.0 1.0 0.0 0.0 0.0 0.0 1:0.0039740170661858535 2:0.006583002788068696 3:0.005440740333339971 4:0.004588960741277963 5:0.0058246462865545945 6:0.004235637332593304 7:0.004017711432865552 8:0.7064985098488261 9:0.003526274859543921 10:0.2744618290288191 
0.0 0.0 1.0 0.0 0.0 0.0 0.0 1:0.0031323932384511085 2:0.003539324031902225 3:0.002637461395902634 4:0.00233423494954226 5:0.005209815871181779 6:0.0026716299317302633 7:0.005025112076787696 8:0.7318514736552397 9:0.003017971230888165 10:0.2595288170898533 
-1.0 0.0 0.0 0.0 0.0 0.0 0.0 1:0.01364148152653242 2:0.01199995814646991 3:0.007412442795032498 4:0.007232773159952926 5:0.8461900263257768 6:0.007674918554698537 7:0.023922981611326943 8:0.05741634794618374 9:0.02379634510459995 10:0.005823661493218434 
-1.0 0.0 0.0 0.0 0.0 0.0 0.0 1:0.008542618618677856 2:0.007051213951926439 3:0.006612059741501576 4:0.008872108841833853 5:0.8900495555713789 6:0.0066768139394261 7:0.010588115447809878 8:0.052169128598076216 9:0.00591490580714755 10:0.008081781987797106 
-1.0 1.0 1.0 1.0 1.0 1.0 1.0 1:0.07481853842109501 2:0.05749676678915032 3:0.07375824979161626 4:0.1159435994868069 5:0.22157075227413628 6:0.1289810751437749 7:0.08057188356689342 8:0.09638489535979736 9:0.08229857344299116 10:0.09153978229715024 
-1.0 1.0 1.0 1.0 1.0 1.0 1.0 1:0.04545327796059553 2:0.057625692565124426 3:0.023262493812050984 4:0.023027117237377527 5:0.15465400424075804 6:0.1298583862518212 7:0.02492020261434271 8:0.024650061320334964 9:0.4620595051550222 10:0.06896083074055895 
-1.0 0.0 1.0 0.0 0.0 0.0 0.0 1:0.02047113237788685 2:0.01333047953400936 3:0.032189953859467164 4:0.07166917029979537 5:0.7132120192817255 6:0.015200874251570407 7:0.058275042458340934 8:0.02731032966962211 9:0.014050011195594497 10:0.04618871980615385 
-1.0 0.0 0.0 0.0 0.0 0.0 0.0 1:0.005505003894834074 2:0.05424108971735471 3:0.004241785628727799 4:0.00281074863357331 5:0.808403949170811 6:0.0032583450209271317 7:0.08169337498788895 8:0.03341605999513167 9:0.0030697802511657594 10:0.008101765158375268 
-1.0 0.0 0.0 0.0 0.0 0.0 0.0 1:0.0027602450852110684 2:0.0025793640533550793 3:0.003333484160823253 4:0.003930342547129706 5:0.8407990293577834 6:0.0021521417574721347 7:0.011156827686005453 8:0.1314214601064795 9:0.002561407930281693 10:0.0042475649084390485 
-1.0 0.0 1.0 0.8456008063238654 0.0 0.0 0.0 1:0.005988161060051161 2:0.002678006568763782 3:0.002595188957145339 4:0.017487819539871646 5:0.5522652280412158 6:0.003135157746839856 7:0.0037592616051229924 8:0.4119309115872359 9:0.0030750741444565887 10:0.007509792929170945 
-1.0 0.0 1.0 0.0 0.0 0.0 0.0 1:0.009753917373922328 2:0.055140841070922 3:0.02551290651430397 4:0.0024343149399250873 5:0.6235247699767003 6:0.008287295834872945 7:0.019879023806969535 8:0.1895222457138368 9:0.0032299714775089624 10:0.07127994216749164 
-1.0 0.0 1.0 0.0 0.0 0.0 0.0 1:0.0065224027603324975 2:0.004693242637698024 3:0.0033751099331648976 4:0.002864035584999089 5:0.547356881522836 6:0.0034929959236158635 7:0.00844343456230439 8:0.42371408617503814 9:0.00434229143060374 10:0.004859794284539765 
-0.43626147086234685 0.0 0.0 0.0 0.0 0.0 0.0 1:0.004264378500694802 2:0.004489671632419526 3:0.0050886044800815275 4:0.005401549729415813 5:0.9200847805939113 6:0.0036947200535324184 7:0.013229094674111779 8:0.03292645174033945 9:0.007858621656498402 10:0.006728743769355596 
-1.0 0.0 1.0 0.0 0.0 1.0 0.0 1:0.01172343827789807 2:0.010408011287037298 3:0.013797328849543614 4:0.12156263324690209 5:0.6789441696948915 6:0.009013490610584304 7:0.015743527621871065 8:0.03819130356931506 9:0.008439074443409102 10:0.10698059760890083 
-1.0 0.0 1.0 0.0 0.0 0.0 0.0 1:0.007604883965519486 2:0.006531534344106209 3:0.011275464106679102 4:0.009380022439808667 5:0.704543689992424 6:0.0056909023562368 7:0.007812196356168372 8:0.14264411707427274 9:0.011928577688457976 10:0.1004871731351938 
-1.0 1.0 1.0 1.0 1.0 1.0 1.0 1:0.35298940961189107 2:0.03893235348633745 3:0.008525689996377527 4:0.02352732075271599 5:0.11373916615771373 6:0.2580017862832609 7:0.08680173593202758 8:0.011494314272372979 9:0.11385173238915741 10:0.01570318957112345 
-1.0 1.0 1.0 0.0 1.0 1.0 0.0 1:0.15622419011340258 2:0.04432743752603269 3:0.021058323709710038 4:0.04594149269627984 5:0.30817241744788443 6:0.08969513539954406 7:0.2358942047149627 8:0.06394600581066717 9:0.031804208721547926 10:0.021689840604377824 
-1.0 0.0 1.0 0.0 0.0 1.0 0.0 1:0.13597342131955378 2:0.022353117032434883 3:0.021775239192371093 4:0.024105490664922208 5:0.341660534575606 6:0.1509509450425159 7:0.2464305907784575 8:0.02865521034287597 9:0.02467271227661145 10:0.0200667545359234 
-1.0 1.0 1.0 0.0 1.0 1.0 1.0 1:0.04749604826347255 2:0.07086913356820718 3:0.0027233841660077125 4:0.0024107461089238843 5:0.5791461945775871 6:0.013585920277583631 7:0.0070204841194102105 8:0.003008547653405904 9:0.2454659725495646 10:0.035801771723699735 
-1.0 0.0 0.0 0.0 0.0 0.0 0.0 1:0.009011314745277062 2:0.005215239481483323 3:0.014801734343120264 4:0.010455979347655443 5:0.8644325236889799 6:0.004817150127283112 7:0.005048193441699945 8:0.037394061042373444 9:0.011612052766712726 10:0.04260655336979771 
-1.0 0.0 0.0 0.0 0.0 0.0 0.0 1:0.008351102424527024 2:0.003723892379417234 3:0.003976163449970072 4:0.0029882723294406993 5:0.8528807143094473 6:0.003693849606048554 7:0.026275610073119186 8:0.0955269208064573 9:0.003345727524974371 10:0.004043829151325454 
-1.0 0.0 1.0 0.0 0.0 0.9475939886933278 0.0 1:0.005999640524117666 2:0.010435673496454691 3:0.004095758864389083 4:0.004205556982392297 5:0.5716020283446943 6:0.003215058845595692 7:0.04566091791839592 8:0.1028977918031424 9:0.0036760132021046344 10:0.25810257796785974 
-1.0 0.0 1.0 0.0 0.0 0.0 0.0 1:0.003810059539497067 2:0.0037426944932868757 3:0.0033976354959655984 4:0.0035627712431847225 5:0.7235562309028902 6:0.004058579096144048 7:0.023397170744465554 8:0.23409838188514132 9:0.003220969308896329 10:0.003964228806097073 
-1.0 0.0 0.0 0.0 0.0 0.0 0.0 1:0.008913802822717172 2:0.04850508101891719 3:0.011324354820833415 4:0.015517210471716341 5:0.7470564552892733 6:0.009193985651856782 7:0.04073991820448329 8:0.10302807122362984 9:0.01022920029647062 10:0.012260599978964158 
-1.0 0.0 0.0 0.0 0.0 0.0 0.0 1:0.0052259521943559895 2:0.007452912036090065 3:0.025250335540501302 4:0.0025067131575757465 5:0.8869284729810559 6:0.0027112349727866484 7:0.00813699609536373 8:0.059529593634323856 9:0.003505546439652984 10:0.003489195309612058 
-1.0 0.0 0.0 0.0 0.0 0.0 0.0 1:0.0731268131885864 2:0.038965847135623344 3:4.908963982856072E-4 4:5.689821889736419E-4 5:0.7117957902252864 6:0.03557627911650706 7:0.022255533613527702 8:0.01342541519822572 9:0.10740878294100367 10:0.003373052929609937 
-1.0 0.0 0.0 0.0 0.0 0.0 0.0 1:0.0028251952994270174 2:0.0025541107175179644 3:0.002436844036047759 4:0.002340489948941186 5:0.8821217817610911 6:0.0018129554360753043 7:0.012085668830715789 8:0.09184902027240188 9:0.003443274337012214 10:0.0026816336221625815 
-1.0 0.0 0.0 0.0 0.0 0.0 0.0 1:0.004606004312765353 2:0.13512154399455756 3:0.006819910180945955 4:0.005287085254023686 5:0.7449490600183133 6:0.005178321838974384 7:0.08196792296102966 8:0.011188755725445317 9:0.0048966455045481 10:0.004773942439900208 
-1.0 0.0 0.0 0.0 0.0 0.0 0.0 1:0.0035443475869988616 2:0.003909728091065 3:0.003470650772759606 4:0.0033172236316778066 5:0.9243478010375069 6:0.0028847529276585402 7:0.00631376367606789 8:0.04881888228087996 9:0.003258379524413733 10:0.0036866700713253644 
-1.0 0.0 0.0 0.0 0.0 0.0 0.0 1:0.0028057459172823387 2:0.006708535073585578 3:0.0025233977543559364 4:0.0019071123234190286 5:0.8745938250641615 6:0.0014458246423349605 7:0.03273755549242053 8:0.07761924058453558 9:0.0016693989167400863 10:0.0021873784221125795 
-0.2931931351671526 0.0 0.0 0.0 0.0 0.0 0.0 1:0.002017649248077809 2:0.13850491340349425 3:0.0011247509028413088 4:5.304756913416707E-4 5:0.669603454582776 6:4.890439060020278E-4 7:0.16443239878876187 8:0.01966155550001666 9:9.393426790697753E-4 10:0.008192204092025436 
-1.0 0.0 0.0 0.0 0.0 0.0 0.0 1:0.09788740549027689 2:0.043966913493004814 3:0.00461459066760983 4:0.0030399954900872904 5:0.6781427824520743 6:0.004047428352713082 7:0.14461897777282956 8:0.0114744591734559 9:0.014161487643108851 10:0.007048397559589202 
-1.0 0.0 0.0 0.0 0.0 0.0 0.0 1:0.005986665818041234 2:0.0035155549305422953 3:0.0025862172034612015 4:0.003524549912836905 5:0.7660811386704488 6:0.0024526425607806386 7:0.03271181158985245 8:0.1807845883111581 9:0.0038487325672359888 10:0.004657513182951778 
-0.0 0.0 0.9103324884293812 0.0 0.0 0.0 0.0 1:0.005644934441955821 2:0.0026719187260858647 3:0.0017092665704232265 4:0.001082022516682008 5:0.7758181190208611 6:0.0011770597696061334 7:0.06940837954290698 8:0.0024177906869754713 9:0.0026616373196153586 10:0.14358390529598028 
-1.0 0.0 0.0 0.0 0.0 0.0 0.0 1:0.0038946691632209536 2:0.004268264840279365 3:0.0033487411262971838 4:0.004710439721201095 5:0.8590420269626585 6:0.0023142068877113906 7:0.005778988338555979 8:0.10807002085855087 9:0.0025362444193816553 10:0.01074652899554725 
-1.0 0.0 0.0 0.0 0.0 0.0 0.0 1:0.005349490449996153 2:0.004915639098891188 3:0.0021091851956349496 4:0.0020892593647181485 5:0.7623637656007511 6:0.0016436139854944193 7:0.14572337512907327 8:0.07281534546472303 9:0.004585425619248303 10:0.004453528822146757 
-1.0 0.0 1.0 1.0 1.0 1.0 0.966585683820695 1:0.050182641772780444 2:0.19463191909668556 3:0.014038201461998731 4:0.047366060622213296 5:0.31541848192962263 6:0.06499899161254057 7:0.216449852854782 8:0.04922690360412871 9:0.024633529402473164 10:0.03723546424990554 
-1.0 1.0 1.0 1.0 1.0 1.0 1.0 1:0.12055893919027148 2:0.02446643012599533 3:0.015980009299328215 4:0.22103991532032424 5:0.1478611878163528 6:0.1430213808228899 7:0.2919656087369533 8:0.027101298762154294 9:0.020769173930786002 10:0.01766190292435035 
-1.0 0.0 0.0 0.0 0.0 0.0 0.0 1:0.0037547567175171383 2:0.03682229876765673 3:0.0033862855829028616 4:0.02134095445325967 5:0.8676579039146874 6:0.0017713334964766661 7:0.01846434730898964 8:0.04194784196424184 9:0.0026045973978480468 10:0.007289575985415125 
-1.0 0.0 0.0 0.0 0.0 0.0 0.0 1:0.007436323092143523 2:0.14885776922782926 3:0.005586423482254192 4:0.0055004768545848775 5:0.8058791723311557 6:0.007591184085278404 7:0.005658631794682509 8:0.007247107873937567 9:0.004930525022233224 10:0.004972230588634271 
-1.0 0.0 0.0 0.0 0.0 0.0 0.0 1:0.024109898869000636 2:0.0066355481673522855 3:0.003034412962612726 4:0.0033616067542261603 5:0.7983797789602914 6:0.003812312068306122 7:0.02148712203635745 8:0.1360682146699047 9:0.004742686196340397 10:0.004354767652850375 
-1.0 0.0 0.0 0.0 0.0 0.0 0.0 1:0.004812956658233059 2:0.004301478716782491 3:0.003148662439828959 4:0.003518571390887276 5:0.8528490155895108 6:0.0024674689841182188 7:0.005006190418664651 8:0.11993212922923253 9:0.005639260591748263 10:0.0030414755793877323 
-1.0 0.565871338858555 1.0 1.0 1.0 1.0 0.0 1:0.03366626293392718 2:0.19888451466725154 3:0.01681147988879672 4:0.01237841882305707 5:0.13280296432203959 6:0.03883116808863157 7:0.3191003834557594 8:0.06948885778191737 9:0.01156748179596488 10:0.18178721927901095 
-1.0 1.0 1.0 0.7120632826510623 1.0 1.0 1.0 1:0.19067241247979463 2:0.04434845987478351 3:0.014910695591558377 4:0.01713356352740221 5:0.3191409165276838 6:0.14778290369892041 7:0.20367212992623612 8:0.04245576455831357 9:0.019889847488838413 10:0.017374359827693073 
-1.0 0.0 1.0 0.0 0.0 0.0 0.0 1:0.004013052903274731 2:0.021075164315876325 3:0.008740378550863744 4:0.0038666937814245757 5:0.7389462217930909 6:0.002974468474103553 7:0.021261270315868774 8:0.19821810680878815 9:0.0033050307914483396 10:0.004097634517117469 
-1.0 0.0 1.0 1.0 1.0 1.0 1.0 1:0.0729625150808517 2:0.4927273918151017 3:0.0013489278805271635 4:0.0012415276457867401 5:0.0057625999403367704 6:0.001213973315851285 7:0.42757595991354846 8:0.005287772302767958 9:0.002454762305441209 10:0.002178997123865501 
-1.0 0.0 0.0 0.0 0.0 0.0 0.0 1:0.005034142560698386 2:0.007832826506584548 3:0.004230022966514251 4:0.004648689727134955 5:0.851533543226208 6:0.0034945547055156238 7:0.010092355999797426 8:0.11077266387866462 9:0.0029914129221910537 10:0.004173875119730727 
-1.0 0.0 1.0 1.0 0.0 0.0 0.0 1:0.009983841085160945 2:0.011680229601540394 3:0.007741637585299594 4:0.009716650603766112 5:0.4991736242680275 6:0.006568759599186048 7:0.047907198083576824 8:0.3892924344351826 9:0.008839517373117913 10:0.020019171937691198 
-1.0 1.0 1.0 1.0 1.0 1.0 1.0 1:0.20120555869844045 2:0.06968025261870645 3:0.022365595029206972 4:0.023994515993099638 5:0.0362029550886452 6:0.1118853126359816 7:0.4322336943282833 8:0.022139388006949437 9:0.07213819295978252 10:0.030365364187506582 
-1.0 0.0 0.0 0.0 0.0 0.0 0.0 1:0.011213610637680348 2:0.047240225442038306 3:0.006441592090726467 4:0.0059423271028229896 5:0.7185930971301 6:0.009039044133825613 7:0.14586476827117892 8:0.04837869004560575 9:0.007693048866046567 10:0.006181379662918288 
-1.0 0.0 0.0 0.0 0.0 0.0 0.0 1:0.0036666811281303234 2:0.0030773401783997538 3:0.002371842718943046 4:0.0024553195732589365 5:0.897431172292844 6:0.0033628530736803893 7:0.011706663764254522 8:0.07304763228575735 9:0.0037302758614059794 10:0.003062810370207775 
-1.0 0.0 0.0 0.0 0.0 0.0 0.0 1:0.0033727033026988455 2:0.006563377760149365 3:0.002715203926821364 4:0.0027220647424368413 5:0.9262779738628334 6:0.002460275026242372 7:0.004453933280392079 8:0.04743948193236414 9:0.0027670217971690644 10:0.004659416084072357 
-1.0 0.0 0.0 0.0 0.0 0.0 0.0 1:0.0025235438044532827 2:0.004301528919598592 3:0.005421211973876007 4:0.0043703375923823595 5:0.9204307137015131 6:0.0032861329985908135 7:0.007193384702947774 8:0.0444248320925816 9:0.003772651585485166 10:0.007984846891787375 
-1.0 0.0 1.0 0.8870336309417322 0.0 0.0 0.0 1:0.005294697764001402 2:0.00540390767917455 3:0.003803344690462824 4:0.004588507210794292 5:0.010770926754390025 6:0.003907388476067637 7:0.44181688984997597 8:0.532589183650404 9:0.004772285303553082 10:0.005345157157604982 
-1.0 1.0 1.0 1.0 1.0 1.0 1.0 1:0.08223602035782679 2:0.0963615683543741 3:0.03089339735236056 4:0.10103947458211879 5:0.02490285592555921 6:0.08342755596739881 7:0.3717665633119991 8:0.039864014298284345 9:0.1636002944786654 10:0.029380607560255817 
-1.0 0.0 0.0 0.0 0.0 1.0 0.0 1:0.042953657474134536 2:0.04691388075280497 3:0.05186037285651643 4:0.05686833630483775 5:0.030198365769292797 6:0.08876067739716441 7:0.5751606212328313 8:0.03131476751350671 9:0.05244570020143611 10:0.045541723957063275 
-1.0 1.0 0.0 0.0 0.0 1.0 1.0 1:0.07272896534397282 2:0.06408962383843837 3:0.04319704415074038 4:0.044452547744292394 5:0.070996217735716 6:0.06526087272748522 7:0.4176192132572698 8:0.06610266553369891 9:0.1414059184579725 10:0.03449429918937004 
-1.0 0.0 1.0 1.0 1.0 1.0 1.0 1:0.0379078610389278 2:0.5418217586237587 3:0.0014275435733591747 4:0.0012842532410478865 5:0.0011128560537942665 6:0.005707781947830154 7:0.4185767006049978 8:0.0014062409540065177 9:0.0010804353228125855 10:0.001013868875949217 
-1.0 0.6911675168312467 1.0 1.0 0.0 0.7147329107106263 0.0 1:0.009224103377422462 2:0.005191756087093941 3:0.0032810775294179477 4:0.003970931230620257 5:0.052477939081692855 6:0.0028475108345982843 7:0.28620222953120955 8:0.644804171017343 9:0.0038905345000112054 10:0.00582080386014701 
-1.0 0.0 0.0 0.0 0.0 0.0 0.0 1:0.018157903412453692 2:0.04963087768795877 3:0.0014109598095171615 4:9.282749060764268E-4 5:0.7623938679822655 6:0.01690144281565917 7:0.03781975207141996 8:0.018275011328833905 9:0.09785840062872889 10:0.0015813613507982373 
-1.0 0.0 0.0 0.0 0.0 0.0 0.0 1:0.0031898994460331305 2:0.005293102397370605 3:0.0027665254618952253 4:0.0034921748667872472 5:0.004087889970682014 6:0.00244609582107648 7:0.6423085388564083 8:0.3449246107981561 9:0.002589809062838635 10:0.007136111432404158 
-1.0 0.0 0.0 0.0 0.0 0.0 0.0 1:0.03402727986735409 2:0.032751709427462104 3:0.035627165845200884 4:0.03268086821316079 5:0.042865599619499865 6:0.04215407533005385 7:0.6708466874723087 8:0.052114227529770234 9:0.028453551451043405 10:0.048774823129339874 
-1.0 1.0 1.0 1.0 1.0 1.0 1.0 1:0.24535695048771325 2:0.3997013419558195 3:0.0021278471829379577 4:0.002097767213644916 5:0.0026516054016235547 6:0.024479935618033032 7:0.33208906028154084 8:0.004000919674381144 9:0.0037478836219232673 10:0.001746305671066396 
-1.0 0.0 0.0 0.0 0.0 0.0 0.0 1:0.006160401757686387 2:0.006232414584268964 3:0.005081232177734986 4:0.0055001593281488875 5:0.030049588854903858 6:0.004022552337143951 7:0.5641035132697187 8:0.3864559182822071 9:0.004183540003173662 10:0.006262491077884303 
-1.0 0.0 0.0 0.0 0.0 0.0 0.0 1:0.003198161470417461 2:0.09402905694942207 3:0.006214398414883163 4:0.002770770570455577 5:0.005266982462166632 6:0.0025058039968543 7:0.7699206506295484 8:0.12524797498292495 9:0.0030808900634970936 10:0.0047422119399919424 
-1.0 0.0 0.0 0.0 0.0 1.0 0.0 1:0.16721233415835954 2:0.10659114776063612 3:0.02036591747175815 4:0.019844063266936995 5:0.018231391256525904 6:0.0637225124162524 7:0.5625520728663018 8:0.019842787341130937 9:0.02671350803737318 10:0.01627037949417452 
-1.0 0.0 0.0 0.0 0.0 0.0 0.0 1:0.00462644085688029 2:0.007181692079464955 3:0.015573861492453496 4:0.005846873205745623 5:0.017075351705857132 6:0.004468867484125939 7:0.6559475120924088 8:0.2969897767249362 9:0.004448626889031618 10:0.006355442736248128 
-1.0 0.0 0.5053522739111606 0.0 0.0 0.0 0.0 1:0.006293168002064617 2:0.007200456670954948 3:0.006248106233756888 4:0.0061792953492823275 5:0.010759661042147149 6:0.008272226963934292 7:0.501254952514253 8:0.45058226902162135 9:0.008220607083443946 10:0.013404582488096655 
-1.0 0.0 1.0 0.0 0.0 0.0 0.0 1:0.005039007950531628 2:0.005172262611031461 3:0.008237609201155434 4:0.0064048875105917336 5:0.029064480824415033 6:0.004145580656665174 7:0.4829698217450252 8:0.46171571220143615 9:0.0073668510376558236 10:0.008089139125600107 
-1.0 1.0 1.0 0.0 0.0 1.0 1.0 1:0.3739966573205291 2:0.003939658025234078 3:0.0030632242146102283 4:0.003910085029324976 5:0.03426893415597733 6:0.0035928852451524644 7:0.4036621733716149 8:0.005008948837276965 9:0.18979194853711015 10:0.0037273120370102156 
-1.0 0.0 0.0 0.0 0.0 0.0 0.0 1:0.004847108859321984 2:0.0032650750468407467 3:0.004812040916034022 4:0.008827407310899604 5:0.25724613708303273 6:0.0033609119633467997 7:0.5445517579112882 8:0.1365776793340444 9:0.04760172355368172 10:0.0031961058591121272 
-1.0 0.0 0.0 0.0 0.0 0.02374365866687653 0.0 1:0.28030465471225224 2:0.007246623808996269 3:0.003448464888006896 4:0.00608207799633371 5:0.009304090369283556 6:0.0030960697965026706 7:0.701191702277124 8:0.00437570667774762 9:0.006555461009955228 10:0.002874448528215678 
-0.588600728236902 0.0 0.0 0.0 0.0 0.0 0.0 1:0.004986089099039704 2:0.05792064241728179 3:0.012332616163569265 4:0.0029787315542760887 5:0.00951393240142716 6:0.00739488381150531 7:0.8201016741020886 8:0.09088088215600734 9:0.005517685352333971 10:0.005978733961027902 
-0.0 0.0 0.0 1.0 0.7345929998506545 0.0 0.0 1:0.0034495276450695407 2:0.3468855230880828 3:0.0016279799503661299 4:0.0021121963038102888 5:0.012286319065618992 6:0.0023588039276579566 7:0.6296599054416931 8:0.0038636933509664188 9:0.008838425060190955 10:0.0020244241386770897 
-1.0 0.0 0.0 0.0 0.0 0.0 0.0 1:0.04712635511733362 2:0.022461621554215546 3:0.011219895974478849 4:0.003937228879060666 5:0.015077244326945786 6:0.004604490178449912 7:0.770988942256315 8:0.12948601763268647 9:0.004480773898120278 10:0.009646714169390726 
-1.0 0.0 0.0 0.0 0.0 0.0 0.0 1:0.008311029545837692 2:0.03307860401310702 3:0.023171886390254734 4:0.005995103660251432 5:0.6183870242915324 6:0.019562620064925023 7:0.1922823749145802 8:0.08856090920450961 9:0.009072393788616764 10:0.01036161174256368 
-1.0 0.0 1.0 0.0 0.0 0.0 0.0 1:0.04894117446589446 2:0.007898119022615101 3:0.005795119111008535 4:0.008876530766985741 5:0.650170643516359 6:0.005341830063984686 7:0.01569350024685253 8:0.25279676336418416 9:0.009399884195111972 10:0.004367445421447772 
-1.0 0.0 0.0 0.0 0.0 0.0 0.0 1:0.005423199368793559 2:0.004754977488930146 3:0.005256832482077372 4:0.005305526327964103 5:0.09549763084642734 6:0.004342385875769136 7:0.7543683831087686 8:0.1323731294242597 9:0.004033705407035787 10:0.005585772307637692 
-1.0 0.0 0.0 0.0 0.0 0.0 0.0 1:0.004481975631240237 2:0.006815599682074787 3:0.005341550715764672 4:0.004334630490073068 5:0.00789217691666515 6:0.004742603754671514 7:0.8101929618903029 8:0.16625621267488397 9:0.0038457648735610757 10:0.004332922247026195 
-1.0 0.0 1.0 1.0 0.0 0.0 0.0 1:0.011817884259375085 2:0.0064328222605628685 3:0.032600147556558934 4:0.00437382937750307 5:0.1528335477907678 6:0.014055840120848817 7:0.2577191173543376 8:0.5100785777462541 9:0.02050580679776706 10:0.006450770448432153 
-1.0 0.0 1.0 1.0 0.0 0.0 0.0 1:0.0304698533981451 2:0.016486011131459206 3:0.20932026799254738 4:0.003806939808022827 5:0.5612636276626374 6:0.010361481599371617 7:0.09452373381551459 8:0.033509282199136986 9:0.04577225463478966 10:0.010093827045679718 
-1.0 0.0 0.0 0.0 0.0 0.0 0.0 1:0.003463278814464991 2:0.004648055547203574 3:0.0026869976238035826 4:0.002876853653380232 5:0.8167146699417877 6:0.0035201034987250653 7:0.012496441276214893 8:0.14513760624517405 9:0.003595427624060636 10:0.010101029191170565 
-1.0 0.0 0.0 0.0 0.0 0.0 0.0 1:0.003254223964604294 2:0.005448686764134111 3:0.0039006341511222545 4:0.005216450147436411 5:0.83160120253118 6:0.002477193792560777 7:0.018415602446237394 8:0.029149975051554873 9:0.002823041398619533 10:0.10310002934346062 
-1.0 1.0 0.0 0.0 0.0 0.0 1.0 1:0.0065953902541721525 2:0.004887311549686153 3:0.0036096480568807553 4:0.004479141574159964 5:0.6730839522737534 6:0.0119603919182862 7:0.00853108276715216 8:0.01489247254748675 9:0.26724029200812915 10:0.010687443969049313 
-1.0 0.0 0.0 0.0 0.0 0.0 0.0 1:0.002121747485474626 2:0.0026363358067213764 3:0.0014083573634833472 4:0.0016295907021864897 5:0.40286956053283085 6:0.001099547608574278 7:0.5063827795291954 8:0.08539040531545009 9:0.006582526773716955 10:0.0015384597755487668 
-1.0 0.0 1.0 1.0 0.7560590023776809 1.0 0.9051555424067467 1:0.002508948446192053 2:0.002288997127835786 3:0.0018717039299546738 4:0.005140260068247064 5:0.3893314725397229 6:0.0013582799479476672 7:0.009061068663522683 8:0.5952953657640585 9:0.003193194343682844 10:0.002206555283446571 
-1.0 0.0 0.0 0.0 0.0 0.6501441333500552 0.0 1:0.0017148511695101768 2:0.0018548004977996012 3:0.002291930157364713 4:0.1454568157310755 5:0.7921530516312152 6:0.0016213880337817832 7:0.026611895188661295 8:0.036019300814905224 9:0.003980204551165676 10:0.001981340514957323 
-1.0 1.0 1.0 1.0 1.0 1.0 1.0 1:0.05012227536554862 2:0.048391741988132106 3:0.06604673217589069 4:0.12717985295251463 5:0.17360716537059315 6:0.04995423086737692 7:0.2531028730626967 8:0.06917098588452975 9:0.04870581547038268 10:0.1384520631243811 
-1.0 0.0 0.0 0.0 0.0 0.0 0.0 1:0.0038060028965380003 2:0.0029804954645600815 3:0.003284800122126511 4:0.004686317150703619 5:0.8707588096367356 6:0.003466939581255266 7:0.01568220539316064 8:0.0875560833912077 9:0.008577244785244388 10:0.003670348967465646 
-1.0 0.0 1.0 0.0 0.0 0.0 0.0 1:0.003371925564140201 2:0.002968342948241595 3:0.011484293598130258 4:0.011463835836940032 5:0.7249668953091313 6:0.0040128599044110865 7:0.01564918261058655 8:0.21380619253972782 9:0.009576397221225939 10:0.010147603866919055 
-1.0 0.0 0.0 0.0 0.0 0.0 0.0 1:0.004705785212691472 2:0.003090443763186399 3:0.0030472823631288158 4:0.004302001873851949 5:0.9144989864749872 6:0.001410562209798209 7:0.00943209136444435 8:0.05449365967024571 9:0.005524198416746277 10:0.0032765955307609246 
-0.0 -0.0 0.0 0.0 0.0 0.0 1.0 1:0.004529628323080348 2:0.019091472041758914 3:0.001198100619503043 4:0.0015518996506331064 5:0.0025960224094002658 6:0.08272094970154213 7:0.003263818301590566 8:0.0014926155732103142 9:0.8937285992559321 10:0.0016843661102406546 
-0.0 -0.0 0.0 0.0 0.0 0.0 1.0 1:0.006903196357847193 2:0.014050743622555264 3:0.003113051988335089 4:0.0029515959815875755 5:0.003016017874103357 6:0.2673470510369603 7:0.0034692026414496436 8:0.002798115808163921 9:0.7062432839351553 10:0.002717914681425445 
-0.0 -0.0 0.0 0.0 0.0 0.0 1.0 1:0.0227716416665679 2:0.024239653705170974 3:0.006518776458161369 4:0.00369162909598865 5:0.004750811255451851 6:0.0742115200190437 7:0.001589795214231238 8:0.001877012528844599 9:0.8705071228222476 10:0.0024711212077610303 
-0.0 -0.0 0.0 0.0 0.0 0.0 0.1880160523847951 1:0.004432886496867809 2:0.0038486848264037655 3:0.039704057337004585 4:0.0014232647577522453 5:0.0021866086072766097 6:0.026534562062503722 7:6.985552505252908E-4 8:0.001913192822568455 9:0.9261424328287537 10:0.006342474275699954 
-0.0 -0.0 0.0 0.0 0.0 0.0 1.0 1:0.007067179518004848 2:0.014349915162841934 3:0.12836798007876005 4:0.0028087181297533036 5:0.010290251406548767 6:0.04033724502814656 7:0.005710632994447154 8:0.003999421730321605 9:0.7974002179693525 10:0.0061554085049602405 
-0.0 -0.0 0.0 0.0 0.0 0.0 1.0 1:0.006790790015456174 2:0.006310343014951151 3:0.0045138293742653405 4:0.003549158722928815 5:0.0034289982280598505 6:0.22095791190984612 7:0.0049134232039199505 8:0.0032106978942175995 9:0.756104366480079 10:0.0028631084847571975 
-0.0 -0.0 0.0 0.0 0.0 0.0 1.0 1:0.0020126773354218787 2:0.01709648987600198 3:0.001503983794298354 4:8.013646658088014E-4 5:0.012422468753546433 6:0.06813416114417185 7:0.0035100344616896414 8:0.0016061342997662686 9:0.9027274000903522 10:0.0018215697578486524 
-0.0 -0.0 0.0 0.0 0.0 0.0 1.0 1:0.0035208909145065166 2:0.0036076227890279597 3:0.002931496287901485 4:0.0018746765731178544 5:0.001982861863861543 6:0.19209081849091655 7:0.0020004386854233997 8:0.0019497226882644358 9:0.7998622036686787 10:0.002494961838642264 
-0.0 -0.0 0.0 0.0 0.0 0.0 0.783808018506538 1:0.08027453026180312 2:0.09405314116125724 3:0.0024897076354825133 4:0.003367465665471452 5:0.00500596132342939 6:0.06222238835001609 7:0.1298363389266653 8:0.006224560643774095 9:0.6283569025239107 10:0.0025846565809230313 
-0.0 -0.0 0.0 0.0 0.0 0.0 1.0 1:0.02805150343355891 2:0.037571973887751145 3:0.002457539572847752 4:0.003909785010905894 5:0.004468140062916423 6:0.08725707659961955 7:0.0021693383019056557 8:0.0020841199159631245 9:0.8423612381938643 10:0.002259188999682396 
-0.0 -0.0 0.0 0.0 0.0 0.0 1.0 1:0.005859809486556408 2:0.046821115819279197 3:0.0024096535131075277 4:0.004362730976242971 5:0.03427722126965542 6:0.05380105006366675 7:0.009140244963566331 8:0.003540064201402535 9:0.8484691773447423 10:0.002914866664687609 
-0.0 -0.0 0.0 0.0 0.0 0.0 1.0 1:0.0025796400997460745 2:0.011796938567088204 3:8.342450370326829E-4 4:7.833025985789579E-4 5:0.0015665307309407847 6:0.057193831409743226 7:0.005976572776864326 8:0.0013740747513541246 9:0.9289150183161884 10:7.260100036647133E-4 
-0.0 -0.0 0.0 0.0 0.0 0.0 1.0 1:0.008857120199649555 2:0.04969942520044674 3:0.002694585882858714 4:0.0028845263981057546 5:0.001976789044245522 6:0.37544462196418055 7:0.0023206951174239636 8:0.001969159220902628 9:0.5643925531408056 10:0.0024133018892325705 
-0.0 -0.0 0.0 0.0 0.0 0.0 1.0 1:0.008931408795343853 2:0.011761912395527901 3:0.00636036242273581 4:0.003156726885068086 5:0.00703908090008267 6:0.11127415013652468 7:0.005937966218157319 8:0.0045053897528187295 9:0.8482620992730808 10:0.005196133914059299 
-0.0 -0.0 0.0 0.0 0.0 0.0 1.0 1:0.006874012625143128 2:0.015670983638660974 3:5.498806259097789E-4 4:4.532669892069471E-4 5:3.5903879719881185E-4 6:0.3272936775454301 7:3.140482042725517E-4 8:6.500397085857061E-4 9:0.6598066940927712 10:5.018753099057624E-4 
-0.0 -0.0 0.0 0.0 0.0 0.0 1.0 1:0.002263526842530826 2:0.05572823942957494 3:6.059654401840287E-4 4:6.257712317067208E-4 5:4.171443429394627E-4 6:0.43095788437452154 7:6.389971524818151E-4 8:4.56141581953596E-4 9:0.5200119549840511 10:6.148437221773003E-4 
-0.0 -0.0 0.0 0.0 0.0 0.0 1.0 1:0.009825570055178893 2:0.0399594168277348 3:7.855709266771885E-4 4:4.0576364371220817E-4 5:6.383997206863811E-4 6:0.04786399309157978 7:6.122021031222032E-4 8:3.675479709647622E-4 9:0.9105349967541883 10:6.699790650475791E-4 
-0.0 -0.0 0.0 0.0 0.0 0.0 1.0 1:0.028633430171480508 2:0.02713205038082274 3:0.0031705884990331744 4:0.0028346099856521455 5:0.00974027742770807 6:0.2769960367626935 7:0.0015956149152114053 8:0.0016229383566499847 9:0.6568793691153195 10:0.004489032056381381 
-0.0 -0.0 0.0 0.0 0.0 0.0 1.0 1:0.014278101069208649 2:0.014210046764965144 3:0.005364703450673445 4:0.006875011123366301 5:0.009787157393762258 6:0.1491868324719643 7:0.007687679681595576 8:0.007850083618876923 9:0.7914016446941408 10:0.0062325098748290675 
-0.0 -0.0 0.0 0.0 0.0 0.0 1.0 1:0.012697755971643208 2:0.09053532146241366 3:0.09648768223056815 4:0.004736740232372383 5:0.006674453122835778 6:0.03816904752627507 7:0.016244056762948284 8:0.007208252909316501 9:0.7351247668788748 10:0.007308685473267832 
-0.0 -0.0 0.0 0.0 0.0 0.0 1.0 1:0.11831609803617564 2:0.03625884204360934 3:0.013274445631539716 4:0.025297177671830467 5:0.01617078673971689 6:0.12044665193438409 7:0.014257335861574997 8:0.013490423688645309 9:0.6478745278614537 10:0.011771955892897928 
-0.0 -0.0 0.0 0.0 1.0 0.0 1.0 1:0.061966171518640076 2:0.3272359306455229 3:0.0015166884562284506 4:0.001466233635056184 5:0.00517248711796152 6:0.011444069117528164 7:0.002234039981622288 8:0.00416683096730951 9:0.5937050404063917 10:0.002119892651579003 
-0.0 -0.0 0.0 0.0 0.0 0.0 1.0 1:0.005599745541683768 2:0.06068653933960173 3:0.009265034352421923 4:0.0015765821312873852 5:8.991410283981127E-4 6:0.18099624523997296 7:0.0010268775769525264 8:0.001729004597812678 9:0.7475728998657056 10:0.0027810441438962247 
-0.0 -0.0 0.0 0.0 0.0 1.0 0.0 1:0.12439271474336093 2:0.02620352964728264 3:0.016107975915168604 4:0.2450767946352678 5:0.014419575671839832 6:0.11056117531689108 7:0.01714348805882206 8:0.014754509301118615 9:0.44500808982680923 10:0.01773178874940358 
-0.0 -0.0 0.0 0.0 0.0 0.0 1.0 1:0.013731191013834054 2:0.11670868626584764 3:0.0029398157855799133 4:0.004023274132535154 5:0.011868496684806886 6:0.05310243625083461 7:0.04113575503863212 8:0.0040323592602502685 9:0.760861045842841 10:0.003314884813200762 
-0.0 -0.0 0.0 0.0 0.0 0.0 1.0 1:0.020497937373030187 2:0.06487894134560503 3:0.09962521012536048 4:0.0041987541564276615 5:0.005614025431804019 6:0.0076832003225445825 7:0.011863465635195743 8:0.03092793272931112 9:0.7459919262134237 10:0.024618097817148982 
-0.0 -0.0 0.0 0.0 1.0 0.0 1.0 1:9.717423338295254E-4 2:0.37850784045651537 3:5.70704742286796E-4 4:5.471199268904585E-4 5:7.039125897828629E-4 6:0.04954198333565309 7:6.604371859993131E-4 8:4.270245902383544E-4 9:0.5760638510899555 10:8.846508879455802E-4 
-1.0 -1.0 1.0 1.0 1.0 1.0 1.0 1:0.1041401487701448 2:0.10045483534373335 3:0.1049036804104076 4:0.10807082978879425 5:0.1002578192844073 6:0.10126901051836142 7:0.10164370559946481 8:0.10177188961210826 9:0.10115877971494683 10:0.10218286401469022 
-0.0 -0.0 0.0 0.0 0.0 0.0 1.0 1:0.043325591706524176 2:0.011556886772115131 3:0.00188234411267995 4:0.003009318790920147 5:0.0017369009973058477 6:0.2976283215046756 7:0.0023130330454780076 8:0.0022207751825855894 9:0.6481270866564416 10:0.0019149088898623415 
-0.0 -0.0 0.0 0.0 0.0 0.0 1.0 1:0.03358582530084581 2:0.010343638867837257 3:0.0028063709615083108 4:0.006776531434424922 5:0.0019542031839339573 6:0.188039499108364 7:0.001645819590522747 8:0.0015162769070783772 9:0.765565483768762 10:0.0011791881042518546 
-0.0 -0.0 0.0 0.0 0.0 0.0 1.0 1:0.01316944331382009 2:0.005483404879002677 3:0.3183181702908238 4:0.009266124455342781 5:0.003969295886145499 6:0.015606708446685493 7:0.004615571283115077 8:0.025093552993725027 9:0.6249464087005157 10:0.003570023088902702 
-0.0 -0.0 0.0 0.0 0.0 0.0 1.0 1:0.017390084483862974 2:0.007862223206672896 3:4.746029796074051E-4 4:7.731565058039442E-4 5:0.0018371587334335127 6:0.07341912351640428 7:0.003473840549275524 8:9.008580785416195E-4 9:0.9054769230429764 10:6.022730674019623E-4 
-0.0 -0.0 0.0 0.0 0.0 0.0 1.0 1:0.00496069958689576 2:0.1460230367501191 3:0.005071627933474059 4:0.0022527456996289563 5:0.0016782446895204962 6:0.010789569484434637 7:0.001181061347321479 8:0.0015926199577543801 9:0.8353055781013873 10:0.0020616639577948023 
-0.0 -0.0 0.0 0.0 0.0 0.0 1.0 1:0.02110291011702776 2:0.2358779775207771 3:0.009113194536703027 4:0.00406195994480702 5:0.013361186237800584 6:0.01874557835891774 7:0.01135917142985284 8:0.007821075213883425 9:0.6840792001606638 10:0.005493939012477563 
-0.0 -0.0 0.0 0.0 0.0 0.0 1.0 1:0.0022544469666354286 2:0.16365898508379945 3:7.022001000757803E-4 4:0.0011912730746422484 5:7.913025292660157E-4 6:0.12323062731081001 7:0.0017745203042756562 8:7.674126474538533E-4 9:0.7157654100442206 10:6.298582680328386E-4 
-1.0 -0.0 0.0 0.0 0.0 0.0 0.0 1:0.004280315451203174 2:0.003444337166935589 3:0.00428312445038807 4:0.002439754668596544 5:0.03333111772161687 6:0.02410332001239167 7:0.004613902211376501 8:0.3590836864571129 9:0.5662835833172436 10:0.01228788204820622 
-0.0 -0.0 0.0 0.0 0.0 0.0 1.0 1:0.01621976663113479 2:0.040280757513528394 3:0.014120070560338871 4:0.0021441194682242717 5:0.01303905294135145 6:0.06758113783934482 7:0.0166005601470256 8:0.04025124312285828 9:0.7991520633150244 10:0.0033653746113650154 
-0.0 -0.0 0.0 0.0 0.0 0.0 1.0 1:0.013745072116340094 2:0.01118353709426337 3:0.011177056420509895 4:0.014559871345698847 5:0.011197248140363786 6:0.09970367094137293 7:0.013562364581974276 8:0.009783984267737484 9:0.8195341386563414 10:0.00906007511111266 
-0.0 -0.0 0.0 0.0 0.0 0.0 1.0 1:0.006355156592739447 2:0.0038385707837788638 3:0.0195344583472269 4:0.009516180705972523 5:0.0034095683296398722 6:0.16964718989016792 7:0.00350446216843623 8:0.0040769195701430274 9:0.7880588951236203 10:0.005508745314892834 
-0.0 -0.0 0.0 0.0 0.0 0.0 1.0 1:0.002914952700206074 2:0.040699057892387376 3:0.0017401163642062748 4:0.0019259525872013133 5:0.002726499184313087 6:0.23505178748538993 7:0.002589138348718075 8:0.0017494781755726155 9:0.7209039877676029 10:0.001779314713928262 
-0.0 -0.0 0.0 0.0 0.0 0.0 1.0 1:0.007136308027480703 2:0.0760857300829405 3:0.010962896603829876 4:8.610027113817763E-4 5:0.001376780036093399 6:0.03915045306253406 7:0.001091179206112781 8:0.002754347937678903 9:0.8698231718940146 10:0.0024715647562880997 
-0.0 -0.0 0.0 0.0 0.0 0.0 1.0 1:0.1278002041960545 2:0.029214973107922707 3:0.012600246834957194 4:0.029574885791570214 5:0.016492774227921732 6:0.12223895487046094 7:0.015075100878774044 8:0.01278151081137987 9:0.6387193508976146 10:0.013247918477871873 
-0.0 -0.0 0.0 0.0 1.0 0.0 1.0 1:0.060207160016063736 2:0.32868767330083914 3:0.0012829199208227043 4:0.0014234737793930572 5:0.005658760655874128 6:0.012287740995971495 7:0.0020374466913350856 8:0.004232379002849831 9:0.5930238229594457 10:0.0021097836469557213 
-0.0 -0.0 0.0 0.0 0.0 0.0 1.0 1:0.006053532458520175 2:0.006737623392793172 3:0.0014278284311124725 4:0.00117616509428288 5:7.842769006349403E-4 6:0.08493954937503305 7:0.0018011522519915072 8:6.2548941540666E-4 9:0.907904165140537 10:5.26398652313686E-4 
-0.0 -0.0 0.0 0.0 0.0 1.0 0.0 1:0.12623643573532042 2:0.02750210734263663 3:0.015750907777420338 4:0.248236322946111 5:0.015033485551459277 6:0.10821397172736656 7:0.01575755698549676 8:0.0146851948353619 9:0.4435620718212923 10:0.01662004183131521 
-0.0 -0.0 0.0 0.0 0.0 0.0 1.0 1:0.012811352305961839 2:0.1151871715115848 3:0.002626862718704452 4:0.004229352254231567 5:0.011390218895217174 6:0.054336762953668016 7:0.0406134331800579 8:0.004008058940681913 9:0.763106092955947 10:0.0034001441795430704 
-0.0 -0.0 0.0 0.0 0.0 0.0 1.0 1:0.019873229860105802 2:0.06203962279959388 3:0.09974856769219964 4:0.0041226006777934894 5:0.006014639070441102 6:0.007015403157574881 7:0.012910845907831012 8:0.031915717961921226 9:0.7484243117856588 10:0.02383793722621679 
-0.0 -0.0 0.0 0.0 0.0 0.0 1.0 1:0.21410078095208604 2:0.07663461666217461 3:0.013314725490036218 4:0.011231466066721478 5:0.007178794310027723 6:0.1697118590324868 7:0.014264545854766069 8:0.008416819123529448 9:0.49769915825521577 10:0.0063244528401669295 
-0.0 -0.0 0.0 0.0 0.0 0.0 1.0 1:0.0034962928958558333 2:0.06309330535230173 3:0.0017106920739852463 4:0.0026300451979330134 5:0.0038928504564997926 6:0.04543284482001246 7:0.008881516530288232 8:0.0026155076863589024 9:0.8763909764927009 10:0.0033903496779425 
-0.0 -0.0 0.0 0.0 0.0 0.0 1.0 1:0.003470920840513813 2:0.00291515920030999 3:8.926690807929354E-4 4:0.0012103273723217854 5:0.001589752475430328 6:0.0625830931345392 7:0.001209054977214629 8:0.0018872794488377879 9:0.9349789795607957 10:0.001120589002924401 
-0.0 -0.0 0.0 0.0 0.0 0.0 1.0 1:0.08786069807356453 2:0.07038632376135504 3:0.03691801345712974 4:0.001132522333391326 5:0.0029238934294995417 6:0.03543757386941653 7:0.025879207917327632 8:0.007362221181549401 9:0.7435622260436026 10:0.00375251842966557 
-0.0 -0.0 0.0 0.0 0.0 0.0 1.0 1:0.04359885225805522 2:0.05220131018019141 3:0.006850309602349025 4:0.013299957197227655 5:0.011476137266557584 6:0.13698105581027228 7:0.018704881984779813 8:0.023171872299644587 9:0.6971216091331766 10:0.010652913127781414 
-0.0 -0.0 0.0 0.0 0.0 0.0 1.0 1:0.002424301722482229 2:0.0094778919303848 3:0.05960768356186865 4:8.481271784423609E-4 5:0.002461885113733508 6:0.042739209931001124 7:0.0013885035569802715 8:0.0013526606302006032 9:0.891502858096512 10:0.0019999486422532394 
-0.0 -0.0 0.0 0.0 0.0 0.0 1.0 1:0.0031683525482502574 2:0.0030720577510041282 3:0.02521668649990935 4:0.002454131053723338 5:0.002101352733764099 6:0.11601677128949155 7:0.0018025615004554848 8:0.0016050307718982397 9:0.8549370127219952 10:0.0025700132735224875 
-0.0 -0.0 0.0 0.0 0.0 0.0 1.0 1:0.006100791539457749 2:0.11175211824291617 3:0.007956344699423606 4:0.0022820656784936855 5:0.00785329462564851 6:0.0420515375010247 7:0.011179034689690006 8:0.005419670602943439 9:0.8110104276865105 10:0.00585079839842361 
-0.0 -0.0 0.0 0.0 0.0 0.0 1.0 1:0.03826092010569677 2:0.06396473963061707 3:0.005790469227793809 4:0.00439867444037405 5:0.005836185274909922 6:0.4210079408169401 7:0.005153284003433999 8:0.004772719362199848 9:0.46023930324872236 10:0.004313592856863668 
-0.0 -0.0 0.0 0.0 0.0 0.0 1.0 1:0.003319961786675519 2:0.026404550857720248 3:7.246622598242378E-4 4:8.630023119023617E-4 5:9.259928374497221E-4 6:0.237695257240123 7:9.082954855829456E-4 8:7.108002889533181E-4 9:0.7398160866078178 10:7.241392241782771E-4 
-0.0 -0.0 0.0 0.0 0.0 0.0 1.0 1:0.01731638649454616 2:0.0010602597170898491 3:8.462476868569753E-4 4:0.004148520020267453 5:9.058115660692912E-4 6:0.08547862978950276 7:7.15772842761192E-4 8:7.525314746124795E-4 9:0.90055973698624 10:7.231158328564191E-4 
-0.0 -0.0 0.0 0.0 0.0 0.0 1.0 1:0.0027542100238457435 2:0.002120454539286006 3:9.916026175176209E-4 4:7.884708989036653E-4 5:0.0013373050741420994 6:0.3351618708167678 7:0.0010876994996067756 8:0.0015757940489374372 9:0.6659369334828442 10:7.624768220130927E-4 
-0.0 -0.0 0.0 0.0 0.0 0.0 1.0 1:0.023935691052002012 2:0.024464038739252045 3:0.006423528863444336 4:0.003895167858877077 5:0.005023744407536474 6:0.07200170455498757 7:0.0018030812693968744 8:0.001699228206909866 9:0.8709239307669779 10:0.0024925075630301873 
-0.0 -0.0 0.0 0.0 0.0 0.0 1.0 1:0.007081243376320501 2:0.013658614227869487 3:0.1284812862883012 4:0.0028087181297533036 5:0.010926083728437914 6:0.03963897299255325 7:0.0056419159818509755 8:0.004136891280090012 9:0.7986702655297538 10:0.0054388165547706755 
-0.0 -0.0 0.0 0.0 0.0 0.0 1.0 1:0.006922756937095216 2:0.006437534363445815 3:0.004367639594102038 4:0.003207307578648923 5:0.0037590474358871456 6:0.22127909678509422 7:0.004333103410324662 8:0.003404187826655089 9:0.7557968213309239 10:0.003108795829183395 
-0.0 -0.0 0.0 0.0 0.0 0.0 1.0 1:0.004349871837184487 2:0.03827751413431971 3:0.2073663113590549 4:0.0030702610893937614 5:0.0014911762514828021 6:0.07678474570873231 7:0.0017107296370330205 8:0.0014092534774649012 9:0.6821663906420998 10:0.0025483992687132715 
-0.0 -0.0 0.0 0.0 0.0 0.0 1.0 1:0.006242248103221962 2:0.06168173565179404 3:0.0028514728834985437 4:0.0016904639010419872 5:0.0013632264210608773 6:0.31820925117724713 7:0.0014556996208220311 8:0.0013644098408306796 9:0.6159172608287989 10:0.0014829641348467137 
-0.0 -0.0 0.0 0.0 0.0 1.0 0.0 1:0.0071518138082258325 2:0.008840178936510056 3:0.003842685383515617 4:0.4861855434538974 5:0.0039699525066031445 6:0.010681416522649635 7:0.004756399107388388 8:0.0038869912771181425 9:0.5076057502323001 10:0.005513822470436113 
-0.0 -0.0 0.0 0.0 0.0 0.0 1.0 1:0.0015166900718432514 2:0.005739028694426978 3:0.0031495106142289757 4:8.224587755759142E-4 5:9.710675507770595E-4 6:0.0619128984278789 7:7.656243988317977E-4 8:1.9655958517035563E-4 9:0.9359684495380527 10:7.81292908359953E-4 
-0.0 -0.0 0.0 0.0 0.0 0.0 1.0 1:0.009038393722809549 2:0.04892413333491601 3:0.002740224620773027 4:0.002978441692257103 5:0.002074872817120235 6:0.37869838858873517 7:0.002475695300985464 8:0.001958084917422728 9:0.5616642122795784 10:0.002124664996879986 
-0.0 -0.0 0.0 0.0 0.0 0.0 1.0 1:0.007183114541988731 2:0.0019302122694054892 3:0.0027017682671599806 4:0.002338672747280951 5:0.008742654304817066 6:0.10054680377315857 7:0.002211816825361786 8:0.0021275366097665465 9:0.880175927440495 10:0.004215570638604421 
-0.0 -0.0 0.0 0.0 0.0 0.0 1.0 1:0.01395088301121565 2:0.02550507950181296 3:0.006104430140252675 4:0.004561837761796775 5:0.004877844469437555 6:0.3860301835822229 7:0.009153716994002928 8:0.00446374322276306 9:0.5543551982615373 10:0.004282332886170198 
-0.0 -0.0 0.0 0.0 0.0 0.0 1.0 1:0.009318026021118385 2:0.03288958605269663 3:0.00443541849217775 4:0.003672009228883715 5:0.0035336251631727126 6:0.07207648339812006 7:0.004365750640818152 8:0.003938898952226198 9:0.8746979575293305 10:0.003214897372108723 
-0.0 -0.0 0.0 0.0 0.0 0.0 1.0 1:0.009628099328819485 2:0.03961048816657087 3:7.303301896164133E-4 4:4.3607678152620327E-4 5:5.891530063777417E-4 6:0.04789603375238737 7:7.194083278062657E-4 8:3.496756483247874E-4 9:0.9109291494453471 10:7.738923468058382E-4 
-0.0 -0.0 0.0 0.0 0.0 0.0 1.0 1:0.028946738710915566 2:0.025689986513978916 3:0.0036020183554195113 4:0.0027484805805664397 5:0.009992451405660267 6:0.2777181147944519 7:0.001708085367332425 8:0.0016666881715382586 9:0.656680687041775 10:0.0043699918004182275 
-0.0 -0.0 0.0 0.0 0.0 0.0 1.0 1:0.003632835545387503 2:0.0022865202058542627 3:0.0021883641410856193 4:0.005146055750769187 5:0.004783247755414697 6:0.3315822079971515 7:0.003114602425724465 8:0.002007340665374004 9:0.6556721283157249 10:0.0024334121977427885 
-0.0 -0.0 0.0 0.0 0.0 0.0 1.0 1:0.03981036134433404 2:0.06556181651910112 3:0.005963846371095348 4:0.004666255767494485 5:0.005960388858111418 6:0.4207565358513342 7:0.005237402671869833 8:0.0048358246710606305 9:0.4564988158267737 10:0.004503372323913943 
-0.0 -0.0 0.0 0.0 0.0 1.0 1.0 1:0.2339705301911607 2:0.06109591015573377 3:0.008697950960096857 4:0.009947688815998904 5:0.010331010446407161 6:0.2043010370747404 7:0.011803865512010603 8:0.008505063578229532 9:0.46263595930242385 10:0.008094265626682657 
-0.0 -0.0 0.0 0.0 0.0 0.0 1.0 1:0.05430283837083633 2:0.25535162323897864 3:0.008567912771971081 4:0.001930686518241012 5:0.0019399395577059159 6:0.0559745738869736 7:0.0012093846447311072 8:0.0030435716116326834 9:0.6276290642348383 10:0.0018039223352646272 
-0.0 -0.0 0.0 0.0 0.0 0.0 1.0 1:0.044073942049976125 2:0.016575028598872086 3:0.025829879752130906 4:0.1024502056667456 5:0.01784309112665457 6:0.1928551033928605 7:0.016597543588721633 8:0.03411853566042577 9:0.5490925403049959 10:0.021426657096259745 
-0.0 -0.0 0.0 0.0 0.0 0.0 1.0 1:0.004996834572481634 2:0.01881715186879204 3:0.0014685080595861284 4:0.001229162227266967 5:0.002559862470221545 6:0.08221905730670176 7:0.0030066749769913897 8:0.0013876319845641829 9:0.8945733662920018 10:0.0016001735972832323 
-0.0 -0.0 0.0 0.0 0.0 0.0 1.0 1:0.02224781944312254 2:0.024499098900827215 3:0.007258777001732131 4:0.0038574754953792185 5:0.005170708412505119 6:0.07567764758654245 7:0.001476042651476232 8:0.001727673698419422 9:0.868168759606899 10:0.0025637954139273865 
-0.0 -0.0 0.0 0.0 0.0 1.0 1.0 1:0.1869918022901736 2:0.04765955347167141 3:0.025461204586432147 4:0.04203860051771675 5:0.019335526777894494 6:0.17494188682682346 7:0.019592599133602378 8:0.022142671740201653 9:0.4627517589082042 10:0.019909594356069826 
-0.0 -0.0 0.0 0.0 0.0 0.0 1.0 1:0.007151562667898775 2:0.01146271714030995 3:0.1272207547071559 4:0.0028087181297533027 5:0.010493176615662321 6:0.038707943611762156 7:0.005848067019639509 8:0.0040406625952521275 9:0.8026306288901442 10:0.006100286047253353 
-0.0 -0.0 0.0 0.0 0.0 0.0 1.0 1:0.006606036325161516 2:0.005267373957294885 3:0.004726469054502875 4:0.0036175289517847934 5:0.0038225184373923936 6:0.22144611292022334 7:0.004642607300242149 8:0.002978509975292614 9:0.7565528698225973 10:0.0029924176134025647 
-0.0 -0.0 0.0 0.0 0.0 0.0 1.0 1:0.02851942404630249 2:0.06482106568825903 3:0.007658509716191757 4:0.008913761909351248 5:0.007436230018844212 6:0.10770666910186862 7:0.009106265678640186 8:0.008591216238308377 9:0.7633238000894144 10:0.006976897086777575 
-0.0 -0.0 0.0 0.0 0.0 0.0 1.0 1:0.0020399983386948962 2:0.017152916276627274 3:0.0014175107943609087 4:7.892321238712283E-4 5:0.011923135482022775 6:0.06868891643161651 7:0.0033498436221136496 8:0.0018541127763959245 9:0.9028448879117552 10:0.0015768085000201803 
-0.0 -0.0 0.0 0.0 0.0 0.0 1.0 1:0.004242096613693313 2:0.04008955739053409 3:0.20504482359878107 4:0.00319434296963696 5:0.0015602905546478268 6:0.0750185490995243 7:0.0015761547428835812 8:0.0014385164513092972 9:0.6844106150697868 10:0.0025014638698316167 
-0.0 -0.0 0.0 0.0 0.0 0.0 1.0 1:0.005735267778691031 2:0.06297203453489453 3:0.0028355177527135587 4:0.0014934693035522444 5:0.0012184476143972216 6:0.31680568624084615 7:0.0013473246607140913 8:0.0013102083541487739 9:0.6171479933234002 10:0.001351009651214254 
-0.0 -0.0 0.0 0.0 0.0 0.0 1.0 1:0.02935387655979411 2:0.038143270517741544 3:0.002659321056647625 4:0.0041173977569128155 5:0.004387833490799143 6:0.085298331776872 7:0.0023977711965445193 8:0.0021575637541479072 9:0.8421018242240805 10:0.00202195718834918 
-0.0 -0.0 0.0 0.0 0.0 0.0 1.0 1:0.006263192488152137 2:0.04800766902228106 3:0.002298862277843579 4:0.0037167707579426256 5:0.03465516608502712 6:0.051133709017627024 7:0.009170961192961785 8:0.0038319438075396593 9:0.8494865719191625 10:0.002981598692091777 
-0.0 -0.0 0.0 0.0 0.0 0.0 1.0 1:0.009163019269982052 2:0.04986321925654479 3:0.0028429117810802288 4:0.0030136599275638596 5:0.0021075674080784732 6:0.3753453545078383 7:0.0023206951174239644 8:0.0020909765591815258 9:0.5637214692999393 10:0.0022023749294364492 
-0.0 -0.0 0.0 0.0 0.0 0.0 1.0 1:0.0072828021869586895 2:0.001746058585162964 3:0.002241636707859813 4:0.0023042415579290626 5:0.008646762476996006 6:0.09922855405907004 7:0.002154990717132993 8:0.0025173020742334257 9:0.8819021882741807 10:0.004134170679005502 
-0.0 -0.0 0.0 0.0 0.0 0.0 1.0 1:0.006477516394611992 2:0.015750297366746754 3:6.327540189225955E-4 4:5.191561630469255E-4 5:5.425419939243781E-4 6:0.32888866510208664 7:3.103929046511347E-4 8:5.293836414057482E-4 9:0.6582194373228132 10:6.008356230387461E-4 
-0.0 -0.0 0.0 0.0 0.0 0.0 1.0 1:0.002254953317832934 2:0.05574889760198157 3:5.412094559893322E-4 4:6.435385278872121E-4 5:5.037385745633753E-4 6:0.4291341531420199 7:7.730478782921567E-4 8:5.231842698814391E-4 9:0.5215645950642646 10:6.274450050707817E-4 
-0.0 -0.0 0.0 0.0 0.0 0.0 1.0 1:0.009609815002304723 2:0.040244903914141664 3:7.52426484440723E-4 4:3.9818535925870884E-4 5:5.821177614765072E-4 6:0.047529346189811444 7:7.051141645150575E-4 8:4.1759047435669267E-4 9:0.910762255963505 10:6.520629819858102E-4 
-0.0 -0.0 0.0 0.0 0.0 0.0 1.0 1:0.028300939476569847 2:0.025770101173248013 3:0.003061121222039625 4:0.00327850768878617 5:0.008934550815226663 6:0.2793552399871454 7:0.0018330525363557811 8:0.001604188435983582 9:0.6564385432646427 10:0.004557950099307419 
-0.0 -0.0 0.0 0.0 0.0 0.0 1.0 1:0.004174554363242784 2:0.007937698504691091 3:0.0032050482514700035 4:0.0036127459955150394 5:0.002304555856977503 6:0.09013159822261277 7:0.0023325046552191272 8:0.002365283700529109 9:0.8924957251773652 10:0.0036113997003761576 
-0.0 -0.0 0.0 0.0 0.0 0.0 1.0 1:0.0030722903353778554 2:0.002406578071311662 3:0.0023373314567546708 4:0.005299328057469072 5:0.004723336503200217 6:0.33058932188491597 7:0.0027950683171522445 8:0.001862752156778299 9:0.6570102141382906 10:0.002746182928749294 
-0.0 -0.0 0.0 0.0 0.0 0.0 1.0 1:0.007321298733413968 2:0.07533979647210878 3:0.011403929577561797 4:8.492670646583249E-4 5:0.0014712007844519448 6:0.03752960461165365 7:0.0012498189752179127 8:0.0028023211952488245 9:0.8712822194762321 10:0.0024863619009643876 
-0.0 -0.0 0.0 0.0 0.0 0.0 1.0 1:0.12116132988413929 2:0.03217232266107359 3:0.013330628864588254 4:0.02836094159542784 5:0.015956128414247015 6:0.12120702287696213 7:0.014802512539707694 8:0.013163233129907413 9:0.644353305952285 10:0.012974592073247068 
-0.0 -0.0 0.0 0.0 0.0 0.0 1.0 1:0.033994457726989405 2:0.008665258018837049 3:0.004086623456490824 4:0.0039356940954045055 5:0.004641933745277355 6:0.07156906562211494 7:0.00490353733028622 8:0.004003103347256434 9:0.8734906157957185 10:0.0037495908698832454 
-0.0 -0.0 0.0 0.0 0.0 0.0 1.0 1:0.0022216026545684776 2:0.0022762617117723302 3:0.11558730394706421 4:0.006306683989716849 5:0.0021166805555582137 6:0.008370789758965906 7:0.0017966206775974008 8:0.021118786394310935 9:0.85443210269717 10:0.002018638564703192 
-0.0 -0.0 0.0 0.0 0.0 0.0 1.0 1:0.0059550760399002135 2:0.006619955438006469 3:0.0016776925050215647 4:0.0013149093097893452 5:7.312407101499923E-4 6:0.08599773802417458 7:0.0018550315396196099 8:9.142030650122804E-4 9:0.9064127409394633 10:5.186807705638253E-4 
-0.0 -0.0 0.0 0.0 0.0 1.0 0.0 1:0.13233489747795554 2:0.026886991592205794 3:0.01653645768046652 4:0.2398598990522475 5:0.015579183222232113 6:0.11221802490949667 7:0.016034743200161822 8:0.014754509301118622 9:0.44156518981367393 10:0.015508294913226866 
-0.0 -0.0 0.0 0.0 0.0 0.0 1.0 1:0.013072387614952606 2:0.11667274497243986 3:0.002827152681504748 4:0.003907355189080919 5:0.011079338331983858 6:0.05283620892277252 7:0.03886426230483255 8:0.004481915172264833 9:0.7645786507398127 10:0.0033636044511106506 
-0.0 -0.0 0.0 0.0 0.0 0.0 1.0 1:0.004654045521486654 2:0.07805912746073401 3:0.0041439581611982575 4:0.008361948876258976 5:0.006492950005948146 6:0.02765012457051973 7:0.001621561926741421 8:0.0026286732372997495 9:0.8708192308274737 10:0.007391550293523452 
-0.0 -0.7127912552027196 0.0 0.0 0.0 0.0 0.0 1:0.11425973124670016 2:0.02198046128974833 3:0.003714711548995955 4:0.0021177762833557343 5:0.13229339128813425 6:0.05700988431931118 7:0.04009042303782006 8:0.009123812735047488 9:0.6252874563833142 10:0.008311808097516 
-0.0 -0.0 0.0 0.0 1.0 0.0 1.0 1:9.463180370472297E-4 2:0.3752610271782033 3:7.285962111168809E-4 4:5.471199268904583E-4 5:6.142398083905659E-4 6:0.04901807970127418 7:8.219295864440205E-4 8:6.092682395857641E-4 9:0.5795612822768047 10:8.016100364325009E-4 
-0.0 -0.0 0.0 0.0 0.0 0.0 1.0 1:0.2121889446209627 2:0.07065916120774442 3:0.012187019807662812 4:0.009759872240616738 5:0.007336426235807814 6:0.1747105985999688 7:0.015545647802823604 8:0.007535833871985769 9:0.5029502597694494 10:0.005869500722584947 
-0.0 -0.0 0.0 0.0 0.0 0.0 1.0 1:0.010604176247023932 2:0.014359330005670258 3:0.04417848633383742 4:0.013202725669841571 5:0.013084344832607186 6:0.07351467650123224 7:0.0020149947446197586 8:0.0042433835285983846 9:0.8331337380285608 10:0.005929119592043602 
-0.0 -0.0 0.0 0.0 0.0 0.0 1.0 1:0.00699106922594367 2:0.005089771157004162 3:0.003995815956103219 4:0.004654060752056036 5:0.004089601182677121 6:0.06810824590381274 7:0.0039467361073639426 8:0.00397649556852398 9:0.9073201562297434 10:0.004148017730956357 
-0.0 -0.0 0.0 0.0 0.0 0.0 1.0 1:0.043103344289274245 2:0.010943817847821441 3:0.0018360368385657224 4:0.0031125507145938333 5:0.0019211983063640572 6:0.30055297744787324 7:0.0023130330454780067 8:0.0022657212814747143 9:0.6458796978093259 10:0.0017947591578293552 
-0.0 -0.0 0.0 0.0 0.0 0.0 1.0 1:0.012449889577188789 2:0.005320862353419236 3:0.31601970188474154 4:0.010244700292538723 5:0.0037638123076333754 6:0.015092272736660467 7:0.00402228159155405 8:0.026917840881396725 9:0.6261582305847951 10:0.00402170345688917 
-0.0 -0.0 0.0 0.0 0.0 0.0 1.0 1:0.004816471933284236 2:0.004881249686104164 3:0.01765086230925018 4:0.005648298081781907 5:8.765700097811545E-4 6:0.11322521249781853 7:8.567971312637616E-4 8:0.0019434387611302957 9:0.8602559209702278 10:0.002755745482874876 
-0.0 -0.0 0.0 0.0 0.0 0.0 1.0 1:0.0025168752070823326 2:0.009473195958412227 3:0.05987755376862707 4:0.0010652139746344074 5:0.002204112983448119 6:0.042767669888821136 7:0.0015599092708501378 8:0.0014669606432696364 9:0.8909682395663266 10:0.0019331103807249546 
-0.0 -0.0 0.0 0.0 0.0 0.0 1.0 1:0.005167095543825084 2:0.14767413061519533 3:0.0044896339986100235 4:0.0021814584475663822 5:0.0018569279858679441 6:0.009295967832888937 7:0.0012079537562252787 8:0.0015926199577543797 9:0.8353657030881746 10:0.0020481813461347594 
-0.0 -0.0 0.0 0.0 0.0 0.0 1.0 1:0.006180328359796955 2:0.11249680148946944 3:0.007510078459311197 4:0.0023997997405391146 5:0.007656559027160424 6:0.04278160684371238 7:0.010757101619683448 8:0.005619585297616305 9:0.8105690984184174 10:0.00547225715773281 
-0.0 -0.0 0.0 0.0 0.0 0.0 1.0 1:0.007646388419689025 2:0.009211173537860991 3:0.3123440924898678 4:0.007920242044334402 5:0.00810043919381634 6:0.01766105884027176 7:0.0032787740855172074 8:0.02013617630129458 9:0.6332039843031043 10:0.003978796721034233 
-0.0 -0.0 0.0 0.0 0.0 0.0 1.0 1:0.0021125652943549647 2:0.164561517313841 3:8.022193470175609E-4 4:0.0013627892293134939 5:9.778241417248321E-4 6:0.1232260231017506 7:0.0017837635569141466 8:5.732541680420933E-4 9:0.7145897613583372 10:7.781507456565159E-4 
-0.0 -0.0 0.0 0.0 0.0 0.0 1.0 1:0.022745398297286282 2:0.005222935498499825 3:0.002710106127065265 4:0.0033757239403695675 5:0.0044246879883734986 6:0.4634332576773935 7:0.003822372781652825 8:0.004325599480226644 9:0.5007760374043353 10:0.0028150710867980264 
-0.0 -0.0 0.0 0.0 0.0 0.0 1.0 1:0.017454262151445053 2:0.04031823222297754 3:0.013767661115056687 4:0.002093759233592123 5:0.012777244232252337 6:0.0661143493719026 7:0.018063398378177033 8:0.040232240313088447 9:0.7983780789223116 10:0.0035844420005713205 
-0.0 -0.0 0.0 0.0 0.0 0.0 1.0 1:0.013150929559358258 2:0.010718265524186353 3:0.011102263599227604 4:0.014906165476459593 5:0.011840207383372166 6:0.09905295241052314 7:0.013598652367174913 8:0.009638795607603522 9:0.8206158826352317 10:0.008878144917498033 
-0.0 -0.0 0.0 0.0 0.0 0.0 1.0 1:0.031784203686321344 2:0.010794738641724986 3:0.0030840128315788033 4:0.006856252014999475 5:0.001978872523081094 6:0.1879271473794537 7:0.0013952046034072798 8:0.0012091941922280594 9:0.7670658830925691 10:0.0012734231881992952 
-0.0 -0.0 0.0 0.0 0.0 0.0 1.0 1:0.043182064097119846 2:0.05260301575585823 3:0.007009128042947499 4:0.014280405906839282 5:0.011140232934763678 6:0.1339323997098113 7:0.0183416221560872 8:0.02165239308284554 9:0.7016281510986954 10:0.010321782765814904 
-0.0 -0.0 0.0 0.0 0.0 0.0 1.0 1:0.003011200331076544 2:0.0029782935502956614 3:0.026482791550834148 4:0.0022370153721077103 5:0.0022813150139379137 6:0.11678901979106732 7:0.002007323344982375 8:0.001619660398491521 9:0.8532729516781375 10:0.002291369775457432 
-0.0 -0.0 0.0 0.0 0.0 0.0 1.0 1:0.020779441375767715 2:0.23892783458683206 3:0.008419194003263507 4:0.0037559357806659977 5:0.011940709774005692 6:0.018649737099130422 7:0.010300929435871726 8:0.007738593484022378 9:0.6852399963180195 10:0.005190765495089668 
-0.0 -0.0 0.0 0.0 0.0 0.0 1.0 1:0.016180884882463602 2:0.03852881484678154 3:0.01433543188801132 4:0.002305272219047148 5:0.014563153640749824 6:0.06895329479275851 7:0.016125612669379036 8:0.0420755128607594 9:0.7965752616173323 10:0.003136782553062787 
-0.0 -0.0 0.0 0.0 0.0 0.0 1.0 1:0.012779590461244623 2:0.011505648181239772 3:0.010952677956663028 4:0.014290531466218243 5:0.011768767467482346 6:0.09923370755798142 7:0.013417213441171765 8:0.008985446637000717 9:0.8214812778183438 10:0.009023689072389736 
-0.0 -0.0 0.0 0.0 0.0 0.0 1.0 1:0.004612788227824253 2:0.006294510067005748 3:0.0029880183492413935 4:0.0029189043643128667 5:0.0026642911742397564 6:0.15780043789320145 7:0.0020930529539405236 8:0.002816171119114763 9:0.827161705467384 10:0.0029609219874627956 
-0.0 -0.0 0.0 0.0 0.0 0.0 1.0 1:0.04807497277758508 2:0.12054850355555756 3:0.006588362304219101 4:0.005321608877346895 5:0.0040291086789860054 6:0.30064244607187346 7:0.004854975568509913 8:0.004254456147941547 9:0.5141562042096333 10:0.004922351015082239 
-0.0 -0.0 0.0 0.0 0.0 0.0 1.0 1:0.01003956455225175 2:0.014076599536829557 3:0.003385414481821523 4:0.002713201804076758 5:0.003277404146970511 6:0.06338228706248304 7:0.003588696287619984 8:0.00295738021623602 9:0.9061181649178348 10:0.002631312120972021 
-0.0 -0.0 0.0 0.0 0.0 0.0 1.0 1:0.007993344180710656 2:0.014017750692325751 3:0.1231678972163017 4:0.0047456609042571965 5:0.006409381302809025 6:0.1310452655061496 7:0.005055585160136278 8:0.004515235440961103 9:0.7148177768019566 10:0.004942223938962965 
-0.0 -0.0 0.0 0.0 0.0 0.0 1.0 1:0.007904824699520452 2:0.004596399343558777 3:0.0030548755555469763 4:0.001860197708702423 5:0.0025806560699662717 6:0.07747344765031956 7:0.0021680861550487395 8:0.0022796602615099493 9:0.9084815928197484 10:0.0017352546228193487 
-0.0 -0.0 0.0 0.0 0.0 0.0 1.0 1:0.007266147415223182 2:0.006190541268572894 3:0.002406227023885215 4:0.004370626196240622 5:0.003003072517878211 6:0.40522907166787814 7:0.0034083638971676915 8:0.004280708134614051 9:0.5722020219559182 10:0.004768985416306273 
-0.0 -0.0 0.0 0.0 0.0 0.0 1.0 1:0.0018252353483345421 2:0.001240559713575338 3:0.001182487019340343 4:0.001609651727670732 5:0.001509335347964695 6:0.07901148570093605 7:0.00127295652840304 8:0.0013948874105564673 9:0.9215107544570952 10:0.0013429553843867174 
-0.0 -0.0 0.0 0.0 0.0 0.0 1.0 1:0.009160152745895938 2:0.00845630114411157 3:0.0026227025795423752 4:0.002809552102661889 5:0.002925818481186907 6:0.15079730743731917 7:0.0028222003011273947 8:0.0038028237115564152 9:0.8265617456158553 10:0.00243368792862525 
-0.0 -0.0 0.0 0.0 0.0 0.0 1.0 1:0.009308752502474751 2:0.01548667222045588 3:0.00806166149134954 4:0.004293218423714318 5:0.0058459092815565375 6:0.0811923290549692 7:0.006188894648356976 8:0.004735037051972466 9:0.8723450060240747 10:0.0050186175330233646 
-0.0 -0.0 0.0 0.0 0.0 0.0 1.0 1:0.027910576088098393 2:0.026289211465450865 3:0.004063016203790894 4:0.003942596500526268 5:0.006001035657570213 6:0.09646789031040098 7:0.005502879227501859 8:0.004650157690909 9:0.8342157908044353 10:0.003747236089710874 
-0.0 -0.0 0.0 0.0 0.0 0.0 1.0 1:0.002260517865112813 2:0.001580170144058622 3:5.133111113028871E-4 4:6.294869883598516E-4 5:6.37921966675658E-4 6:0.5468249626208289 7:3.0192684410970227E-4 8:4.915028394283566E-4 9:0.4591638159994061 10:6.129016975433417E-4 
-0.0 -0.0 0.0 1.0 1.0 0.0 1.0 1:0.05202547980616426 2:0.30171823163371875 3:0.001498238027861264 4:0.0010803141963481916 5:0.001177042024578603 6:0.22977810719062294 7:0.0012520550243963972 8:6.70695755669754E-4 9:0.4213266100130442 10:9.377775475419031E-4 
-0.0 -0.0 0.0 0.0 0.0 0.0 1.0 1:0.007443910633046217 2:0.0023378393823194964 3:0.001231483819441992 4:0.0014759145563089083 5:0.0012671892657247796 6:0.2209274500093091 7:0.0013559495368225469 8:0.001100982628213993 9:0.7739439294262904 10:0.0013289984508604708 
-0.03332168268316742 -0.0 0.0 0.0 1.0 0.0 1.0 1:0.03340178042001455 2:0.1317570528127939 3:0.004610293167093587 4:0.0019623409169564022 5:0.0015206893467784258 6:0.5602406172578198 7:0.0016513611393061702 8:0.0013606296839068115 9:0.2747521934381143 10:0.0019699277656022893 
-0.0 -0.0 0.0 0.0 0.0 0.0 1.0 1:0.015491061703391991 2:0.002562790151874403 3:0.0012038938582256214 4:0.0017170671949826057 5:0.00173018755629131 6:0.35516217734005184 7:0.0018228467541260463 8:0.0016880614415046458 9:0.6303933097783175 10:0.0012343949914497133 
-0.0 -0.0 0.0 0.0 0.0 0.0 1.0 1:0.0014268504970557658 2:0.0019675323337216568 3:5.214055411311491E-4 4:3.8595500759820137E-4 5:5.972595598159409E-4 6:0.2369731112038424 7:4.575280328180586E-4 8:5.869340725592573E-4 9:0.7686118558962366 10:6.521421489062053E-4 
-0.0 -0.0 0.0 0.0 0.0 0.0 1.0 1:0.0336370226836153 2:0.0057312046462851245 3:7.209472954619494E-4 4:7.811883909523809E-4 5:3.1710474417028265E-4 6:0.4645513061808758 7:3.8628503060594686E-4 8:3.2806732466212116E-4 9:0.5068987315069717 10:3.482192054781948E-4 
-0.0 -0.0 0.0 0.0 0.0 0.0 1.0 1:0.006290214029388081 2:0.02149993789601415 3:0.002528969782064316 4:0.00226315571812302 5:0.0021421519618851892 6:0.11023445997313043 7:0.0020242604065608023 8:0.002173315890160523 9:0.8608969076566303 10:0.0020039258205845085 
-0.0 -0.0 0.0 0.0 0.0 0.0 1.0 1:0.008220290776593869 2:0.0031543228107551867 3:0.012967470576472578 4:0.00514370169024298 5:0.001912304813442953 6:0.15588762403488607 7:0.00228747422568368 8:0.002253485065940839 9:0.8189272884111646 10:0.002174502861607986 
-0.0 -0.0 0.0 0.0 0.0 0.0 1.0 1:0.007687362542864074 2:0.0013605514237319965 3:0.0019813511140231066 4:0.010370083128087682 5:0.0019106250868687951 6:0.1234206815678509 7:0.001989296285069608 8:0.0019438898894504214 9:0.8603374597702705 10:0.0017695907476877565 
-0.0 -0.0 0.0 0.0 0.0 0.0 1.0 1:0.002506439805567038 2:0.003370649854917853 3:0.0329397352539266 4:0.007842356425236743 5:0.003696369326343231 6:0.10988789690915261 7:0.0032526670875497724 8:0.004498133093225977 9:0.8431306392070725 10:0.0024087254142180913 
