svm_type c_svc
kernel_type linear
nr_class 14
total_sv 2021
rho -0.4067500409176169 -0.4808569259510214 -0.5246166757948831 0.7370542943090116 -0.2646366165480596 0.5132415382019089 0.6873490427326935 -0.1361290276495796 0.07237607162918688 0.47891647527820336 -0.06987060482389325 0.03400511991613996 0.6602898836784501 -0.5205932381575283 -0.5434418867926188 0.5084318254754535 -0.13998703182365124 0.5797700963939129 0.9553291195083015 0.3430741980340376 0.7089563577343133 0.4957849552012174 0.5184146927272105 0.3720192330931038 0.7851335896727857 -0.17594765051493463 0.5398332680040071 0.3616646744186766 0.6052314307121557 0.9630617133599775 0.433451016936647 0.759553897157475 0.5493242123241551 0.6535180506499563 0.6174054847762984 0.7964700409030614 0.56399944103785 0.5427695200841796 0.6629965244794057 0.9885871568273087 0.48876422695295985 0.7995288277154982 0.5943477001107568 0.636666858015115 0.7381006204440923 0.8312762356160706 -0.4303056623131769 -0.434238264513886 0.33386285723989034 -0.9508101815579266 -0.14956661485441577 -0.9118782401818385 -0.46898143303679596 -0.2568707556958113 0.598759847885546 0.4061284907717688 0.9333003175118557 0.21530435066559953 0.5564197026543252 0.36164924669127363 0.3588486879965893 0.310639363862723 0.7258417259536865 0.5615687377822186 -0.7073711692367419 -0.0827067914236552 -0.1766663440520829 -0.21649681653993663 -0.16120602588265148 0.573619384539128 -0.661793431567161 -0.8582820708035527 -0.5988550568045052 -0.8268132341731368 -0.9358377305194452 0.18028773014171912 0.11607876577573809 0.7135646710174206 -0.08948426143276728 0.01644762193017927 0.714044407865549 0.021681089404791284 -0.0887142541190068 -0.5022040637730147 0.6391204731848973 -0.21469845299710738 -0.11471773634789814 0.6572912147545349 -0.005859685689488526 1.0648149420830657 0.7269599376836954
label 1 9 5 8 7 13 3 4 11 10 6 0 2 12
nr_sv 103 176 188 155 246 203 123 110 125 109 155 81 119 128
SV
0.02407765226913071 0.0 0.2331478581424851 1.0 0.09238178648734288 1.0 1.0 1.0 0.35158260831712496 1.0 1.0 0.43625275869713925 1.0 20:0.030769230769230767 45:0.058823529411764705 99:0.14285714285714288 196:0.06666666666666667 224:0.01492537313432836 354:0.0625 406:0.14285714285714285 426:0.01 467:0.32 489:0.05405405405405406 556:0.06818181818181818 588:0.05555555555555555 669:0.125 695:0.11764705882352942 750:0.021052631578947368 852:0.13333333333333333 877:0.014705882352941176 887:0.07142857142857142 992:0.015873015873015872 1003:0.010526315789473684 1053:0.028571428571428574 1070:0.08333333333333333 1142:0.011764705882352941 1217:0.2857142857142857 1315:0.03571428571428571 1316:0.6315789473684211 1364:0.022727272727272728 1446:0.030769230769230767 1505:0.1 1509:0.14285714285714285 1544:0.0058479532163742695 
0.0 0.0 0.0 1.0 0.0 1.0 0.7757273882996574 1.0 0.0 1.0 0.0 0.0 0.0 20:0.030769230769230767 45:0.058823529411764705 91:0.045454545454545456 198:0.09615384615384616 202:0.01519756838905775 224:0.01492537313432836 252:0.010526315789473684 305:0.09375 326:0.03571428571428571 341:0.06060606060606061 406:0.14285714285714285 410:0.015625 426:0.01 431:0.012658227848101266 454:0.25 467:0.2 493:0.3 556:0.09090909090909091 588:0.1111111111111111 684:0.034482758620689655 745:0.043478260869565216 750:0.010526315789473684 766:0.0166865315852205 807:0.014084507042253521 812:0.125 877:0.014705882352941176 887:0.2142857142857143 890:0.3333333333333333 919:0.16666666666666666 943:0.01923076923076923 992:0.07936507936507936 1040:0.024691358024691357 1051:0.043795620437956206 1142:0.023529411764705882 1302:0.11538461538461538 1315:0.10714285714285714 1317:0.33333333333333337 1364:0.022727272727272728 1431:0.2 1446:0.04615384615384615 1509:0.2857142857142857 
0.0 0.0 0.0 1.0 0.0 1.0 0.0 1.0 0.0 1.0 0.0 0.0 0.0 20:0.015384615384615384 45:0.058823529411764705 198:0.028846153846153848 224:0.00746268656716418 260:0.015267175572519085 406:0.14285714285714285 426:0.02 556:0.06818181818181818 588:0.027777777777777776 684:0.10344827586206895 729:0.011834319526627219 750:0.010526315789473684 766:0.02026221692491061 799:0.06666666666666667 887:0.2142857142857143 894:0.03225806451612903 992:0.06349206349206349 1040:0.01646090534979424 1142:0.047058823529411764 1153:0.09999999999999999 1205:0.024154589371980676 1315:0.10714285714285714 1346:0.010638297872340425 1364:0.022727272727272728 1431:0.05 1446:0.015384615384615384 1509:0.2857142857142857 1583:0.2 1584:0.1 
0.0 0.0 0.0 0.0 0.0 1.0 0.0 0.0 0.0 0.0 0.0 0.0 0.0 20:0.015384615384615384 45:0.058823529411764705 224:0.01492537313432836 406:0.14285714285714285 426:0.02 467:0.04 556:0.045454545454545456 588:0.027777777777777776 669:0.125 684:0.034482758620689655 750:0.010526315789473684 758:0.024390243902439025 766:0.00834326579261025 887:0.14285714285714285 992:0.031746031746031744 1040:0.024691358024691357 1053:0.028571428571428574 1078:0.023809523809523808 1142:0.023529411764705882 1315:0.07142857142857142 1363:0.02127659574468085 1364:0.06818181818181818 1446:0.04615384615384615 1509:0.2857142857142857 1583:0.2 
0.0 0.0 0.0 0.21988516277706094 0.0 0.14463369421909913 0.0 0.0 0.0 0.0 0.0 0.0 0.0 45:0.058823529411764705 92:0.03571428571428571 108:0.05714285714285714 149:1.0 158:0.030303030303030304 200:0.029411764705882353 224:0.01492537313432836 305:0.03125 394:0.038461538461538464 406:0.14285714285714285 410:0.015625 426:0.02 467:0.04 489:0.02702702702702703 556:0.06818181818181818 588:0.08333333333333333 684:0.034482758620689655 685:0.08333333333333333 750:0.010526315789473684 846:0.14285714285714285 877:0.029411764705882353 887:0.2142857142857143 992:0.06349206349206349 1040:0.01646090534979424 1080:0.10526315789473684 1142:0.10588235294117646 1200:0.041666666666666664 1219:0.26315789473684215 1270:0.030303030303030304 1315:0.14285714285714285 1364:0.022727272727272728 1446:0.015384615384615384 1509:0.2857142857142857 1583:0.2 
0.0 0.0 0.0 1.0 0.0 1.0 1.0 1.0 0.0 1.0 0.0 0.0 0.0 20:0.015384615384615384 45:0.058823529411764705 224:0.00746268656716418 406:0.14285714285714285 426:0.01 467:0.12 556:0.045454545454545456 588:0.027777777777777776 684:0.034482758620689655 750:0.010526315789473684 887:0.14285714285714285 992:0.031746031746031744 1003:0.010526315789473684 1040:0.0205761316872428 1142:0.023529411764705882 1315:0.03571428571428571 1363:0.02127659574468085 1364:0.045454545454545456 1446:0.030769230769230767 1509:0.2857142857142857 1583:0.2 
0.0 0.0 0.0 1.0 0.0 1.0 0.0 1.0 0.0 1.0 1.0 0.0 0.37862500659391946 45:0.058823529411764705 224:0.00746268656716418 354:0.0625 406:0.14285714285714285 426:0.01 467:0.08 556:0.045454545454545456 588:0.027777777777777776 684:0.034482758620689655 695:0.05882352941176471 750:0.010526315789473684 768:0.08 877:0.014705882352941176 887:0.14285714285714285 992:0.031746031746031744 1040:0.01646090534979424 1142:0.0588235294117647 1176:0.13333333333333333 1315:0.14285714285714285 1364:0.022727272727272728 1446:0.015384615384615384 1509:0.2857142857142857 1583:0.2 
0.0 0.0 0.0 1.0 0.0 1.0 1.0 1.0 0.0 1.0 0.0 0.0 0.0 20:0.07692307692307691 45:0.058823529411764705 85:0.017543859649122806 198:0.038461538461538464 202:0.0243161094224924 224:0.01492537313432836 341:0.06060606060606061 406:0.14285714285714285 426:0.06999999999999999 467:0.04 489:0.02702702702702703 556:0.06818181818181818 588:0.027777777777777776 669:0.125 684:0.034482758620689655 750:0.042105263157894736 766:0.041716328963051254 800:0.005050505050505051 846:0.07142857142857142 853:0.07407407407407407 872:0.017241379310344827 887:0.2142857142857143 938:0.07692307692307691 992:0.04761904761904762 1040:0.0411522633744856 1096:0.05660377358490566 1142:0.047058823529411764 1200:0.041666666666666664 1302:0.11538461538461538 1307:0.055776892430278883 1315:0.14285714285714285 1364:0.045454545454545456 1446:0.04615384615384615 1471:0.01904761904761905 1509:0.2857142857142857 1580:0.0303030303030303 
0.0 0.0 0.0 1.0 0.0 0.0 1.0 0.0 0.0 1.0 0.605233361195961 0.0 1.0 45:0.058823529411764705 224:0.00746268656716418 406:0.14285714285714285 426:0.02 467:0.04 556:0.06818181818181818 588:0.027777777777777776 669:0.125 684:0.034482758620689655 695:0.05882352941176471 750:0.010526315789473684 887:0.14285714285714285 992:0.031746031746031744 1040:0.01646090534979424 1142:0.023529411764705882 1315:0.07142857142857142 1446:0.015384615384615384 1505:0.1 1509:0.14285714285714285 1583:0.2 
0.0 0.0 0.0 1.0 0.0 1.0 0.0 1.0 0.0 1.0 0.0 0.0 0.0 45:0.058823529411764705 224:0.00746268656716418 406:0.14285714285714285 426:0.04 457:0.07142857142857142 556:0.06818181818181818 588:0.05555555555555555 684:0.034482758620689655 750:0.010526315789473684 887:0.2142857142857143 992:0.04761904761904762 1040:0.01646090534979424 1142:0.0588235294117647 1315:0.10714285714285714 1346:0.010638297872340425 1364:0.022727272727272728 1446:0.015384615384615384 1509:0.2857142857142857 1583:0.2 
0.0 0.0 0.0 0.7895284594241722 0.0 0.6888055113766782 0.0 0.0 0.0 0.34969452572401494 0.0 0.0 0.0 20:0.015384615384615384 45:0.058823529411764705 158:0.030303030303030304 224:0.00746268656716418 255:0.07692307692307693 352:1.0 406:0.14285714285714285 426:0.01 467:0.04 556:0.09090909090909091 588:0.027777777777777776 684:0.034482758620689655 695:0.05882352941176471 750:0.010526315789473684 836:0.03571428571428572 877:0.014705882352941176 887:0.2142857142857143 931:0.009523809523809523 992:0.06349206349206349 1016:0.022222222222222223 1040:0.012345679012345678 1053:0.08571428571428572 1142:0.011764705882352941 1315:0.10714285714285714 1364:0.06818181818181818 1446:0.015384615384615384 1509:0.2857142857142857 1516:0.04918032786885246 
0.0 0.0 0.0 1.0 0.0 1.0 1.0 1.0 0.0 1.0 0.0 0.0 0.0 45:0.058823529411764705 224:0.02985074626865672 305:0.09375 406:0.14285714285714285 426:0.01 467:0.08 556:0.06818181818181818 588:0.027777777777777776 684:0.034482758620689655 750:0.010526315789473684 887:0.2142857142857143 992:0.04761904761904762 1040:0.0205761316872428 1142:0.0588235294117647 1307:0.00398406374501992 1315:0.10714285714285714 1346:0.0425531914893617 1363:0.02127659574468085 1364:0.022727272727272728 1446:0.04615384615384615 1509:0.2857142857142857 
0.0 0.0 0.0 1.0 0.0 1.0 0.0 1.0 0.0 1.0 0.0 0.0 0.0 20:0.015384615384615384 45:0.058823529411764705 200:0.029411764705882353 224:0.02238805970149254 235:0.07547169811320756 305:0.03125 394:0.15384615384615385 395:0.16666666666666666 404:0.015306122448979591 406:0.14285714285714285 417:0.1111111111111111 426:0.01 467:0.16 556:0.09090909090909091 564:0.14285714285714288 588:0.027777777777777776 669:0.125 684:0.034482758620689655 695:0.05882352941176471 750:0.021052631578947368 758:0.024390243902439025 766:0.010727056019070322 887:0.2857142857142857 992:0.11111111111111112 1040:0.024691358024691357 1053:0.028571428571428574 1084:0.04545454545454545 1142:0.023529411764705882 1298:0.005813953488372093 1302:0.038461538461538464 1315:0.35714285714285715 1336:0.07692307692307693 1364:0.2272727272727273 1446:0.030769230769230767 1448:0.043478260869565216 1509:0.2857142857142857 
0.0 0.0 0.0 1.0 0.0 1.0 0.458892965792452 1.0 0.0 1.0 0.0 0.0 0.0 20:0.015384615384615384 45:0.058823529411764705 224:0.00746268656716418 260:0.0076335877862595426 305:0.03125 391:0.19999999999999998 406:0.14285714285714285 414:0.00546448087431694 426:0.01 467:0.08 485:0.3333333333333333 556:0.06818181818181818 588:0.027777777777777776 669:0.125 684:0.034482758620689655 715:0.09999999999999999 750:0.031578947368421054 758:0.024390243902439025 887:0.2142857142857143 968:0.05 992:0.04761904761904762 1040:0.0205761316872428 1142:0.0588235294117647 1205:0.004830917874396135 1250:0.11428571428571428 1315:0.10714285714285714 1346:0.010638297872340425 1364:0.022727272727272728 1415:0.05263157894736842 1446:0.015384615384615384 1509:0.2857142857142857 1584:0.1 
0.0 0.0 0.0 1.0 0.0 1.0 0.0 0.0 0.0 1.0 0.0 0.0 0.0 45:0.058823529411764705 224:0.00746268656716418 406:0.14285714285714285 426:0.01 454:0.125 556:0.09090909090909091 588:0.027777777777777776 684:0.034482758620689655 750:0.010526315789473684 887:0.2142857142857143 992:0.06349206349206349 1040:0.01646090534979424 1051:0.014598540145985401 1142:0.0588235294117647 1315:0.10714285714285714 1364:0.022727272727272728 1446:0.015384615384615384 1490:0.11111111111111112 1509:0.2857142857142857 1583:0.2 
0.0 0.0 0.0 1.0 0.0 0.0 1.0 0.7415854511090898 0.0 1.0 0.8974984591144171 0.6947849777258251 1.0 45:0.058823529411764705 224:0.00746268656716418 406:0.14285714285714285 426:0.02 467:0.04 556:0.06818181818181818 588:0.027777777777777776 669:0.125 684:0.034482758620689655 695:0.05882352941176471 750:0.010526315789473684 887:0.14285714285714285 992:0.031746031746031744 1040:0.01646090534979424 1142:0.023529411764705882 1315:0.07142857142857142 1446:0.015384615384615384 1505:0.1 1509:0.14285714285714285 1583:0.2 
0.10091803654193722 0.0 0.0 1.0 0.0 1.0 1.0 1.0 0.4126392105541766 1.0 0.8355460042037964 0.41860617799344346 1.0 20:0.015384615384615384 45:0.058823529411764705 108:0.02857142857142857 198:0.019230769230769232 224:0.00746268656716418 255:0.07692307692307693 292:0.25 305:0.03125 406:0.14285714285714285 426:0.01 467:0.04 556:0.045454545454545456 588:0.027777777777777776 684:0.034482758620689655 685:0.08333333333333333 750:0.010526315789473684 766:0.013110846245530394 887:0.14285714285714285 890:0.16666666666666666 992:0.031746031746031744 1014:0.03571428571428571 1040:0.0205761316872428 1053:0.028571428571428574 1142:0.047058823529411764 1207:0.1 1302:0.09615384615384616 1315:0.07142857142857142 1346:0.02127659574468085 1364:0.045454545454545456 1415:0.10526315789473684 1446:0.015384615384615384 1509:0.2857142857142857 
1.0 0.7550879288948923 1.0 1.0 1.0 0.0 1.0 0.0 1.0 1.0 0.0 1.0 0.16113118799715054 20:0.030769230769230767 45:0.058823529411764705 99:0.14285714285714288 198:0.019230769230769232 202:0.0060790273556231 224:0.02238805970149254 426:0.02 489:0.05405405405405406 556:0.022727272727272728 588:0.027777777777777776 669:0.125 745:0.08695652173913043 750:0.010526315789473684 766:0.004767580452920143 887:0.07142857142857142 992:0.015873015873015872 1040:0.01646090534979424 1070:0.08333333333333333 1142:0.023529411764705882 1315:0.03571428571428571 1363:0.02127659574468085 1446:0.04615384615384615 1471:0.009523809523809525 1505:0.1 1509:0.2857142857142857 1583:0.2 
0.0 0.0 0.0 0.9944909124892827 0.0 0.8127676071533865 0.0 1.0 0.0 0.9278308296834918 0.0 0.0 0.0 20:0.015384615384615384 45:0.058823529411764705 56:0.5 60:0.04895104895104895 108:0.02857142857142857 187:0.023809523809523808 198:0.038461538461538464 224:0.02238805970149254 255:0.23076923076923078 305:0.0625 354:0.0625 394:0.038461538461538464 406:0.14285714285714285 426:0.05 453:0.05128205128205128 454:0.125 467:0.12 493:0.19999999999999998 554:0.04 556:0.06818181818181818 588:0.027777777777777776 596:0.07692307692307693 684:0.034482758620689655 685:0.08333333333333333 695:0.05882352941176471 750:0.010526315789473684 766:0.0023837902264600714 773:0.5625 877:0.04411764705882353 887:0.2142857142857143 992:0.06349206349206349 1040:0.02880658436213992 1051:0.0072992700729927005 1080:0.10526315789473684 1142:0.0588235294117647 1315:0.10714285714285714 1363:0.02127659574468085 1364:0.022727272727272728 1446:0.10769230769230768 1490:0.11111111111111112 1509:0.2857142857142857 1560:0.041666666666666664 
0.0 0.0 0.0 0.11245581219637697 0.0 0.2857954410465519 0.0 0.0 0.0 0.0879261681335307 0.0 0.0 0.0 19:0.058823529411764705 20:0.030769230769230767 45:0.058823529411764705 158:0.15151515151515152 198:0.009615384615384616 219:1.0 224:0.01492537313432836 255:0.15384615384615385 305:0.0625 350:0.007518796992481203 398:0.06666666666666667 406:0.14285714285714285 416:0.5714285714285714 426:0.1 467:0.04 556:0.09090909090909091 588:0.027777777777777776 684:0.10344827586206895 685:0.5 695:0.05882352941176471 730:0.009174311926605505 750:0.010526315789473684 844:0.6666666666666667 877:0.058823529411764705 887:0.2142857142857143 919:0.16666666666666666 992:0.09523809523809525 1040:0.07818930041152264 1051:0.0072992700729927005 1053:0.08571428571428572 1142:0.011764705882352941 1187:0.049999999999999996 1315:0.14285714285714285 1364:0.06818181818181818 1446:0.061538461538461535 1457:0.1 1473:0.25 1490:0.11111111111111112 1509:0.2857142857142857 1518:0.1 1524:0.046511627906976744 
0.0 0.0 0.2357354752272292 1.0 0.0 0.9966108427892353 0.09059409379584987 0.9306038582066893 0.0 0.6146463252675816 0.0 0.0 0.08678057887172534 17:0.2916666666666667 45:0.058823529411764705 224:0.00746268656716418 252:0.010526315789473684 255:0.07692307692307693 260:0.0076335877862595426 305:0.09375 336:0.02 354:0.0625 388:0.15384615384615383 406:0.14285714285714285 414:0.00546448087431694 426:0.01 440:0.07692307692307691 467:0.04 489:0.05405405405405406 493:0.09999999999999999 554:0.12000000000000001 556:0.045454545454545456 588:0.027777777777777776 684:0.034482758620689655 685:0.08333333333333333 695:0.11764705882352942 750:0.010526315789473684 877:0.04411764705882353 887:0.2142857142857143 907:0.16666666666666669 992:0.11111111111111112 1040:0.0205761316872428 1142:0.0588235294117647 1205:0.004830917874396135 1315:0.17857142857142858 1341:0.8571428571428571 1364:0.022727272727272728 1446:0.015384615384615384 1509:0.2857142857142857 
0.0 0.0 0.0 1.0 0.0 1.0 0.0 0.0 0.0 0.0 0.0 0.0 0.0 45:0.058823529411764705 198:0.009615384615384616 202:0.00303951367781155 224:0.00746268656716418 341:0.030303030303030304 406:0.14285714285714285 410:0.046875 426:0.04 467:0.04 556:0.06818181818181818 588:0.027777777777777776 669:0.125 684:0.034482758620689655 750:0.010526315789473684 887:0.2142857142857143 992:0.07936507936507936 1040:0.0205761316872428 1053:0.028571428571428574 1142:0.07058823529411765 1315:0.14285714285714285 1363:0.02127659574468085 1364:0.045454545454545456 1446:0.030769230769230767 1490:0.11111111111111112 1509:0.14285714285714285 1551:0.004366812227074236 1583:0.2 
0.0 0.0 0.0 1.0 0.0 1.0 1.0 0.24515565115979945 0.0 1.0 0.0 0.0 0.0 45:0.058823529411764705 224:0.01492537313432836 266:0.16666666666666666 406:0.14285714285714285 426:0.01 467:0.04 556:0.045454545454545456 588:0.027777777777777776 684:0.034482758620689655 750:0.010526315789473684 887:0.14285714285714285 992:0.031746031746031744 1040:0.01646090534979424 1142:0.047058823529411764 1315:0.07142857142857142 1364:0.022727272727272728 1446:0.015384615384615384 1509:0.2857142857142857 1583:0.2 
0.0 0.0 0.0 1.0 0.0 0.07891597663400016 0.5246116444741099 1.0 0.0 1.0 0.0 0.0 0.0 20:0.04615384615384615 45:0.058823529411764705 99:0.28571428571428575 150:0.052631578947368425 184:0.08333333333333334 198:0.038461538461538464 205:0.011235955056179775 224:0.04477611940298508 235:0.09433962264150945 268:0.1 305:0.03125 354:0.18750000000000003 388:0.3846153846153846 394:0.6153846153846154 395:0.16666666666666666 406:0.2857142857142857 407:0.05555555555555556 426:0.04 431:0.006329113924050633 453:0.02564102564102564 463:0.05882352941176471 467:0.16 506:0.24000000000000002 518:0.6 556:0.3181818181818182 588:0.8055555555555555 594:0.1 596:0.23076923076923078 644:0.07142857142857142 684:0.2068965517241379 695:0.4705882352941177 723:0.08333333333333334 745:0.08695652173913043 750:0.06315789473684211 766:0.12038140643623363 799:0.06666666666666667 852:0.06666666666666667 877:0.17647058823529413 887:0.6428571428571429 968:0.05 992:0.22222222222222224 1051:0.21167883211678834 1053:0.4 1077:0.125 1142:0.03529411764705882 1290:0.08 1307:0.07171314741035857 1312:0.02564102564102564 1316:0.42105263157894735 1359:0.2857142857142857 1364:0.7045454545454546 1428:0.11111111111111112 1446:0.15384615384615385 1473:0.125 1490:0.11111111111111112 1509:0.2857142857142857 1518:0.05 1527:0.058823529411764705 1551:0.004366812227074236 
1.0 1.0 1.0 1.0 1.0 1.0 1.0 1.0 1.0 1.0 1.0 1.0 1.0 20:0.015384615384615384 45:0.058823529411764705 99:0.14285714285714288 224:0.05223880597014926 255:0.07692307692307693 406:0.14285714285714285 426:0.030000000000000002 467:0.04 537:0.04 556:0.022727272727272728 588:0.027777777777777776 695:0.05882352941176471 730:0.009174311926605505 750:0.010526315789473684 887:0.07142857142857142 992:0.031746031746031744 1142:0.011764705882352941 1176:0.06666666666666667 1364:0.022727272727272728 1446:0.030769230769230767 1509:0.2857142857142857 
0.0 0.0 0.0 1.0 0.0 1.0 1.0 1.0 0.0 1.0 0.0 0.0 0.0 20:0.015384615384615384 45:0.058823529411764705 224:0.01492537313432836 406:0.14285714285714285 426:0.02 467:0.04 556:0.09090909090909091 588:0.027777777777777776 684:0.034482758620689655 745:0.043478260869565216 750:0.010526315789473684 766:0.00834326579261025 887:0.2142857142857143 992:0.06349206349206349 1040:0.0205761316872428 1051:0.0072992700729927005 1142:0.03529411764705882 1315:0.14285714285714285 1364:0.022727272727272728 1446:0.015384615384615384 1509:0.14285714285714285 1583:0.2 
0.0 0.0 0.0 0.0 0.014251137661617709 0.0 0.0 0.0 0.06531033485853542 0.0 0.0 0.03666758696963773 0.10814564583061743 45:0.058823529411764705 99:0.14285714285714288 108:0.11428571428571428 181:1.0 192:1.0 198:0.028846153846153848 209:0.16666666666666666 224:0.02985074626865672 260:0.05343511450381679 268:0.2 354:0.125 388:0.07692307692307691 393:0.4 394:0.15384615384615385 404:0.413265306122449 406:0.14285714285714285 426:0.15 454:0.125 467:0.2 489:0.5405405405405406 518:0.6333333333333333 522:0.08333333333333333 552:0.16666666666666669 556:0.06818181818181818 588:0.1111111111111111 596:0.5384615384615384 622:0.14285714285714285 684:0.31034482758620685 695:0.17647058823529413 749:0.0625 750:0.10526315789473685 846:0.14285714285714285 852:0.26666666666666666 877:0.1323529411764706 887:0.14285714285714285 992:0.06349206349206349 1024:0.0392156862745098 1051:0.0364963503649635 1061:0.02702702702702703 1070:0.3333333333333333 1077:0.125 1153:0.19999999999999998 1161:1.0 1205:0.033816425120772944 1270:0.24242424242424243 1290:0.27999999999999997 1315:0.07142857142857142 1359:0.2857142857142857 1364:0.2272727272727273 1379:0.058823529411764705 1412:0.05555555555555555 1446:0.061538461538461535 1505:0.1 1509:0.2857142857142857 1510:0.03703703703703704 1544:0.046783625730994156 1551:0.002183406113537118 1560:0.041666666666666664 1580:0.0303030303030303 
0.009978203473804275 0.0 0.0 0.0 0.0 0.0 0.044636030227137524 0.0 0.0 0.0 0.0 0.0 0.0 17:0.04166666666666667 20:0.015384615384615384 40:0.09523809523809525 45:0.058823529411764705 187:0.011904761904761904 198:0.07692307692307693 224:0.00746268656716418 235:0.01886792452830189 305:0.03125 336:0.08 406:0.14285714285714285 426:0.02 514:0.024390243902439025 554:0.04 556:0.09090909090909091 588:0.027777777777777776 640:0.16666666666666669 684:0.034482758620689655 712:0.0784313725490196 750:0.010526315789473684 766:0.0011918951132300357 877:0.014705882352941176 887:0.2142857142857143 919:0.16666666666666666 992:0.09523809523809525 1040:0.01646090534979424 1077:0.125 1142:0.07058823529411765 1307:0.01195219123505976 1315:0.10714285714285714 1335:0.07692307692307693 1364:0.022727272727272728 1383:0.42857142857142855 1446:0.015384615384615384 1509:0.2857142857142857 1583:0.2 
0.0 0.0 0.0 1.0 0.0 1.0 0.0 0.0 0.0 1.0 0.0 0.0 0.0 45:0.058823529411764705 158:0.06060606060606061 224:0.00746268656716418 406:0.14285714285714285 426:0.01 493:0.09999999999999999 556:0.045454545454545456 588:0.027777777777777776 684:0.034482758620689655 750:0.021052631578947368 877:0.029411764705882353 887:0.14285714285714285 992:0.031746031746031744 996:0.14285714285714288 1040:0.012345679012345678 1053:0.028571428571428574 1142:0.07058823529411765 1295:0.11538461538461539 1315:0.10714285714285714 1364:0.022727272727272728 1446:0.015384615384615384 1509:0.2857142857142857 1583:0.2 
0.0 0.0 0.0 0.0 0.0 1.0 0.0 0.0 0.0 0.0 0.0 0.0 0.0 45:0.058823529411764705 108:0.02857142857142857 158:0.030303030303030304 224:0.00746268656716418 268:0.1 406:0.2857142857142857 416:0.07142857142857142 426:0.01 493:0.19999999999999998 556:0.06818181818181818 588:0.027777777777777776 684:0.034482758620689655 685:0.08333333333333333 750:0.010526315789473684 887:0.2142857142857143 992:0.031746031746031744 1040:0.01646090534979424 1142:0.011764705882352941 1315:0.10714285714285714 1364:0.022727272727272728 1446:0.030769230769230767 1509:0.2857142857142857 1583:0.2 
0.014102554874706009 0.002536300883663348 0.0 0.1630031852918011 0.009494312725738453 0.0 0.18273401357962316 0.44732598534500423 0.005991047533435058 0.34867347766109824 0.2788821805579706 0.0 0.10438596891288532 20:0.061538461538461535 39:0.3333333333333333 45:0.11764705882352941 61:0.25 99:0.14285714285714288 118:0.04 192:1.0 198:0.15384615384615385 209:0.16666666666666666 224:0.03731343283582089 230:0.0909090909090909 235:0.01886792452830189 254:0.07692307692307691 255:0.15384615384615385 266:0.16666666666666666 305:0.0625 354:0.125 394:0.23076923076923078 406:0.2857142857142857 407:0.16666666666666669 410:0.0625 411:0.045454545454545456 422:0.034482758620689655 426:0.2 431:0.2088607594936709 467:0.36000000000000004 489:0.02702702702702703 506:0.04 515:0.04545454545454545 518:0.5 522:0.08333333333333333 554:0.04 556:0.045454545454545456 568:1.0 588:0.3055555555555555 594:0.2 596:0.07692307692307693 669:0.125 673:0.043478260869565216 684:0.27586206896551724 695:0.29411764705882354 719:0.008264462809917356 745:0.043478260869565216 750:0.010526315789473684 757:0.25 766:0.24076281287246726 783:0.5 787:0.09302325581395349 800:0.005050505050505051 802:0.015625 866:0.052631578947368425 872:0.008620689655172414 877:0.25 887:0.07142857142857142 915:0.015873015873015872 992:0.12698412698412698 1014:0.03571428571428571 1016:0.044444444444444446 1024:0.0196078431372549 1051:0.051094890510948905 1053:0.08571428571428572 1075:0.06896551724137931 1077:0.5 1153:0.09999999999999999 1161:0.19999999999999998 1186:0.06666666666666667 1208:0.045454545454545456 1273:0.017543859649122806 1290:0.08 1293:0.0392156862745098 1307:0.06374501992031872 1336:0.07692307692307693 1344:0.28571428571428575 1352:0.018867924528301886 1359:0.2857142857142857 1364:0.1590909090909091 1379:0.058823529411764705 1388:0.2222222222222222 1412:0.1111111111111111 1423:0.3571428571428571 1435:0.009708737864077669 1446:0.061538461538461535 1454:0.029411764705882356 1473:0.25 1490:0.4444444444444445 1501:0.1 1507:0.07692307692307693 1509:0.14285714285714285 1518:0.05 1544:0.011695906432748539 
0.0 0.0 0.0 1.0 0.0 1.0 1.0 1.0 0.0 1.0 1.0 0.0 3.238353205976613E-4 20:0.015384615384615384 45:0.058823529411764705 118:0.04 158:0.030303030303030304 198:0.019230769230769232 224:0.00746268656716418 305:0.03125 406:0.14285714285714285 410:0.03125 426:0.060000000000000005 431:0.006329113924050633 457:0.07142857142857142 467:0.08 470:0.33333333333333337 518:0.06666666666666667 556:0.09090909090909091 588:0.027777777777777776 596:0.07692307692307693 684:0.06896551724137931 685:0.08333333333333333 695:0.05882352941176471 745:0.13043478260869565 750:0.010526315789473684 753:0.02380952380952381 766:0.04529201430274136 772:0.08571428571428572 887:0.2142857142857143 894:0.06451612903225806 959:0.017543859649122806 992:0.07936507936507936 1024:0.0196078431372549 1040:0.01646090534979424 1051:0.0072992700729927005 1053:0.08571428571428572 1061:0.05405405405405406 1142:0.0588235294117647 1161:0.09999999999999999 1208:0.045454545454545456 1291:0.05263157894736842 1315:0.10714285714285714 1364:0.022727272727272728 1379:0.2058823529411765 1446:0.030769230769230767 1496:0.025641025641025644 1509:0.2857142857142857 1518:0.05 1580:0.0303030303030303 
0.0 0.2295900570919627 0.0 1.0 1.0 1.0 1.0 1.0 1.0 1.0 0.7397323071599089 1.0 1.0 20:0.015384615384615384 45:0.058823529411764705 224:0.00746268656716418 305:0.03125 406:0.14285714285714285 426:0.02 467:0.08 556:0.045454545454545456 588:0.027777777777777776 684:0.034482758620689655 750:0.010526315789473684 887:0.14285714285714285 992:0.031746031746031744 1040:0.024691358024691357 1142:0.047058823529411764 1187:0.049999999999999996 1315:0.07142857142857142 1363:0.02127659574468085 1364:0.022727272727272728 1446:0.015384615384615384 1509:0.14285714285714285 1560:0.041666666666666664 1583:0.2 
0.0 0.0 0.04422277854008074 0.0 0.0 0.0 0.0 0.0 0.0 0.0 0.0 0.0 0.0 20:0.04615384615384615 40:0.09523809523809525 45:0.11764705882352941 60:0.006993006993006993 77:0.08333333333333333 99:0.28571428571428575 100:0.25 150:0.2105263157894737 162:0.07407407407407407 184:0.16666666666666669 188:0.09090909090909091 192:1.0 198:0.0673076923076923 209:1.0 224:0.24626865671641796 230:0.04545454545454545 241:0.013071895424836602 266:0.16666666666666666 279:0.04761904761904762 305:0.28125 345:0.11111111111111112 354:0.37500000000000006 365:0.14285714285714285 394:0.5384615384615385 398:0.06666666666666667 403:0.4 406:0.2857142857142857 407:0.2777777777777778 410:0.25 426:0.24000000000000002 430:0.25 431:0.32911392405063294 463:0.05882352941176471 467:0.24 485:0.3333333333333333 489:0.02702702702702703 511:0.5714285714285714 515:0.04545454545454545 518:1.0 537:0.04 556:0.11363636363636363 557:0.06666666666666667 568:0.25 569:0.002232142857142857 587:0.029411764705882353 588:0.16666666666666666 596:0.23076923076923078 618:0.017543859649122806 629:0.25 684:0.31034482758620685 695:0.7058823529411765 698:0.4 730:0.009174311926605505 749:0.375 750:0.25263157894736843 766:0.050059594755661505 772:0.02857142857142857 783:1.0 785:0.14285714285714285 787:0.023255813953488372 800:0.005050505050505051 806:0.1111111111111111 807:0.014084507042253521 821:0.125 852:0.2 877:0.2647058823529412 887:0.2142857142857143 894:0.03225806451612903 938:0.07692307692307691 965:0.043478260869565216 968:0.15000000000000002 981:0.010526315789473684 992:0.39682539682539686 1002:0.8823529411764706 1014:0.03571428571428571 1024:0.0392156862745098 1051:0.0072992700729927005 1053:0.08571428571428572 1061:0.02702702702702703 1077:0.5 1086:0.015873015873015872 1142:0.023529411764705882 1153:0.39999999999999997 1161:0.3 1169:0.10526315789473685 1205:0.028985507246376812 1208:0.36363636363636365 1209:0.25 1290:0.19999999999999998 1291:0.05263157894736842 1307:0.00796812749003984 1363:0.02127659574468085 1364:0.18181818181818182 1369:0.03636363636363636 1379:0.14705882352941177 1415:0.15789473684210528 1431:0.05 1446:0.23076923076923075 1454:0.29411764705882354 1458:0.09333333333333334 1490:0.22222222222222224 1496:0.025641025641025644 1498:0.1 1501:0.2 1509:0.2857142857142857 1518:0.05 1532:0.04 1538:0.037037037037037035 1544:0.06432748538011696 1551:0.09606986899563319 1560:0.08333333333333333 1578:0.03333333333333333 1580:0.0303030303030303 1583:0.4 1584:0.4 
0.0 0.0 0.0 0.0 0.0 0.130448018826032 0.0 0.0 0.0 0.34631613615011514 0.0 0.0 0.0 20:0.015384615384615384 45:0.058823529411764705 158:0.030303030303030304 198:0.07692307692307693 224:0.04477611940298508 266:0.16666666666666666 406:0.14285714285714285 426:0.01 493:0.3 554:0.04 556:0.06818181818181818 588:0.05555555555555555 684:0.034482758620689655 750:0.010526315789473684 766:0.009535160905840286 887:0.2142857142857143 992:0.04761904761904762 1040:0.04938271604938271 1142:0.011764705882352941 1207:0.1 1310:0.052631578947368425 1315:0.21428571428571427 1363:0.02127659574468085 1364:0.022727272727272728 1446:0.10769230769230768 1509:0.14285714285714285 1518:0.05 1583:0.2 
0.0 0.23892677611158353 0.31600700711068586 0.0 0.41178912550244995 0.0 0.0 0.0 0.23588885741936091 0.0 0.0 0.11591952150977708 0.4448223476334747 45:0.058823529411764705 108:0.05714285714285714 158:0.030303030303030304 224:0.02238805970149254 255:0.07692307692307693 260:0.02290076335877863 354:0.0625 394:0.038461538461538464 426:0.04 489:0.05405405405405406 493:0.19999999999999998 556:0.045454545454545456 588:0.027777777777777776 684:0.034482758620689655 695:0.05882352941176471 750:0.010526315789473684 877:0.014705882352941176 887:0.14285714285714285 890:0.5 992:0.04761904761904762 1040:0.0205761316872428 1142:0.011764705882352941 1205:0.01932367149758454 1315:0.17857142857142858 1364:0.045454545454545456 1446:0.030769230769230767 1509:0.14285714285714285 1527:0.029411764705882353 1583:0.2 
0.0 0.0 0.0 0.2696012600448986 0.0 0.0 0.0 0.0 0.0 0.0 0.0 0.0 0.0 20:0.015384615384615384 45:0.058823529411764705 224:0.00746268656716418 354:0.0625 406:0.14285714285714285 426:0.01 467:0.12 556:0.045454545454545456 588:0.027777777777777776 669:0.125 684:0.034482758620689655 695:0.05882352941176471 750:0.021052631578947368 877:0.014705882352941176 887:0.14285714285714285 992:0.031746031746031744 1040:0.024691358024691357 1142:0.047058823529411764 1296:0.3333333333333333 1315:0.14285714285714285 1363:0.02127659574468085 1364:0.022727272727272728 1446:0.07692307692307693 1509:0.2857142857142857 1583:0.2 
0.0 0.0 0.0 0.0 0.0 0.0 0.0 0.7660512852957863 0.0 0.05130613419723915 0.6629369307821694 0.0 0.09174010578329168 20:0.030769230769230767 45:0.058823529411764705 118:0.04 224:0.01492537313432836 255:0.23076923076923078 305:0.09375 354:0.37500000000000006 394:0.15384615384615385 406:0.14285714285714285 410:0.015625 426:0.17 454:0.375 467:0.08 493:0.3 506:0.08 556:0.18181818181818182 588:0.027777777777777776 596:0.07692307692307693 684:0.06896551724137931 695:0.411764705882353 712:0.058823529411764705 750:0.010526315789473684 758:0.024390243902439025 766:0.010727056019070322 872:0.008620689655172414 877:0.14705882352941174 887:0.2857142857142857 943:0.057692307692307696 992:0.17460317460317462 1014:0.03571428571428571 1040:0.024691358024691357 1051:0.0364963503649635 1053:0.08571428571428572 1142:0.047058823529411764 1166:0.16666666666666666 1315:0.32142857142857145 1364:0.11363636363636365 1412:0.05555555555555555 1439:0.13333333333333333 1446:0.04615384615384615 1509:0.2857142857142857 1560:0.16666666666666666 1583:0.2 
0.0 0.0 0.0 1.0 0.0 1.0 1.0 1.0 0.0 1.0 0.0 0.0 0.0 20:0.030769230769230767 45:0.058823529411764705 187:0.09523809523809523 198:0.038461538461538464 202:0.01519756838905775 224:0.00746268656716418 341:0.030303030303030304 394:0.038461538461538464 403:0.1 404:0.01020408163265306 406:0.14285714285714285 426:0.030000000000000002 467:0.08 556:0.045454545454545456 588:0.027777777777777776 684:0.034482758620689655 695:0.05882352941176471 712:0.058823529411764705 730:0.009174311926605505 745:0.043478260869565216 750:0.010526315789473684 766:0.017878426698450536 872:0.008620689655172414 877:0.029411764705882353 887:0.14285714285714285 992:0.07936507936507936 1040:0.01646090534979424 1061:0.02702702702702703 1142:0.0588235294117647 1302:0.05769230769230769 1307:0.01593625498007968 1315:0.10714285714285714 1364:0.022727272727272728 1446:0.015384615384615384 1509:0.2857142857142857 1583:0.2 
0.0 0.0 0.0 1.0 0.0 1.0 1.0 1.0 0.0 1.0 0.0 0.0 1.0 20:0.015384615384615384 37:0.03333333333333333 45:0.058823529411764705 217:0.08888888888888889 224:0.02238805970149254 255:0.23076923076923078 260:0.0076335877862595426 354:0.0625 388:0.07692307692307691 394:0.038461538461538464 406:0.14285714285714285 426:0.06999999999999999 467:0.04 556:0.045454545454545456 588:0.027777777777777776 684:0.034482758620689655 685:0.25 695:0.05882352941176471 745:0.043478260869565216 750:0.021052631578947368 766:0.01430274135876043 877:0.058823529411764705 887:0.14285714285714285 890:0.16666666666666666 992:0.04761904761904762 1035:0.03896103896103896 1040:0.037037037037037035 1142:0.047058823529411764 1205:0.004830917874396135 1315:0.10714285714285714 1364:0.022727272727272728 1388:0.1111111111111111 1412:0.05555555555555555 1415:0.05263157894736842 1446:0.015384615384615384 1490:0.11111111111111112 1509:0.2857142857142857 1518:0.1 
0.0 0.0 0.0 1.0 0.0 1.0 0.761002067397645 1.0 0.0 1.0 0.9410727933541247 0.0 1.0 20:0.015384615384615384 37:0.03333333333333333 40:0.2380952380952381 45:0.058823529411764705 90:0.125 100:0.25 198:0.038461538461538464 224:0.01492537313432836 255:0.07692307692307693 326:0.03571428571428571 354:0.0625 394:0.038461538461538464 406:0.14285714285714285 410:0.015625 414:0.00546448087431694 426:0.01 467:0.12 488:0.16666666666666669 524:0.03571428571428571 543:0.11111111111111112 556:0.20454545454545453 588:0.027777777777777776 594:0.05 596:0.07692307692307693 640:0.16666666666666669 684:0.06896551724137931 685:0.08333333333333333 695:0.23529411764705885 712:0.0196078431372549 715:0.09999999999999999 745:0.043478260869565216 750:0.010526315789473684 766:0.029797377830750895 785:0.14285714285714285 829:0.029411764705882353 852:0.26666666666666666 877:0.014705882352941176 887:0.2857142857142857 992:0.25396825396825395 1014:0.10714285714285714 1040:0.0205761316872428 1051:0.072992700729927 1061:0.10810810810810811 1142:0.10588235294117646 1200:0.041666666666666664 1209:0.125 1290:0.32 1307:0.00398406374501992 1315:0.10714285714285714 1364:0.022727272727272728 1383:0.2857142857142857 1446:0.0923076923076923 1509:0.14285714285714285 1560:0.08333333333333333 
0.0 0.0 0.0 1.0 0.0 1.0 1.0 1.0 0.0 1.0 0.0 0.0 0.5764146735238489 45:0.058823529411764705 224:0.01492537313432836 336:0.02 350:0.015037593984962405 354:0.0625 406:0.14285714285714285 426:0.04 453:0.02564102564102564 467:0.04 493:0.09999999999999999 506:0.12000000000000001 543:0.05555555555555556 556:0.06818181818181818 588:0.027777777777777776 684:0.034482758620689655 695:0.05882352941176471 712:0.0196078431372549 750:0.010526315789473684 877:0.014705882352941176 887:0.14285714285714285 889:0.05882352941176471 931:0.009523809523809523 992:0.06349206349206349 1040:0.01646090534979424 1142:0.0588235294117647 1307:0.00796812749003984 1315:0.10714285714285714 1346:0.02127659574468085 1364:0.022727272727272728 1446:0.015384615384615384 1490:0.11111111111111112 1509:0.2857142857142857 1583:0.2 
1.0 1.0 0.24295680454961951 1.0 1.0 1.0 1.0 1.0 1.0 1.0 1.0 1.0 1.0 20:0.015384615384615384 45:0.058823529411764705 224:0.01492537313432836 406:0.14285714285714285 426:0.02 455:0.02564102564102564 467:0.08 556:0.045454545454545456 588:0.027777777777777776 669:0.125 684:0.034482758620689655 750:0.021052631578947368 887:0.14285714285714285 992:0.031746031746031744 1040:0.02880658436213992 1142:0.023529411764705882 1315:0.07142857142857142 1364:0.045454545454545456 1446:0.030769230769230767 1509:0.14285714285714285 
0.0 0.0 0.0 1.0 0.0 1.0 0.0 1.0 0.0 1.0 0.0 0.0 0.0 45:0.058823529411764705 57:0.058823529411764705 196:0.06666666666666667 224:0.02238805970149254 235:0.01886792452830189 305:0.125 394:0.038461538461538464 406:0.14285714285714285 414:0.01092896174863388 426:0.01 493:0.09999999999999999 506:0.04 556:0.06818181818181818 588:0.027777777777777776 669:0.125 684:0.034482758620689655 730:0.03669724770642202 750:0.031578947368421054 887:0.2142857142857143 992:0.04761904761904762 1035:0.012987012987012988 1040:0.06172839506172839 1051:0.014598540145985401 1061:0.05405405405405406 1142:0.07058823529411765 1176:0.06666666666666667 1315:0.14285714285714285 1364:0.022727272727272728 1415:0.05263157894736842 1446:0.10769230769230768 1509:0.2857142857142857 1574:0.05555555555555556 
0.0014766463124577837 0.0 0.0 0.0 0.0 0.0 0.0 0.0 0.0 0.0 0.0 0.0 0.0 40:0.09523809523809525 45:0.058823529411764705 187:0.047619047619047616 198:0.019230769230769232 224:0.01492537313432836 255:0.7692307692307693 354:0.25 394:0.19230769230769232 406:0.14285714285714285 426:0.01 467:0.04 493:0.09999999999999999 556:0.06818181818181818 587:0.029411764705882353 588:0.027777777777777776 684:0.034482758620689655 695:0.23529411764705885 712:0.058823529411764705 750:0.010526315789473684 766:0.004767580452920143 877:0.058823529411764705 887:0.2142857142857143 943:0.057692307692307696 992:0.14285714285714285 1040:0.0205761316872428 1051:0.014598540145985401 1142:0.047058823529411764 1315:0.10714285714285714 1364:0.06818181818181818 1383:0.2857142857142857 1446:0.030769230769230767 1490:0.33333333333333337 1509:0.14285714285714285 1560:0.041666666666666664 1583:0.2 
0.9616266392798325 0.650491612320806 0.21734022009550685 0.0 0.3931077581155958 0.0 0.0 0.5608241284739848 1.0 0.2794554126424114 0.0 1.0 0.0 45:0.058823529411764705 224:0.01492537313432836 406:0.14285714285714285 426:0.01 489:0.05405405405405406 556:0.022727272727272728 588:0.027777777777777776 669:0.125 750:0.010526315789473684 887:0.07142857142857142 992:0.015873015873015872 1142:0.03529411764705882 1176:0.2 1315:0.03571428571428571 1362:0.2222222222222222 1363:0.02127659574468085 1446:0.04615384615384615 1505:0.1 1509:0.2857142857142857 1583:0.2 
0.0 0.0 0.0 1.0 0.0 1.0 1.0 1.0 1.0 1.0 0.0 1.0 1.0 45:0.058823529411764705 224:0.00746268656716418 406:0.14285714285714285 426:0.02 556:0.045454545454545456 588:0.027777777777777776 684:0.034482758620689655 750:0.010526315789473684 887:0.14285714285714285 992:0.031746031746031744 1040:0.01646090534979424 1142:0.023529411764705882 1315:0.07142857142857142 1363:0.02127659574468085 1364:0.045454545454545456 1446:0.015384615384615384 1509:0.2857142857142857 1583:0.2 
0.0 0.0 0.0 1.0 0.0 1.0 0.0 1.0 0.0 1.0 0.0 0.0 0.0 45:0.058823529411764705 90:0.125 224:0.00746268656716418 305:0.03125 326:0.053571428571428575 354:0.0625 406:0.14285714285714285 426:0.02 467:0.12 556:0.045454545454545456 588:0.027777777777777776 684:0.034482758620689655 730:0.009174311926605505 750:0.010526315789473684 887:0.14285714285714285 992:0.04761904761904762 1014:0.03571428571428571 1040:0.037037037037037035 1051:0.014598540145985401 1142:0.047058823529411764 1315:0.10714285714285714 1364:0.022727272727272728 1446:0.030769230769230767 1509:0.2857142857142857 1567:0.1 1583:0.2 
0.4114222146823298 0.3445076055960635 0.6151965347824853 1.0 0.6341804113016728 1.0 1.0 1.0 0.6222393751475955 1.0 1.0 0.6968502111239225 1.0 20:0.015384615384615384 45:0.058823529411764705 221:0.2857142857142857 224:0.01492537313432836 260:0.0076335877862595426 266:0.16666666666666666 406:0.14285714285714285 426:0.02 467:0.04 556:0.045454545454545456 588:0.027777777777777776 596:0.07692307692307693 597:0.09999999999999999 684:0.06896551724137931 745:0.043478260869565216 750:0.010526315789473684 766:0.0011918951132300357 829:0.029411764705882353 887:0.14285714285714285 915:0.015873015873015872 992:0.04761904761904762 1040:0.05761316872427984 1080:0.05263157894736842 1142:0.03529411764705882 1315:0.07142857142857142 1363:0.02127659574468085 1446:0.030769230769230767 1509:0.2857142857142857 
0.0 0.0 0.0 1.0 0.0 0.09497690394122665 0.0 1.0 0.0 0.2945190238121437 0.0 0.0 0.0 20:0.015384615384615384 45:0.058823529411764705 158:0.06060606060606061 198:0.028846153846153848 224:0.04477611940298508 255:0.3076923076923077 305:0.15625 354:0.0625 394:0.038461538461538464 406:0.2857142857142857 416:0.21428571428571427 426:0.11 467:0.08 493:0.5 506:0.08 556:0.11363636363636363 588:0.1111111111111111 644:0.07142857142857142 684:0.034482758620689655 695:0.05882352941176471 708:0.052631578947368425 730:0.009174311926605505 745:0.043478260869565216 750:0.010526315789473684 766:0.04648390941597139 779:0.07142857142857142 787:0.023255813953488372 866:0.052631578947368425 877:0.04411764705882353 887:0.2142857142857143 992:0.12698412698412698 1014:0.03571428571428571 1040:0.024691358024691357 1051:0.043795620437956206 1080:0.05263157894736842 1142:0.08235294117647059 1170:0.04761904761904762 1187:0.15 1225:0.1111111111111111 1293:0.0196078431372549 1302:0.05769230769230769 1307:0.0398406374501992 1315:0.14285714285714285 1364:0.11363636363636365 1412:0.05555555555555555 1431:0.1 1446:0.04615384615384615 1454:0.029411764705882356 1496:0.07692307692307693 1509:0.2857142857142857 1516:0.03278688524590164 1584:0.1 
0.0 0.0 0.0 1.0 0.0 1.0 0.0 0.5878633876284676 0.0 1.0 0.0 0.0 0.0 45:0.058823529411764705 92:0.03571428571428571 186:0.16666666666666669 224:0.02238805970149254 235:0.03773584905660378 354:0.125 406:0.14285714285714285 426:0.04 489:0.05405405405405406 556:0.09090909090909091 588:0.027777777777777776 684:0.034482758620689655 695:0.11764705882352942 750:0.010526315789473684 877:0.029411764705882353 887:0.2857142857142857 992:0.06349206349206349 1070:0.08333333333333333 1219:0.3684210526315789 1315:0.17857142857142858 1346:0.010638297872340425 1364:0.13636363636363635 1446:0.04615384615384615 1505:0.2 1509:0.2857142857142857 1583:0.2 
0.11711302522569063 0.065739709737455 0.0 0.9143591868030035 0.0742175535759695 0.5865035698830395 0.5366735813161645 0.30744864520107384 0.16043364952668332 0.5422330326468977 0.21310615959916449 0.08872507538639085 0.40160011545222324 20:0.015384615384615384 45:0.058823529411764705 100:0.125 209:0.3333333333333333 224:0.01492537313432836 353:0.14285714285714285 394:0.11538461538461539 406:0.14285714285714285 407:0.05555555555555556 410:0.015625 426:0.030000000000000002 518:0.19999999999999998 556:0.06818181818181818 588:0.027777777777777776 596:0.15384615384615385 684:0.034482758620689655 695:0.23529411764705885 750:0.021052631578947368 819:1.0 872:0.008620689655172414 877:0.04411764705882353 887:0.14285714285714285 915:0.031746031746031744 992:0.15873015873015872 1040:0.0205761316872428 1142:0.011764705882352941 1209:0.125 1290:0.04 1315:0.07142857142857142 1364:0.09090909090909091 1446:0.030769230769230767 1509:0.2857142857142857 1544:0.0058479532163742695 
0.0 0.0 0.0 0.0 0.0 0.0 0.0 0.0 0.0 0.3161777106950607 0.0 0.0 0.0 45:0.058823529411764705 198:0.009615384615384616 209:0.6666666666666666 224:0.01492537313432836 260:0.02290076335877863 354:0.0625 406:0.14285714285714285 416:0.5714285714285714 426:0.09000000000000001 467:0.08 518:0.16666666666666666 530:0.07142857142857142 556:0.045454545454545456 588:0.027777777777777776 596:0.3076923076923077 684:0.10344827586206895 695:0.05882352941176471 712:0.0392156862745098 749:0.0625 750:0.010526315789473684 877:0.014705882352941176 887:0.14285714285714285 992:0.04761904761904762 1012:0.30769230769230765 1040:0.02880658436213992 1051:0.0072992700729927005 1078:0.09523809523809523 1142:0.07058823529411765 1161:0.3 1187:0.049999999999999996 1212:0.3333333333333333 1315:0.07142857142857142 1364:0.045454545454545456 1446:0.030769230769230767 1509:0.2857142857142857 
0.0 0.0 0.0 0.1393541231285102 0.0 0.19383953845591434 0.0 0.0 0.0 0.0 0.0 0.0 0.0 45:0.058823529411764705 224:0.00746268656716418 354:0.0625 406:0.14285714285714285 426:0.01 467:0.08 556:0.045454545454545456 588:0.027777777777777776 669:0.125 684:0.034482758620689655 695:0.05882352941176471 750:0.010526315789473684 877:0.014705882352941176 887:0.14285714285714285 992:0.031746031746031744 1040:0.024691358024691357 1142:0.047058823529411764 1315:0.14285714285714285 1363:0.02127659574468085 1364:0.022727272727272728 1446:0.0923076923076923 1509:0.2857142857142857 1583:0.2 
0.01545206833136215 0.0057465374856368965 0.013835452612967035 1.0 0.0 1.0 0.5795378183143239 1.0 0.0 1.0 0.48173445235749723 0.0575947801484231 0.8734806691406946 20:0.030769230769230767 45:0.058823529411764705 193:0.0625 198:0.019230769230769232 224:0.01492537313432836 275:0.10344827586206896 354:0.0625 394:0.15384615384615385 406:0.14285714285714285 417:0.4444444444444444 426:0.08 467:0.12 556:0.09090909090909091 588:0.027777777777777776 684:0.034482758620689655 695:0.11764705882352942 745:0.043478260869565216 750:0.010526315789473684 766:0.0035756853396901075 836:0.25 877:0.029411764705882353 887:0.2142857142857143 933:0.07692307692307693 992:0.15873015873015872 1012:0.5384615384615384 1040:0.0205761316872428 1051:0.021897810218978103 1053:0.028571428571428574 1084:0.1818181818181818 1142:0.07058823529411765 1170:0.09523809523809525 1298:0.005813953488372093 1315:0.14285714285714285 1364:0.06818181818181818 1446:0.030769230769230767 1448:0.17391304347826086 1509:0.2857142857142857 1560:0.041666666666666664 
0.8533484116454766 0.38041529392687373 0.5395464476433548 0.0 0.37846232967229404 0.0 0.0 0.0 0.45320644698286705 0.0 0.0 0.6435801092329017 0.0 12:0.043478260869565216 45:0.058823529411764705 52:0.047619047619047616 59:0.2 90:0.125 91:0.022727272727272728 99:0.14285714285714288 108:0.02857142857142857 200:0.029411764705882353 224:0.04477611940298508 235:0.01886792452830189 247:0.2 255:0.07692307692307693 260:0.015267175572519085 268:0.1 322:0.09090909090909091 388:0.07692307692307691 394:0.15384615384615385 406:0.14285714285714285 426:0.15 439:0.125 453:0.02564102564102564 467:0.32 485:0.3333333333333333 489:0.08108108108108109 493:0.5 522:0.08333333333333333 547:0.05 556:0.09090909090909091 588:0.027777777777777776 596:0.07692307692307693 669:0.25 684:0.31034482758620685 685:0.08333333333333333 697:0.125 712:0.0196078431372549 730:0.009174311926605505 750:0.052631578947368425 766:0.0011918951132300357 774:0.27272727272727276 829:0.029411764705882353 846:0.14285714285714285 874:0.3636363636363636 877:0.04411764705882353 887:0.07142857142857142 910:0.043478260869565216 929:0.25 948:0.2 992:0.07936507936507936 996:0.14285714285714288 1001:0.15384615384615385 1024:0.0196078431372549 1040:0.01646090534979424 1051:0.0072992700729927005 1070:0.3333333333333333 1087:0.07142857142857142 1141:0.3333333333333333 1142:0.03529411764705882 1205:0.00966183574879227 1207:0.6000000000000001 1215:0.04347826086956522 1225:0.2222222222222222 1270:0.06060606060606061 1295:0.11538461538461539 1315:0.25 1335:0.07692307692307693 1356:0.06666666666666667 1363:0.02127659574468085 1364:0.20454545454545453 1370:0.047619047619047616 1412:0.05555555555555555 1415:0.21052631578947367 1439:0.19999999999999998 1446:0.061538461538461535 1479:0.01694915254237288 1490:0.11111111111111112 1505:0.1 1509:0.2857142857142857 1511:0.16666666666666669 1518:0.1 1551:0.002183406113537118 1560:0.041666666666666664 
0.0 0.0 0.00533415293183237 0.0 0.0 0.0 0.0 0.0 0.0 0.0 0.0 0.0 0.0 15:0.16666666666666669 20:0.015384615384615384 45:0.058823529411764705 99:0.14285714285714288 100:0.125 158:0.6060606060606061 205:0.011235955056179775 224:0.04477611940298508 255:0.3076923076923077 292:0.125 305:0.125 326:0.10714285714285715 354:0.0625 394:0.15384615384615385 406:0.14285714285714285 416:0.35714285714285715 426:0.18000000000000002 467:0.32 493:0.09999999999999999 494:1.0 556:0.06818181818181818 587:0.23529411764705882 588:0.027777777777777776 669:0.125 684:0.10344827586206895 695:0.11764705882352942 750:0.06315789473684211 849:0.33333333333333337 877:0.014705882352941176 887:0.14285714285714285 889:0.11764705882352942 890:0.16666666666666666 992:0.09523809523809525 1014:0.03571428571428571 1040:0.0205761316872428 1051:0.021897810218978103 1080:0.21052631578947367 1142:0.023529411764705882 1187:1.0 1209:0.125 1245:0.5 1296:0.3333333333333333 1315:0.10714285714285714 1363:0.02127659574468085 1364:0.2727272727272727 1383:0.42857142857142855 1391:0.007462686567164179 1430:0.1818181818181818 1439:0.39999999999999997 1446:0.061538461538461535 1505:0.1 1509:0.2857142857142857 1518:0.15 1560:0.125 1583:0.2 
0.3682209446643319 0.2971582872468887 0.15970811683472746 1.0 0.42089369511387004 1.0 0.3742954177596117 0.8977952644991398 0.5558319205613164 1.0 0.07427176628027764 0.3589361024256257 1.0 20:0.030769230769230767 45:0.058823529411764705 118:0.04 209:0.16666666666666666 224:0.02238805970149254 406:0.14285714285714285 426:0.01 467:0.04 470:0.33333333333333337 518:0.13333333333333333 556:0.045454545454545456 588:0.027777777777777776 684:0.034482758620689655 750:0.010526315789473684 877:0.014705882352941176 887:0.14285714285714285 992:0.031746031746031744 1040:0.0411522633744856 1051:0.0072992700729927005 1142:0.0588235294117647 1161:0.09999999999999999 1231:0.02631578947368421 1241:0.33333333333333337 1290:0.12 1315:0.21428571428571427 1364:0.022727272727272728 1446:0.04615384615384615 1496:0.025641025641025644 1509:0.14285714285714285 1573:0.029411764705882353 
0.0 0.0 0.0 0.0 0.0 0.14220395040472114 0.0 0.0 0.0 0.0 0.0 0.0 0.0 19:0.058823529411764705 45:0.058823529411764705 224:0.03731343283582089 305:0.15625 394:0.038461538461538464 406:0.14285714285714285 426:0.060000000000000005 506:0.04 556:0.045454545454545456 588:0.05555555555555555 669:0.37499999999999994 684:0.06896551724137931 695:0.05882352941176471 750:0.052631578947368425 877:0.058823529411764705 879:0.020833333333333332 887:0.14285714285714285 889:0.05882352941176471 915:0.031746031746031744 992:0.06349206349206349 1040:0.13168724279835392 1142:0.07058823529411765 1187:0.3 1204:1.0 1207:0.1 1250:0.2 1315:0.14285714285714285 1364:0.045454545454545456 1415:0.21052631578947367 1446:0.015384615384615384 1509:0.14285714285714285 1518:0.05 1584:0.1 
0.12666718047481756 0.0 0.0 1.0 0.0 1.0 1.0 1.0 0.5971267458328057 1.0 0.7898487249390669 0.0 0.0 45:0.058823529411764705 158:0.030303030303030304 224:0.00746268656716418 394:0.038461538461538464 406:0.14285714285714285 426:0.01 467:0.08 556:0.045454545454545456 588:0.027777777777777776 669:0.125 684:0.06896551724137931 685:0.16666666666666666 698:0.2 750:0.031578947368421054 887:0.14285714285714285 992:0.031746031746031744 1040:0.02880658436213992 1142:0.0588235294117647 1315:0.10714285714285714 1364:0.022727272727272728 1415:0.05263157894736842 1446:0.015384615384615384 1509:0.2857142857142857 
0.0 0.0 0.0 1.0 0.0 1.0 0.0 1.0 0.0 1.0 1.0 0.0 1.0 20:0.030769230769230767 45:0.058823529411764705 198:0.019230769230769232 224:0.00746268656716418 357:0.09999999999999999 406:0.14285714285714285 426:0.02 467:0.16 556:0.022727272727272728 588:0.027777777777777776 750:0.010526315789473684 766:0.0011918951132300357 887:0.07142857142857142 992:0.015873015873015872 1040:0.024691358024691357 1142:0.023529411764705882 1315:0.07142857142857142 1364:0.022727272727272728 1446:0.04615384615384615 1505:0.1 1509:0.2857142857142857 1516:0.01639344262295082 1583:0.2 
0.0 0.0 0.0 0.0 0.0 0.0 0.0 0.0 0.15350158794539331 0.0 0.0 0.0 0.0 17:0.04166666666666667 45:0.058823529411764705 198:0.009615384615384616 224:0.00746268656716418 394:0.038461538461538464 406:0.14285714285714285 410:0.046875 426:0.04 467:0.04 493:0.09999999999999999 556:0.045454545454545456 588:0.027777777777777776 669:0.125 684:0.034482758620689655 698:0.2 750:0.010526315789473684 887:0.14285714285714285 992:0.031746031746031744 1040:0.01646090534979424 1051:0.0072992700729927005 1053:0.028571428571428574 1142:0.07058823529411765 1315:0.14285714285714285 1341:0.2857142857142857 1363:0.02127659574468085 1364:0.06818181818181818 1446:0.015384615384615384 1509:0.14285714285714285 1551:0.002183406113537118 1583:0.2 
0.0 0.0 0.0 0.7925426573858806 0.0 1.0 0.0 0.0 0.0 1.0 0.0 0.0 0.0 45:0.058823529411764705 128:0.015625 209:0.16666666666666666 224:0.00746268656716418 260:0.02290076335877863 305:0.03125 394:0.07692307692307693 406:0.14285714285714285 410:0.015625 426:0.09000000000000001 467:0.12 515:0.1818181818181818 518:0.4666666666666667 522:0.08333333333333333 556:0.06818181818181818 588:0.05555555555555555 596:0.5384615384615384 684:0.13793103448275862 695:0.11764705882352942 749:0.0625 750:0.010526315789473684 877:0.11764705882352941 887:0.2142857142857143 968:0.05 992:0.09523809523809525 1040:0.037037037037037035 1096:0.018867924528301886 1142:0.08235294117647059 1205:0.00966183574879227 1270:0.030303030303030304 1315:0.21428571428571427 1364:0.06818181818181818 1446:0.015384615384615384 1504:0.04 1509:0.2857142857142857 1518:0.05 
0.0 0.0 0.0 0.0 0.0 0.0 0.0 0.0 0.0 0.0 0.0 0.0 0.13229652183602655 20:0.015384615384615384 31:0.011904761904761904 45:0.11764705882352941 99:0.14285714285714288 158:0.15151515151515152 183:0.03225806451612903 202:0.054711246200607896 224:0.04477611940298508 235:0.01886792452830189 249:0.13333333333333333 255:0.8461538461538463 266:0.5 268:0.1 288:0.15384615384615385 305:0.15625 341:0.030303030303030304 354:0.25 394:0.23076923076923078 400:0.037037037037037035 404:0.030612244897959183 406:0.5714285714285714 416:0.42857142857142855 426:0.21 457:0.07142857142857142 467:0.2 487:0.04761904761904762 493:1.0 506:0.04 522:0.08333333333333333 545:0.5 556:0.022727272727272728 578:0.19999999999999998 588:0.027777777777777776 684:0.2068965517241379 695:0.29411764705882354 697:0.125 730:0.009174311926605505 750:0.021052631578947368 766:0.04886769964243147 825:0.19230769230769232 849:0.6666666666666667 875:0.038461538461538464 877:0.17647058823529413 887:0.07142857142857142 889:0.05882352941176471 931:0.009523809523809523 992:0.17460317460317462 1040:0.024691358024691357 1061:0.02702702702702703 1077:0.125 1142:0.011764705882352941 1170:0.09523809523809525 1187:0.5 1231:0.02631578947368421 1265:0.6666666666666666 1290:0.04 1295:0.15384615384615383 1302:0.09615384615384616 1307:0.00796812749003984 1315:0.32142857142857145 1346:0.03191489361702128 1364:0.34090909090909094 1383:0.2857142857142857 1439:0.4666666666666666 1446:0.030769230769230767 1457:0.2 1490:0.33333333333333337 1505:0.1 1509:0.2857142857142857 1560:0.16666666666666666 1578:0.06666666666666667 
0.0 0.0 0.0 1.0 0.0 1.0 0.7834508034604202 1.0 0.0 1.0 0.0 0.0 0.0 20:0.07692307692307691 45:0.058823529411764705 224:0.01492537313432836 394:0.038461538461538464 406:0.14285714285714285 455:0.02564102564102564 467:0.08 518:0.03333333333333333 522:0.08333333333333333 556:0.09090909090909091 588:0.027777777777777776 684:0.034482758620689655 750:0.010526315789473684 887:0.2142857142857143 965:0.21739130434782608 992:0.04761904761904762 1040:0.01646090534979424 1061:0.18918918918918917 1142:0.0588235294117647 1200:0.041666666666666664 1315:0.10714285714285714 1364:0.045454545454545456 1446:0.19999999999999998 1509:0.2857142857142857 
0.0 0.0 0.0 0.0 0.0 0.9664162576341406 0.0 0.0 0.0 0.0 0.0 0.0 0.0 45:0.058823529411764705 158:0.030303030303030304 224:0.00746268656716418 255:0.07692307692307693 406:0.14285714285714285 426:0.02 489:0.02702702702702703 516:0.25 556:0.06818181818181818 588:0.027777777777777776 669:0.125 684:0.034482758620689655 750:0.010526315789473684 860:0.015625 877:0.014705882352941176 887:0.2142857142857143 992:0.04761904761904762 1040:0.01646090534979424 1135:0.08333333333333334 1142:0.08235294117647059 1315:0.10714285714285714 1346:0.03191489361702128 1363:0.02127659574468085 1364:0.022727272727272728 1417:0.04545454545454545 1446:0.04615384615384615 1509:0.2857142857142857 1583:0.2 
0.0 0.0 0.0 0.0 0.0 0.0 0.0 0.0 0.0 0.0 0.0044634840206937195 0.0 0.0 20:0.030769230769230767 45:0.058823529411764705 198:0.019230769230769232 200:0.029411764705882353 202:0.00303951367781155 224:0.00746268656716418 305:0.03125 326:0.053571428571428575 354:0.125 394:0.11538461538461539 406:0.14285714285714285 411:0.045454545454545456 414:0.01092896174863388 426:0.09000000000000001 431:0.06962025316455696 467:0.12 492:1.0 518:0.3333333333333333 556:0.09090909090909091 588:0.027777777777777776 684:0.034482758620689655 685:0.5 695:0.29411764705882354 737:0.18181818181818182 750:0.010526315789473684 766:0.07270560190703218 877:0.058823529411764705 887:0.2142857142857143 968:0.1 992:0.14285714285714285 1035:0.012987012987012988 1040:0.01646090534979424 1051:0.0072992700729927005 1053:0.028571428571428574 1077:0.125 1142:0.16470588235294117 1290:0.04 1295:0.07692307692307691 1298:0.029069767441860465 1307:0.0398406374501992 1315:0.3928571428571429 1364:0.09090909090909091 1379:0.058823529411764705 1446:0.015384615384615384 1509:0.2857142857142857 1516:0.03278688524590164 1518:0.1 1583:0.2 
0.0 0.0 0.0 1.0 0.0 1.0 0.10465883218669716 0.4973945219574096 0.0 0.8371976410415852 0.0 0.0 0.0 45:0.058823529411764705 100:0.25 181:1.0 198:0.038461538461538464 224:0.00746268656716418 354:0.0625 406:0.14285714285714285 410:0.03125 467:0.04 518:0.06666666666666667 537:0.04 556:0.09090909090909091 588:0.027777777777777776 596:0.07692307692307693 684:0.034482758620689655 887:0.2857142857142857 992:0.09523809523809525 1040:0.0205761316872428 1053:0.028571428571428574 1142:0.047058823529411764 1209:0.25 1315:0.10714285714285714 1364:0.045454545454545456 1446:0.030769230769230767 1509:0.2857142857142857 
0.0 0.0 0.12470033949778433 0.0 0.0 0.0 0.0 0.0 0.0 0.0 0.0 0.0 0.0 7:0.038461538461538464 20:0.015384615384615384 45:0.11764705882352941 61:0.25 99:0.14285714285714288 100:0.25 158:0.12121212121212122 200:0.08823529411764706 205:0.011235955056179775 224:0.02238805970149254 255:0.7692307692307693 270:0.052631578947368425 354:0.125 394:0.07692307692307693 406:0.2857142857142857 414:0.01092896174863388 416:0.42857142857142855 426:0.17 430:0.16666666666666666 454:0.125 467:0.12 522:0.08333333333333333 556:0.09090909090909091 588:0.027777777777777776 596:0.23076923076923078 684:0.10344827586206895 695:0.29411764705882354 698:0.2 712:0.1764705882352941 729:0.005917159763313609 730:0.01834862385321101 750:0.031578947368421054 777:0.03571428571428571 782:0.25 852:0.13333333333333333 877:0.1323529411764706 887:0.14285714285714285 935:0.09999999999999999 974:0.14285714285714285 992:0.31746031746031744 1014:0.03571428571428571 1035:0.012987012987012988 1051:0.021897810218978103 1061:0.02702702702702703 1093:0.18181818181818182 1102:0.04878048780487805 1142:0.011764705882352941 1166:0.16666666666666666 1170:0.04761904761904762 1176:0.06666666666666667 1187:0.25 1209:0.25 1215:0.04347826086956522 1324:0.04347826086956522 1363:0.06382978723404255 1364:0.09090909090909091 1383:0.2857142857142857 1391:0.007462686567164179 1412:0.1111111111111111 1432:0.10714285714285715 1439:0.5333333333333333 1446:0.061538461538461535 1457:0.1 1490:0.22222222222222224 1509:0.2857142857142857 1551:0.006550218340611353 1560:0.125 1583:0.2 1584:0.1 
0.0 0.0 0.0 0.0 0.0 0.14847340031526712 0.0 0.0 0.0 0.0 0.0 0.0 0.0 45:0.058823529411764705 224:0.01492537313432836 255:0.07692307692307693 305:0.03125 406:0.14285714285714285 426:0.02 454:0.125 493:0.09999999999999999 556:0.06818181818181818 588:0.027777777777777776 684:0.06896551724137931 750:0.010526315789473684 887:0.2142857142857143 931:0.019047619047619046 992:0.04761904761904762 1040:0.0205761316872428 1142:0.0588235294117647 1315:0.10714285714285714 1364:0.022727272727272728 1383:0.14285714285714285 1446:0.030769230769230767 1509:0.2857142857142857 1583:0.2 
0.0 0.0 0.0 1.0 0.0 1.0 1.0 1.0 0.0 1.0 1.0 0.0 1.0 45:0.058823529411764705 224:0.01492537313432836 406:0.14285714285714285 426:0.02 467:0.2 556:0.022727272727272728 588:0.027777777777777776 669:0.125 750:0.021052631578947368 887:0.07142857142857142 992:0.015873015873015872 1040:0.0205761316872428 1142:0.023529411764705882 1315:0.07142857142857142 1364:0.022727272727272728 1446:0.10769230769230768 1505:0.1 1509:0.2857142857142857 1516:0.01639344262295082 
0.0037236067975672626 0.06751090432304441 0.41451694925464977 1.0 0.07792504802788051 1.0 1.0 1.0 0.019403945121471318 1.0 0.9333491970080193 0.43740970812233243 1.0 17:0.10416666666666667 37:0.03333333333333333 39:0.3333333333333333 45:0.058823529411764705 100:0.125 209:0.3333333333333333 224:0.00746268656716418 235:0.05660377358490566 353:0.14285714285714285 354:0.0625 393:0.2 394:0.038461538461538464 406:0.14285714285714285 426:0.01 440:0.11538461538461538 489:0.02702702702702703 493:0.09999999999999999 500:0.2 518:0.13333333333333333 556:0.11363636363636363 588:0.05555555555555555 596:0.07692307692307693 684:0.13793103448275862 695:0.17647058823529413 712:0.11764705882352941 750:0.010526315789473684 872:0.008620689655172414 877:0.029411764705882353 887:0.14285714285714285 992:0.09523809523809525 1040:0.00823045267489712 1053:0.028571428571428574 1070:0.08333333333333333 1080:0.05263157894736842 1142:0.047058823529411764 1209:0.125 1315:0.10714285714285714 1341:0.14285714285714285 1364:0.022727272727272728 1446:0.015384615384615384 1509:0.2857142857142857 
1.0 1.0 0.9954837495154767 1.0 1.0 1.0 1.0 1.0 1.0 1.0 1.0 1.0 1.0 17:0.08333333333333334 20:0.04615384615384615 45:0.058823529411764705 198:0.057692307692307696 224:0.04477611940298508 255:0.07692307692307693 406:0.14285714285714285 426:0.02 453:0.10256410256410256 556:0.045454545454545456 588:0.027777777777777776 684:0.034482758620689655 695:0.05882352941176471 750:0.042105263157894736 887:0.07142857142857142 992:0.031746031746031744 1040:0.03292181069958848 1053:0.028571428571428574 1070:0.16666666666666666 1315:0.07142857142857142 1364:0.045454545454545456 1446:0.0923076923076923 1509:0.2857142857142857 
0.0 0.0 0.0 0.8654441928086821 0.0 0.8050381025221317 0.546202121989346 0.9117051404458657 0.0 0.8827799782453534 0.10190281496428398 0.0 0.24827784733872366 20:0.015384615384615384 45:0.058823529411764705 158:0.030303030303030304 224:0.00746268656716418 255:0.07692307692307693 352:1.0 406:0.14285714285714285 426:0.01 467:0.04 556:0.09090909090909091 588:0.027777777777777776 684:0.034482758620689655 695:0.05882352941176471 750:0.010526315789473684 836:0.03571428571428572 877:0.014705882352941176 887:0.2142857142857143 931:0.009523809523809523 992:0.06349206349206349 1016:0.022222222222222223 1040:0.012345679012345678 1053:0.08571428571428572 1142:0.011764705882352941 1315:0.10714285714285714 1364:0.06818181818181818 1446:0.015384615384615384 1509:0.2857142857142857 1516:0.04918032786885246 
0.0 0.0 0.0 1.0 0.014241328845596191 1.0 0.1412180093427331 0.0 0.07074111897917645 0.047448403629008665 0.0 0.0 1.0 45:0.058823529411764705 224:0.00746268656716418 235:0.01886792452830189 406:0.14285714285714285 410:0.046875 426:0.02 522:0.08333333333333333 556:0.045454545454545456 588:0.027777777777777776 669:0.125 684:0.034482758620689655 712:0.0196078431372549 750:0.010526315789473684 854:0.125 887:0.14285714285714285 992:0.031746031746031744 1040:0.01646090534979424 1053:0.028571428571428574 1142:0.07058823529411765 1315:0.14285714285714285 1363:0.02127659574468085 1364:0.045454545454545456 1446:0.015384615384615384 1509:0.14285714285714285 1583:0.2 
0.0 0.0 0.0 1.0 0.0 0.0 0.0 1.0 0.0 1.0 1.0 0.0 1.0 20:0.030769230769230767 45:0.058823529411764705 99:0.14285714285714288 198:0.038461538461538464 224:0.01492537313432836 341:0.06060606060606061 354:0.0625 406:0.14285714285714285 426:0.02 467:0.12 556:0.022727272727272728 588:0.027777777777777776 669:0.125 684:0.034482758620689655 695:0.05882352941176471 745:0.08695652173913043 750:0.010526315789473684 766:0.0059594755661501785 877:0.014705882352941176 887:0.07142857142857142 992:0.015873015873015872 1040:0.012345679012345678 1142:0.0588235294117647 1315:0.21428571428571427 1316:0.15789473684210528 1363:0.02127659574468085 1364:0.022727272727272728 1446:0.030769230769230767 1505:0.1 1509:0.14285714285714285 1583:0.2 
0.0 0.0 0.0 1.0 0.0 1.0 0.0 0.0 0.0 0.0 0.0 0.0 1.0 45:0.058823529411764705 158:0.030303030303030304 224:0.00746268656716418 406:0.14285714285714285 410:0.03125 426:0.04 467:0.04 556:0.045454545454545456 588:0.027777777777777776 669:0.125 684:0.034482758620689655 698:0.2 750:0.010526315789473684 887:0.14285714285714285 992:0.031746031746031744 1040:0.01646090534979424 1053:0.028571428571428574 1142:0.07058823529411765 1315:0.14285714285714285 1363:0.02127659574468085 1364:0.045454545454545456 1446:0.015384615384615384 1509:0.14285714285714285 1551:0.004366812227074236 1560:0.041666666666666664 1583:0.2 1585:0.09090909090909091 
0.0 0.0 0.0 1.0 0.0 0.02849182108245292 0.0 0.0 0.0 0.0 0.0 0.0 0.0 20:0.04615384615384615 45:0.058823529411764705 85:0.008771929824561403 198:0.0673076923076923 224:0.07462686567164178 341:0.06060606060606061 394:0.038461538461538464 404:0.015306122448979591 406:0.2857142857142857 426:0.06999999999999999 467:0.04 556:0.09090909090909091 588:0.027777777777777776 669:0.125 684:0.034482758620689655 750:0.021052631578947368 766:0.025029797377830752 877:0.029411764705882353 887:0.2857142857142857 992:0.06349206349206349 1024:0.0196078431372549 1040:0.02880658436213992 1142:0.07058823529411765 1176:0.06666666666666667 1290:0.04 1315:0.10714285714285714 1363:0.02127659574468085 1364:0.045454545454545456 1446:0.04615384615384615 1471:0.01904761904761905 1509:0.2857142857142857 1583:0.2 
0.0 0.0 0.0 1.0 0.0 1.0 1.0 1.0 0.0 1.0 1.0 0.2653346556130394 1.0 45:0.058823529411764705 224:0.02238805970149254 354:0.0625 406:0.14285714285714285 426:0.01 556:0.045454545454545456 588:0.027777777777777776 669:0.125 684:0.034482758620689655 695:0.05882352941176471 750:0.010526315789473684 877:0.014705882352941176 887:0.14285714285714285 992:0.031746031746031744 1040:0.024691358024691357 1142:0.047058823529411764 1315:0.14285714285714285 1364:0.022727272727272728 1446:0.04615384615384615 1509:0.2857142857142857 
0.0 0.0 0.0 1.0 0.0 1.0 0.0 1.0 0.0 1.0 0.0 0.0 0.0 17:0.020833333333333336 45:0.058823529411764705 91:0.022727272727272728 224:0.00746268656716418 252:0.05263157894736842 406:0.14285714285714285 426:0.060000000000000005 467:0.08 556:0.09090909090909091 564:0.28571428571428575 588:0.027777777777777776 669:0.125 684:0.06896551724137931 685:0.16666666666666666 750:0.021052631578947368 887:0.2142857142857143 890:0.16666666666666666 992:0.04761904761904762 1040:0.02880658436213992 1051:0.0072992700729927005 1142:0.0588235294117647 1176:0.13333333333333333 1315:0.10714285714285714 1335:0.07692307692307693 1364:0.022727272727272728 1383:0.2857142857142857 1415:0.05263157894736842 1446:0.015384615384615384 1509:0.2857142857142857 
0.24962840261310676 0.0 0.0 1.0 0.0 1.0 1.0 1.0 0.0 1.0 0.0 0.0 1.0 45:0.058823529411764705 224:0.00746268656716418 305:0.09375 406:0.14285714285714285 426:0.02 467:0.04 556:0.045454545454545456 588:0.027777777777777776 610:0.038461538461538464 618:0.017543859649122806 669:0.125 684:0.034482758620689655 750:0.010526315789473684 877:0.014705882352941176 887:0.2142857142857143 992:0.06349206349206349 1040:0.04526748971193416 1051:0.014598540145985401 1142:0.07058823529411765 1315:0.10714285714285714 1383:0.2857142857142857 1415:0.05263157894736842 1446:0.015384615384615384 1509:0.14285714285714285 1560:0.041666666666666664 
0.0 0.0 0.0 1.0 0.0 1.0 1.0 1.0 0.0 1.0 0.0 0.0 0.0 20:0.015384615384615384 45:0.058823529411764705 198:0.019230769230769232 202:0.0060790273556231 224:0.01492537313432836 406:0.14285714285714285 426:0.02 467:0.08 556:0.045454545454545456 588:0.027777777777777776 684:0.034482758620689655 745:0.043478260869565216 750:0.010526315789473684 766:0.0011918951132300357 887:0.14285714285714285 992:0.031746031746031744 1040:0.0205761316872428 1142:0.023529411764705882 1315:0.07142857142857142 1364:0.045454545454545456 1446:0.030769230769230767 1509:0.2857142857142857 1583:0.2 
0.492575854341054 0.0 0.0 1.0 0.15306423159091373 1.0 1.0 1.0 1.0 1.0 0.4811326931977911 0.6544918823944229 0.7366835175256152 45:0.058823529411764705 60:0.013986013986013986 99:0.28571428571428575 187:0.023809523809523808 198:0.019230769230769232 224:0.00746268656716418 255:0.07692307692307693 266:0.16666666666666666 406:0.14285714285714285 426:0.05 453:0.07692307692307693 467:0.08 556:0.045454545454545456 588:0.027777777777777776 605:0.012499999999999999 618:0.017543859649122806 684:0.06896551724137931 750:0.010526315789473684 766:0.004767580452920143 877:0.014705882352941176 887:0.14285714285714285 992:0.031746031746031744 1040:0.01646090534979424 1142:0.09411764705882353 1170:0.09523809523809525 1250:0.02857142857142857 1307:0.00398406374501992 1315:0.10714285714285714 1364:0.022727272727272728 1446:0.04615384615384615 1509:0.2857142857142857 1510:0.03703703703703704 1552:0.16666666666666669 
0.0 0.0 0.0 0.1974621881994542 0.0 0.41925924306130335 0.0 0.011536318429340763 0.0 0.0 0.0 0.0 0.0 45:0.058823529411764705 224:0.00746268656716418 305:0.125 406:0.14285714285714285 416:0.07142857142857142 426:0.01 454:0.125 457:0.07142857142857142 467:0.12 489:0.02702702702702703 511:0.07142857142857142 556:0.09090909090909091 570:0.2 588:0.027777777777777776 684:0.034482758620689655 698:0.2 750:0.010526315789473684 887:0.2142857142857143 890:0.16666666666666666 992:0.06349206349206349 996:0.14285714285714288 1040:0.024691358024691357 1051:0.0072992700729927005 1142:0.0588235294117647 1315:0.07142857142857142 1364:0.022727272727272728 1446:0.030769230769230767 1509:0.2857142857142857 1583:0.2 
0.308660480861166 0.31369818809436895 0.2915871942361364 1.0 0.37499044814202837 1.0 0.6511467236214588 1.0 0.5027544517874802 1.0 0.2845623238293227 0.4591403434236627 0.5474292995344724 45:0.058823529411764705 394:0.038461538461538464 467:0.04 556:0.022727272727272728 588:0.027777777777777776 684:0.034482758620689655 750:0.06315789473684211 887:0.07142857142857142 992:0.031746031746031744 1019:0.05555555555555555 1142:0.03529411764705882 1176:0.06666666666666667 1236:1.0 1364:0.045454545454545456 1446:0.030769230769230767 1509:0.14285714285714285 1583:0.2 
0.0 0.0 0.0 0.21233802983597447 0.0 0.0 0.0 0.4818737349043567 0.0 0.0640153884241125 0.0 0.0 0.0 20:0.030769230769230767 45:0.058823529411764705 219:1.0 224:0.02238805970149254 255:0.38461538461538464 406:0.14285714285714285 416:0.5 426:0.08 467:0.08 556:0.09090909090909091 588:0.027777777777777776 684:0.10344827586206895 685:0.25 695:0.17647058823529413 730:0.03669724770642202 750:0.010526315789473684 844:1.0 877:0.10294117647058823 887:0.2142857142857143 894:0.03225806451612903 992:0.12698412698412698 1040:0.01646090534979424 1053:0.05714285714285715 1061:0.02702702702702703 1078:0.023809523809523808 1142:0.03529411764705882 1153:0.39999999999999997 1187:0.049999999999999996 1205:0.014492753623188406 1315:0.10714285714285714 1363:0.0425531914893617 1364:0.09090909090909091 1446:0.0923076923076923 1473:0.125 1490:0.33333333333333337 1509:0.2857142857142857 1538:0.037037037037037035 1560:0.041666666666666664 
1.0 1.0 1.0 1.0 1.0 1.0 1.0 1.0 1.0 1.0 1.0 1.0 1.0 45:0.058823529411764705 198:0.028846153846153848 224:0.00746268656716418 404:0.01020408163265306 406:0.14285714285714285 426:0.01 489:0.05405405405405406 556:0.045454545454545456 588:0.027777777777777776 750:0.010526315789473684 887:0.14285714285714285 992:0.031746031746031744 1070:0.08333333333333333 1315:0.03571428571428571 1364:0.022727272727272728 1446:0.015384615384615384 1471:0.01904761904761905 1509:0.2857142857142857 
0.0 0.05998574643985301 0.0242623310537175 1.0 0.09807580292403456 1.0 0.47781577080927634 0.47310209589927354 0.11565970548125204 0.8062507300848648 0.05562313868081666 0.07145447940027538 0.2879715079319511 15:1.0 20:0.015384615384615384 45:0.058823529411764705 224:0.00746268656716418 235:0.01886792452830189 426:0.04 556:0.06818181818181818 564:0.14285714285714288 587:0.029411764705882353 588:0.027777777777777776 669:0.125 684:0.034482758620689655 750:0.010526315789473684 766:0.023837902264600714 860:0.015625 887:0.2142857142857143 894:0.03225806451612903 931:0.009523809523809523 992:0.06349206349206349 1040:0.01646090534979424 1053:0.028571428571428574 1142:0.0588235294117647 1315:0.10714285714285714 1364:0.045454545454545456 1446:0.04615384615384615 1509:0.14285714285714285 
0.0 0.0 0.0 0.5378997584105789 0.0 1.0 0.0 0.0 0.0 0.0 0.0 0.0 0.0 20:0.015384615384615384 45:0.058823529411764705 100:0.375 158:0.030303030303030304 200:0.029411764705882353 224:0.00746268656716418 391:0.09999999999999999 406:0.14285714285714285 426:0.01 556:0.06818181818181818 588:0.027777777777777776 596:0.15384615384615385 684:0.034482758620689655 750:0.010526315789473684 887:0.2142857142857143 992:0.06349206349206349 1014:0.03571428571428571 1040:0.01646090534979424 1142:0.011764705882352941 1209:0.375 1250:0.2857142857142857 1315:0.10714285714285714 1364:0.045454545454545456 1383:0.14285714285714285 1446:0.015384615384615384 1509:0.2857142857142857 1583:0.2 
0.0 0.0 0.0 1.0 0.0 1.0 0.0 0.4670081459039367 0.0 1.0 0.0 0.0 0.0 20:0.015384615384615384 45:0.11764705882352941 198:0.1346153846153846 209:0.3333333333333333 224:0.01492537313432836 305:0.0625 394:0.038461538461538464 406:0.2857142857142857 414:0.00546448087431694 426:0.13999999999999999 467:0.16 518:0.3666666666666667 556:0.11363636363636363 588:0.13888888888888887 596:0.23076923076923078 684:0.10344827586206895 685:0.08333333333333333 695:0.05882352941176471 730:0.027522935779816515 745:0.043478260869565216 750:0.021052631578947368 753:0.1904761904761905 766:0.009535160905840286 877:0.014705882352941176 887:0.3571428571428571 992:0.11111111111111112 1040:0.05761316872427984 1051:0.0072992700729927005 1077:0.125 1124:0.006024096385542168 1142:0.07058823529411765 1290:0.04 1315:0.10714285714285714 1359:0.14285714285714285 1364:0.13636363636363635 1446:0.015384615384615384 1509:0.2857142857142857 1544:0.0058479532163742695 
0.0 0.0 0.0 1.0 0.0 1.0 0.0 0.17626141091088895 0.0 1.0 1.0 0.0 1.0 20:0.015384615384615384 45:0.058823529411764705 224:0.00746268656716418 354:0.0625 406:0.14285714285714285 410:0.140625 426:0.01 467:0.2 556:0.045454545454545456 588:0.027777777777777776 669:0.125 684:0.034482758620689655 695:0.05882352941176471 750:0.042105263157894736 877:0.014705882352941176 887:0.14285714285714285 992:0.031746031746031744 1003:0.010526315789473684 1040:0.02880658436213992 1053:0.028571428571428574 1142:0.047058823529411764 1315:0.14285714285714285 1346:0.0425531914893617 1363:0.02127659574468085 1364:0.045454545454545456 1446:0.015384615384615384 1509:0.14285714285714285 1583:0.2 
0.1924596906141346 0.09066110494188173 0.7792914119043906 1.0 0.16937123571129956 1.0 1.0 1.0 0.7175804679350397 1.0 1.0 0.19515779923176474 0.0 20:0.030769230769230767 45:0.058823529411764705 198:0.019230769230769232 224:0.03731343283582089 394:0.038461538461538464 404:0.00510204081632653 406:0.14285714285714285 426:0.030000000000000002 467:0.32 522:0.08333333333333333 556:0.022727272727272728 588:0.027777777777777776 684:0.034482758620689655 750:0.010526315789473684 766:0.009535160905840286 887:0.07142857142857142 992:0.015873015873015872 1346:0.010638297872340425 1364:0.06818181818181818 1446:0.061538461538461535 1509:0.2857142857142857 1583:0.2 
1.0 1.0 0.6316319763810833 1.0 1.0 1.0 1.0 1.0 1.0 1.0 1.0 1.0 1.0 45:0.058823529411764705 224:0.01492537313432836 406:0.14285714285714285 426:0.02 467:0.04 489:0.05405405405405406 556:0.022727272727272728 588:0.027777777777777776 669:0.125 750:0.010526315789473684 887:0.07142857142857142 992:0.015873015873015872 1070:0.08333333333333333 1315:0.03571428571428571 1446:0.04615384615384615 1505:0.1 1509:0.2857142857142857 
0.0 0.0 0.0 1.0 0.0 1.0 0.0 0.7869933035773772 0.0 0.9390098893061117 0.0 0.0 0.0 45:0.11764705882352941 108:0.02857142857142857 224:0.01492537313432836 255:0.07692307692307693 266:0.16666666666666666 305:0.0625 406:0.14285714285714285 426:0.01 467:0.16 522:0.08333333333333333 556:0.045454545454545456 564:0.14285714285714288 588:0.027777777777777776 669:0.125 684:0.034482758620689655 685:0.08333333333333333 750:0.021052631578947368 799:0.022222222222222223 887:0.14285714285714285 992:0.031746031746031744 1040:0.05761316872427984 1142:0.023529411764705882 1315:0.10714285714285714 1415:0.4736842105263158 1430:0.0909090909090909 1439:0.06666666666666667 1446:0.030769230769230767 1509:0.2857142857142857 1532:0.04 1560:0.041666666666666664 1567:0.1 
0.08064745380871607 0.0 0.0 0.0 0.0 0.0 0.0 0.0 0.0 0.0 0.0 0.0 0.0 17:0.020833333333333336 20:0.030769230769230767 39:0.3333333333333333 45:0.11764705882352941 99:0.14285714285714288 100:0.25 158:0.09090909090909091 187:0.03571428571428571 198:0.009615384615384616 205:0.011235955056179775 213:0.4444444444444444 224:0.01492537313432836 252:0.010526315789473684 255:0.6153846153846154 354:0.37500000000000006 356:0.016129032258064516 394:0.038461538461538464 406:0.2857142857142857 411:0.045454545454545456 416:1.0 426:0.19 453:0.02564102564102564 467:0.08 487:0.04761904761904762 489:0.08108108108108109 493:0.09999999999999999 506:0.04 522:0.08333333333333333 552:0.16666666666666669 554:0.08 556:0.13636363636363635 588:0.027777777777777776 622:0.14285714285714285 640:0.16666666666666669 684:0.2413793103448276 685:0.25 695:0.29411764705882354 712:0.058823529411764705 750:0.031578947368421054 779:0.07142857142857142 870:0.09999999999999999 875:0.07692307692307693 877:0.11764705882352941 887:0.2857142857142857 889:0.05882352941176471 890:0.16666666666666666 919:0.16666666666666666 969:0.06862745098039216 992:0.17460317460317462 1010:0.3333333333333333 1014:0.03571428571428571 1051:0.014598540145985401 1053:0.028571428571428574 1061:0.02702702702702703 1070:0.08333333333333333 1075:0.034482758620689655 1142:0.011764705882352941 1153:0.09999999999999999 1170:0.5238095238095238 1187:0.35 1209:0.25 1270:0.030303030303030304 1305:0.3333333333333333 1307:0.0796812749003984 1315:0.07142857142857142 1356:0.06666666666666667 1364:0.2272727272727273 1383:1.0 1391:0.007462686567164179 1409:0.07142857142857142 1412:0.05555555555555555 1430:0.0909090909090909 1439:0.06666666666666667 1446:0.13846153846153847 1457:1.0 1467:0.1 1490:0.11111111111111112 1505:0.1 1509:0.2857142857142857 1510:0.07407407407407408 1544:0.0058479532163742695 1560:0.041666666666666664 1584:0.1 
0.6878942205057745 0.0 0.0 0.18312340931383933 0.0 1.0 0.2500757233165287 0.0 0.0 0.0 0.0 0.0 0.0 45:0.058823529411764705 108:0.02857142857142857 224:0.00746268656716418 260:0.03053435114503817 406:0.14285714285714285 426:0.030000000000000002 440:0.03846153846153846 489:0.05405405405405406 493:0.09999999999999999 556:0.045454545454545456 588:0.05555555555555555 684:0.034482758620689655 750:0.010526315789473684 872:0.008620689655172414 887:0.14285714285714285 992:0.031746031746031744 1040:0.01646090534979424 1080:0.15789473684210525 1142:0.07058823529411765 1153:0.09999999999999999 1205:0.00966183574879227 1315:0.07142857142857142 1364:0.022727272727272728 1383:0.14285714285714285 1446:0.015384615384615384 1509:0.2857142857142857 1583:0.2 
0.0 0.0 0.0 0.0 0.0 1.0 0.0 0.0 0.0 0.0 0.0 0.0 0.0 45:0.058823529411764705 198:0.019230769230769232 224:0.01492537313432836 406:0.14285714285714285 426:0.02 467:0.08 556:0.045454545454545456 588:0.027777777777777776 669:0.125 684:0.034482758620689655 750:0.010526315789473684 766:0.0011918951132300357 887:0.14285714285714285 992:0.031746031746031744 1040:0.01646090534979424 1142:0.023529411764705882 1315:0.07142857142857142 1363:0.02127659574468085 1364:0.045454545454545456 1446:0.015384615384615384 1509:0.2857142857142857 1583:0.2 
0.39068401881080744 0.0 0.12281609990260153 1.0 0.09460579507900894 1.0 1.0 1.0 0.6575285647221008 1.0 1.0 0.6248047255011897 1.0 45:0.058823529411764705 224:0.01492537313432836 255:0.07692307692307693 305:0.0625 357:0.09999999999999999 406:0.14285714285714285 426:0.01 458:0.125 489:0.02702702702702703 556:0.045454545454545456 588:0.027777777777777776 684:0.034482758620689655 712:0.0196078431372549 730:0.009174311926605505 750:0.021052631578947368 877:0.014705882352941176 879:0.020833333333333332 887:0.14285714285714285 992:0.031746031746031744 1040:0.04938271604938271 1053:0.028571428571428574 1060:0.12 1142:0.0588235294117647 1315:0.14285714285714285 1352:0.018867924528301886 1364:0.045454545454545456 1415:0.15789473684210528 1446:0.015384615384615384 1509:0.2857142857142857 
0.5141180649921386 0.42698276761514203 0.7156573396069918 1.0 0.4285197717345596 1.0 1.0 1.0 0.7539204414165557 1.0 0.12632747133795574 0.8569789330658802 0.465507323505949 45:0.058823529411764705 224:0.02238805970149254 354:0.0625 406:0.14285714285714285 426:0.060000000000000005 467:0.04 556:0.13636363636363635 588:0.05555555555555555 669:0.125 684:0.034482758620689655 695:0.11764705882352942 730:0.009174311926605505 750:0.031578947368421054 877:0.014705882352941176 887:0.2142857142857143 943:0.03846153846153846 992:0.07936507936507936 1040:0.0411522633744856 1051:0.021897810218978103 1141:0.16666666666666666 1142:0.011764705882352941 1315:0.07142857142857142 1356:0.06666666666666667 1364:0.022727272727272728 1415:0.10526315789473684 1439:0.39999999999999997 1446:0.015384615384615384 1457:0.30000000000000004 1509:0.2857142857142857 
0.0 0.0 0.0 1.0 0.0 0.4898646272943188 0.0 1.0 0.0 1.0 0.0 0.0 0.0 20:0.030769230769230767 45:0.058823529411764705 198:0.038461538461538464 202:0.0060790273556231 224:0.02238805970149254 426:0.030000000000000002 467:0.08 556:0.022727272727272728 588:0.027777777777777776 669:0.125 684:0.034482758620689655 745:0.08695652173913043 750:0.010526315789473684 766:0.0059594755661501785 887:0.07142857142857142 992:0.015873015873015872 1040:0.01646090534979424 1142:0.023529411764705882 1315:0.10714285714285714 1363:0.02127659574468085 1364:0.022727272727272728 1446:0.061538461538461535 1509:0.2857142857142857 1583:0.2 
0.0 0.0 0.0 0.0 0.0 0.0 0.0 1.0 0.0 0.0 0.37629638569864804 0.0 0.018387451164461003 20:0.015384615384615384 45:0.058823529411764705 158:0.030303030303030304 198:0.019230769230769232 224:0.01492537313432836 249:0.06666666666666667 255:0.46153846153846156 354:0.3125 394:0.07692307692307693 406:0.14285714285714285 410:0.015625 426:0.01 467:0.04 556:0.045454545454545456 588:0.027777777777777776 684:0.034482758620689655 695:0.17647058823529413 750:0.010526315789473684 766:0.011918951132300357 877:0.04411764705882353 887:0.14285714285714285 943:0.03846153846153846 992:0.11111111111111112 1040:0.0205761316872428 1142:0.03529411764705882 1315:0.14285714285714285 1364:0.045454545454545456 1446:0.030769230769230767 1490:0.11111111111111112 1509:0.2857142857142857 1583:0.2 
0.0 0.0 0.0 1.0 0.0 1.0 0.0 1.0 0.0 1.0 0.3315182931523637 0.0 0.0 45:0.058823529411764705 224:0.01492537313432836 260:0.08396946564885496 266:0.16666666666666666 268:0.1 354:0.0625 394:0.07692307692307693 406:0.14285714285714285 426:0.06999999999999999 467:0.32 485:0.3333333333333333 489:0.02702702702702703 556:0.06818181818181818 588:0.027777777777777776 669:0.125 684:0.034482758620689655 695:0.11764705882352942 750:0.010526315789473684 877:0.029411764705882353 887:0.2142857142857143 890:0.16666666666666666 968:0.05 992:0.14285714285714285 1012:0.15384615384615383 1040:0.024691358024691357 1142:0.023529411764705882 1205:0.014492753623188406 1315:0.10714285714285714 1364:0.022727272727272728 1412:0.1111111111111111 1415:0.15789473684210528 1446:0.04615384615384615 1509:0.2857142857142857 1560:0.08333333333333333 
0.5926733861230872 0.3275382181495442 0.09102268711885618 1.0 0.8538770742357495 1.0 1.0 1.0 1.0 1.0 1.0 1.0 1.0 45:0.058823529411764705 100:0.125 224:0.00746268656716418 406:0.14285714285714285 416:0.14285714285714285 426:0.01 467:0.04 556:0.06818181818181818 588:0.027777777777777776 596:0.07692307692307693 684:0.034482758620689655 750:0.010526315789473684 877:0.014705882352941176 887:0.14285714285714285 992:0.04761904761904762 1040:0.01646090534979424 1142:0.011764705882352941 1209:0.125 1250:0.11428571428571428 1315:0.07142857142857142 1363:0.02127659574468085 1364:0.022727272727272728 1446:0.04615384615384615 1509:0.2857142857142857 
-0.0 0.0 1.0 0.0 1.0 0.0 0.0 0.0 0.0 0.0 0.0 1.0 0.0 45:0.058823529411764705 165:0.028368794326241134 200:0.058823529411764705 329:0.1111111111111111 394:0.15384615384615385 426:0.01 439:0.0625 500:0.2 556:0.045454545454545456 625:0.055555555555555546 647:0.04 684:0.034482758620689655 921:0.16666666666666666 935:0.09999999999999999 938:0.03846153846153846 974:0.42857142857142855 992:0.015873015873015872 1010:0.3333333333333333 1093:0.18181818181818182 1141:0.16666666666666666 1215:0.04347826086956522 1356:0.06666666666666667 1372:0.037037037037037035 1426:0.14285714285714285 1432:0.07142857142857142 1509:0.2857142857142857 
-0.0 0.0 0.0 0.0 0.3013451515698663 0.0 0.0 0.0 0.0 0.0 0.0 0.0 0.0 45:0.058823529411764705 51:0.008264462809917356 165:0.03546099290780142 200:0.11764705882352941 224:0.01492537313432836 326:0.017857142857142856 329:0.2222222222222222 394:0.19230769230769232 406:0.14285714285714285 426:0.01 439:0.0625 556:0.045454545454545456 609:0.05555555555555555 617:0.01388888888888889 625:0.055555555555555546 640:0.16666666666666669 684:0.034482758620689655 695:0.05882352941176471 697:0.25 737:0.09090909090909091 863:1.0 877:0.014705882352941176 921:0.6666666666666666 935:0.15 938:0.03846153846153846 974:0.14285714285714285 992:0.031746031746031744 1010:0.3333333333333333 1093:0.045454545454545456 1141:0.16666666666666666 1215:0.04347826086956522 1245:0.25 1324:0.04347826086956522 1345:0.16666666666666669 1356:0.06666666666666667 1372:0.037037037037037035 1426:0.14285714285714285 1432:0.14285714285714285 1467:0.1 1489:0.25 1509:0.2857142857142857 
-0.0 1.0 1.0 0.0 1.0 0.0 0.0 0.0 0.0 0.0 0.0 1.0 0.0 7:0.038461538461538464 45:0.058823529411764705 51:0.008264462809917356 64:0.11764705882352942 115:0.023255813953488372 144:0.16666666666666669 165:0.06382978723404256 326:0.03571428571428571 394:0.11538461538461539 424:0.5 426:0.02 489:0.02702702702702703 556:0.022727272727272728 609:0.05555555555555555 610:0.038461538461538464 617:0.01388888888888889 625:0.055555555555555546 640:0.16666666666666669 684:0.06896551724137931 697:0.125 712:0.0392156862745098 737:0.18181818181818182 921:0.5 928:0.2857142857142857 992:0.015873015873015872 1135:0.16666666666666669 1176:0.2 1215:0.04347826086956522 1235:0.33333333333333337 1245:0.5 1296:0.3333333333333333 1324:0.04347826086956522 1345:0.33333333333333337 1356:0.06666666666666667 1362:0.1111111111111111 1364:0.022727272727272728 1372:0.018518518518518517 1400:0.09999999999999999 1464:0.022222222222222223 1467:0.2 1489:0.25 1509:0.2857142857142857 
-0.0 0.0 0.0 0.0 0.0 0.0 0.08013467869860312 0.0 0.0 0.0 0.0 0.0 0.0 12:0.043478260869565216 45:0.058823529411764705 51:0.08264462809917356 52:0.023809523809523808 118:0.12 186:0.16666666666666669 198:0.009615384615384616 200:0.08823529411764706 221:0.14285714285714285 224:0.01492537313432836 260:0.0076335877862595426 345:0.22222222222222224 354:0.0625 394:0.11538461538461539 426:0.02 430:0.08333333333333333 439:0.25 440:0.03846153846153846 500:0.2 511:0.07142857142857142 522:0.16666666666666666 547:0.15 556:0.045454545454545456 566:0.25 647:0.08 669:0.125 676:1.0 684:0.034482758620689655 695:0.11764705882352942 742:0.07142857142857142 774:0.09090909090909091 806:0.1111111111111111 823:0.08333333333333334 935:0.09999999999999999 946:0.16666666666666666 992:0.015873015873015872 993:0.3333333333333333 1001:0.07692307692307693 1010:0.3333333333333333 1050:0.125 1053:0.05714285714285715 1080:0.05263157894736842 1087:0.14285714285714285 1093:0.09090909090909091 1138:0.09090909090909091 1141:0.16666666666666666 1205:0.004830917874396135 1207:0.1 1215:0.08695652173913045 1216:0.03333333333333333 1242:0.14285714285714288 1284:0.25 1295:0.03846153846153846 1309:0.08333333333333333 1325:0.01694915254237288 1348:0.01282051282051282 1364:0.06818181818181818 1388:0.1111111111111111 1405:0.027027027027027025 1415:0.10526315789473684 1417:0.0909090909090909 1432:0.07142857142857142 1444:0.1206896551724138 1500:0.3333333333333333 1509:0.14285714285714285 1548:0.3333333333333333 1558:0.16666666666666666 
-1.0 0.9402890607588954 1.0 1.0 1.0 1.0 1.0 0.8964943434356207 1.0 1.0 1.0 1.0 1.0 12:0.043478260869565216 51:0.024793388429752067 59:0.2 118:0.16 247:0.2 260:0.0076335877862595426 270:0.10526315789473685 305:0.09375 336:0.04 339:0.02564102564102564 406:0.14285714285714285 426:0.02 430:0.08333333333333333 440:0.03846153846153846 493:0.3 554:0.08 556:0.022727272727272728 588:0.027777777777777776 684:0.06896551724137931 697:0.25 730:0.009174311926605505 742:0.14285714285714285 750:0.010526315789473684 929:0.25 948:0.2 992:0.015873015873015872 1053:0.028571428571428574 1070:0.08333333333333333 1080:0.10526315789473684 1138:0.09090909090909091 1141:0.16666666666666666 1205:0.004830917874396135 1207:0.1 1216:0.06666666666666667 1219:0.10526315789473685 1225:0.1111111111111111 1242:0.42857142857142855 1295:0.03846153846153846 1315:0.07142857142857142 1345:0.16666666666666669 1348:0.02564102564102564 1364:0.045454545454545456 1383:0.2857142857142857 1388:0.1111111111111111 1415:0.15789473684210528 1444:0.1206896551724138 
-0.0 0.12087774486837397 0.0 0.0 1.0 0.0 0.0 0.0 0.0 0.0 0.0 1.0 0.0 45:0.058823529411764705 51:0.008264462809917356 165:0.028368794326241134 200:0.08823529411764706 224:0.01492537313432836 329:0.1111111111111111 394:0.038461538461538464 426:0.01 439:0.0625 489:0.08108108108108109 556:0.045454545454545456 625:0.055555555555555546 647:0.04 684:0.034482758620689655 750:0.010526315789473684 760:0.125 921:0.3333333333333333 935:0.15 938:0.03846153846153846 974:0.2857142857142857 992:0.015873015873015872 1010:0.3333333333333333 1093:0.22727272727272724 1141:0.16666666666666666 1215:0.04347826086956522 1219:0.3157894736842105 1356:0.06666666666666667 1372:0.018518518518518517 1426:0.14285714285714285 1432:0.10714285714285715 1479:0.01694915254237288 1509:0.14285714285714285 
-0.0 0.0 0.0 0.0 1.0 0.0 0.0 0.0 0.0 0.0 0.0 0.0 0.0 45:0.058823529411764705 51:0.024793388429752067 165:0.04964539007092199 186:0.6666666666666667 200:0.20588235294117646 224:0.00746268656716418 329:0.5555555555555556 394:0.11538461538461539 426:0.030000000000000002 439:0.1875 489:0.16216216216216217 537:0.04 554:0.04 556:0.09090909090909091 625:0.09259259259259259 647:0.16 684:0.034482758620689655 695:0.11764705882352942 697:0.125 750:0.010526315789473684 921:0.16666666666666666 935:0.35000000000000003 938:0.07692307692307691 974:1.0 992:0.015873015873015872 1010:0.3333333333333333 1053:0.028571428571428574 1093:0.6818181818181818 1141:0.3333333333333333 1215:0.30434782608695654 1308:0.03225806451612903 1324:0.04347826086956522 1356:0.13333333333333333 1364:0.06818181818181818 1372:0.037037037037037035 1426:0.14285714285714285 1432:0.25 1479:0.01694915254237288 1509:0.2857142857142857 1574:0.05555555555555556 
-0.0 1.0 1.0 0.0 1.0 0.0 0.0 0.0 1.0 0.0 0.0 1.0 0.0 45:0.058823529411764705 51:0.008264462809917356 144:0.16666666666666669 165:0.03546099290780142 326:0.03571428571428571 394:0.11538461538461539 424:0.5 426:0.02 489:0.02702702702702703 556:0.022727272727272728 609:0.05555555555555555 610:0.038461538461538464 617:0.01388888888888889 625:0.018518518518518517 640:0.16666666666666669 684:0.034482758620689655 697:0.25 712:0.0392156862745098 737:0.18181818181818182 921:0.5 928:0.14285714285714285 992:0.015873015873015872 1176:0.2 1215:0.04347826086956522 1235:0.33333333333333337 1245:0.5 1296:0.3333333333333333 1324:0.04347826086956522 1345:0.33333333333333337 1356:0.06666666666666667 1362:0.1111111111111111 1364:0.022727272727272728 1372:0.018518518518518517 1378:0.07692307692307693 1464:0.022222222222222223 1467:0.2 1489:0.25 1509:0.2857142857142857 
-0.0 0.0 0.0 0.0 0.0 0.0 0.002084878964067187 0.0 0.0 0.0 0.0 0.0 0.0 7:0.15384615384615385 12:0.30434782608695654 45:0.058823529411764705 51:0.1322314049586777 52:0.047619047619047616 90:0.25 99:0.14285714285714288 108:0.48571428571428565 114:0.1 118:0.04 173:0.03225806451612903 198:0.019230769230769232 200:0.029411764705882353 221:0.5714285714285714 224:0.10447761194029852 260:0.015267175572519085 268:0.1 270:0.2105263157894737 322:0.18181818181818182 329:0.1111111111111111 345:0.6666666666666667 349:0.037037037037037035 382:1.0 394:0.15384615384615385 402:0.0625 426:0.030000000000000002 435:0.024390243902439025 489:0.35135135135135137 493:0.6 496:1.0 506:0.08 522:0.08333333333333333 547:0.15 553:0.11111111111111112 555:0.14285714285714285 556:0.045454545454545456 582:0.125 588:0.05555555555555555 684:0.10344827586206895 730:0.01834862385321101 737:0.18181818181818182 742:0.14285714285714285 746:0.058823529411764705 774:0.18181818181818182 791:0.5 805:0.03571428571428572 806:0.1111111111111111 823:0.2916666666666667 825:0.2692307692307693 854:0.25 877:0.08823529411764706 894:0.0967741935483871 935:0.049999999999999996 938:0.03846153846153846 989:1.0 992:0.031746031746031744 996:0.4285714285714286 1001:0.07692307692307693 1010:0.3333333333333333 1021:0.13333333333333333 1024:0.0392156862745098 1050:0.375 1078:0.023809523809523808 1080:0.42105263157894735 1141:0.16666666666666666 1162:0.22727272727272727 1169:0.052631578947368425 1205:0.028985507246376812 1207:0.30000000000000004 1215:0.08695652173913045 1225:0.2222222222222222 1231:0.05263157894736842 1241:0.33333333333333337 1242:0.7142857142857144 1264:0.05172413793103448 1270:0.06060606060606061 1284:0.25 1295:0.1923076923076923 1324:0.04347826086956522 1344:0.28571428571428575 1348:0.14102564102564102 1356:0.06666666666666667 1363:0.0425531914893617 1364:0.022727272727272728 1365:0.25 1383:0.7142857142857142 1388:0.5555555555555555 1415:0.10526315789473684 1417:0.8636363636363636 1432:0.03571428571428571 1433:0.09090909090909091 1444:0.4827586206896552 1490:0.11111111111111112 1509:0.2857142857142857 1512:0.0625 1548:0.6666666666666666 1558:0.16666666666666666 
-0.0 1.0 0.0 0.0 1.0 0.0 0.0 0.0 0.0 0.0 0.0 0.0 0.0 45:0.058823529411764705 51:0.008264462809917356 64:0.05882352941176471 165:0.028368794326241134 200:0.058823529411764705 260:0.0076335877862595426 326:0.017857142857142856 329:0.1111111111111111 394:0.11538461538461539 426:0.01 439:0.0625 489:0.08108108108108109 556:0.022727272727272728 609:0.05555555555555555 617:0.01388888888888889 625:0.055555555555555546 640:0.16666666666666669 684:0.034482758620689655 695:0.05882352941176471 697:0.375 712:0.0196078431372549 737:0.09090909090909091 760:0.125 858:0.07692307692307693 877:0.014705882352941176 921:0.5 935:0.049999999999999996 938:0.03846153846153846 992:0.031746031746031744 1010:0.3333333333333333 1205:0.004830917874396135 1215:0.04347826086956522 1245:0.25 1260:0.19999999999999998 1324:0.04347826086956522 1345:0.16666666666666669 1356:0.06666666666666667 1372:0.018518518518518517 1426:0.14285714285714285 1432:0.07142857142857142 1489:0.25 1509:0.14285714285714285 
-0.0 1.0 0.0 0.0 1.0 0.0 0.0 0.0 0.0 0.0 0.0 0.0 0.0 45:0.058823529411764705 51:0.024793388429752067 83:0.14285714285714285 103:0.08333333333333333 165:0.07801418439716312 186:0.33333333333333337 200:0.20588235294117646 224:0.01492537313432836 326:0.07142857142857142 329:1.0 394:0.15384615384615385 406:0.14285714285714285 426:0.02 467:0.04 489:0.16216216216216217 554:0.27999999999999997 556:0.13636363636363635 609:0.16666666666666666 617:0.05555555555555556 625:0.11111111111111109 640:0.5 647:0.04 684:0.034482758620689655 695:0.11764705882352942 697:1.0 712:0.0392156862745098 737:0.18181818181818182 750:0.010526315789473684 858:0.07692307692307693 877:0.029411764705882353 921:1.0 928:0.14285714285714285 935:0.25 938:0.03846153846153846 974:0.2857142857142857 992:0.04761904761904762 1083:0.6 1093:0.18181818181818182 1135:0.08333333333333334 1141:0.3333333333333333 1215:0.2608695652173913 1260:0.19999999999999998 1308:0.19354838709677422 1324:0.391304347826087 1356:0.26666666666666666 1364:0.045454545454545456 1372:0.11111111111111113 1426:0.2857142857142857 1432:0.25 1467:0.1 1489:0.875 1509:0.2857142857142857 1544:0.0058479532163742695 1560:0.041666666666666664 1574:0.05555555555555556 
-0.2791146970822418 0.0 0.5455576533345559 0.047308307609279496 0.04172528686648202 0.025496236841701617 0.3788114859700025 0.08864265584837519 0.8286325014002548 0.06582184116697777 0.1179959844712204 0.9008126717193902 0.10906974449973297 12:0.043478260869565216 45:0.058823529411764705 51:0.06611570247933884 52:0.023809523809523808 99:0.14285714285714288 118:0.04 200:0.058823529411764705 221:0.14285714285714285 224:0.02985074626865672 255:0.07692307692307693 260:0.0076335877862595426 268:0.1 299:0.023255813953488372 305:0.03125 307:0.5 322:0.09090909090909091 329:0.1111111111111111 394:0.15384615384615385 406:0.14285714285714285 426:0.01 430:0.08333333333333333 435:0.012195121951219513 439:0.1875 440:0.11538461538461538 489:0.05405405405405406 511:0.07142857142857142 522:0.08333333333333333 547:0.05 553:0.11111111111111112 556:0.045454545454545456 629:0.25 669:0.125 684:0.06896551724137931 742:0.07142857142857142 774:0.09090909090909091 829:0.029411764705882353 830:0.05555555555555555 935:0.049999999999999996 948:0.06666666666666667 992:0.015873015873015872 1001:0.07692307692307693 1038:0.5 1080:0.05263157894736842 1087:0.07142857142857142 1138:0.09090909090909091 1141:0.16666666666666666 1176:0.3333333333333333 1215:0.04347826086956522 1216:0.03333333333333333 1241:0.33333333333333337 1242:0.14285714285714288 1295:0.03846153846153846 1356:0.06666666666666667 1364:0.022727272727272728 1365:0.125 1415:0.05263157894736842 1417:0.04545454545454545 1432:0.03571428571428571 1444:0.034482758620689655 1509:0.2857142857142857 1558:0.16666666666666666 
