svm_type c_svc
kernel_type linear
nr_class 8
total_sv 1622
rho 0.059533038864728265 0.12545921893431541 0.9875781714172162 0.7171748123142553 -1.327198826645763 -0.12745300639821744 0.5918432371047951 -0.5868121552918677 0.42759919417831366 -0.011148266503515379 -0.5110186222851358 -0.04646374421925899 -0.1054525370606298 1.4684699695520214 1.1966071660985216 -0.42037402749111424 0.3204721524698531 1.1234095489373386 -0.7803631198255099 -1.6448903556464716 -0.8353056730926732 -0.4260560110266857 -1.2505819990172804 -0.5944331726500516 -0.005732896568153018 0.8052946488568413 1.393637322391723 0.20844079413314998
label 0 2 3 5 4 7 6 1
nr_sv 196 107 309 157 183 198 152 320
SV
0.0 0.0 1.0 0.0 0.0 0.0 0.0 1:0.2160327604427313 2:0.009435089562342626 3:0.0027089458820862802 4:0.1920167333970299 5:0.18704728079474447 6:0.0069735208916945485 7:0.20740519932668824 8:0.21115622816187848 9:0.01944037778967715 10:0.0026163460207749233 11:0.1952233729753669 12:0.208575516255153 13:0.007996654777878177 14:0.21405066351543897 15:0.19080936805114898 16:0.1965326582181714 17:0.21681395322973887 18:0.22121564794790288 19:0.008720025472298635 20:0.008476642678917968 21:0.19795617151727427 22:0.22290895183746168 23:0.20887414032033924 24:0.004774393713502364 25:0.003139439640831152 26:0.013704147893107026 27:0.19012477904450475 28:0.00805232861824344 29:0.20272922730466772 30:0.22412658193287321 31:0.2202118574645611 32:0.21312616253012984 33:0.20373198917445906 34:0.19519921625839856 35:0.19903536159186896 36:0.2199510865049942 37:0.1955631069898699 38:0.006584278355852325 39:0.006232598399376837 40:0.209581039486627 41:0.2212010312297514 42:0.21954675788795855 43:0.004244577462148529 44:0.21854650633394165 45:0.19896421138874948 46:0.2221289590206542 47:0.21115039769828325 48:0.1858223596659973 49:0.010358647078279019 50:0.19853981010375207 51:0.2539173233082462 52:0.0018706752974772178 53:0.0032056020819092247 54:0.005272313096755216 55:0.0035603591077584384 56:0.19406308083968282 57:0.20665772842880253 58:0.20937623044570808 59:0.20986306307807925 60:0.216892503646888 61:0.020401360035441282 62:0.20510643582713306 63:0.19424491896212015 64:0.004953131813940399 65:0.017785031674822684 66:0.015456017876584158 67:0.2092071630980163 68:0.003527419757901922 69:0.009135300364287878 70:0.21623691338490605 71:0.0016008021794181285 72:0.19856765234564921 73:0.2091161055962422 74:0.006096194047176109 75:0.006912079111342373 76:0.0017864363115859818 77:0.21784122194370448 78:0.030043346661145314 79:0.009283016975067282 80:0.18698866249857227 81:0.8042500344626786 82:0.0019926952956519435 83:0.0021965468294726505 84:0.2201449299245735 85:0.002546911957220693 86:0.21217675749060771 87:0.22113052269672526 88:0.019726483247892855 89:0.008882598278428659 90:0.055768979789408306 91:0.012488431381533004 92:0.179345080114565 93:0.19659045328554534 94:0.20337309728582528 95:0.218759831906666 96:0.04144120431670142 97:0.005648043893394053 98:0.191802579236925 99:0.0020677969439454763 100:0.08375724121114843 
0.0 0.0 1.0 0.04554709657588268 0.0 0.0 0.0 1:0.26601891237364617 2:0.011700919633145948 3:0.04677932720944447 4:0.2590505337028626 5:0.2645403976931487 6:0.008647599225321741 7:0.2596519847743343 8:0.2644279742264881 9:0.024501243203706356 10:0.0036462295097010743 11:0.2536536619955434 12:0.26962356622884126 13:0.011674900822259278 14:0.27815238326620534 15:0.2591240610284368 16:0.27308611647920217 17:0.27274388044619663 18:0.2811869391450067 19:0.009976659089809221 20:0.010819649803593314 21:0.26687682969831555 22:0.26023599140460296 23:0.2750512191865657 24:0.004257042959332047 25:0.005667900251162146 26:0.017977441032868326 27:0.2598665335583557 28:0.010659726996581156 29:0.27609148993104626 30:0.2662840876124166 31:0.26705740299047964 32:0.26717467118677074 33:0.26587367024687697 34:0.2602585499286235 35:0.2602336554735065 36:0.262555164317978 37:0.2777224450604941 38:0.008829556628802058 39:0.007982925307810588 40:0.26322719814316525 41:0.2597995411922482 42:0.2557713096840481 43:0.21712019859742052 44:0.25159493856759935 45:0.2741205763088386 46:0.257092529280726 47:0.27887660726055813 48:0.24322621989889043 49:0.013709033386068372 50:0.2663092242841083 51:0.2602684158518763 52:0.006253844190803132 53:0.00262301319919007 54:0.0075216079219334675 55:0.005540458475384122 56:0.2657669271413888 57:0.27380552321253643 58:0.26125049060476196 59:0.25788801115672016 60:0.25019862390421904 61:0.025404057373018252 62:0.25718675830172194 63:0.26791941667697505 64:0.006652257465330999 65:0.022581483547377424 66:0.32428964975149177 67:0.2943568443907191 68:0.00522438771528001 69:0.011940684557044537 70:0.27270268017641985 71:0.0042842641792169 72:0.2628431073715622 73:0.25540448927701787 74:0.008071828152990346 75:0.009452771689616673 76:0.004475372694464434 77:0.2667024178337577 78:0.039821136214150565 79:0.01093867299476471 80:0.272940480871052 81:0.1499283004597032 82:0.2185024006406494 83:0.004981549368170174 84:0.26657333887878415 85:0.005534091675590085 86:0.25484655934413764 87:0.26972685176879596 88:0.02768326498138463 89:0.010352407094210828 90:0.07317695779681224 91:0.01458239433402766 92:0.26253594670535757 93:0.2670715260443226 94:0.2741950277444334 95:0.2577064481368785 96:0.0057939550290111285 97:0.0073028803725196266 98:0.24728306352997076 99:0.035036691230186205 100:0.006480048751703003 
0.0 0.0 0.06071476693018538 0.0 0.0 0.0 0.0 1:0.21971768230489336 2:0.009654201179310705 3:0.02100065096948249 4:0.23715835964564733 5:0.23053609021573546 6:0.007447725316447151 7:0.22883162631994872 8:0.21677841613758958 9:0.019719899489107594 10:0.0028631185523092123 11:0.22704778427352446 12:0.22617325087129356 13:0.008792775741241116 14:0.21832851619894394 15:0.22019888034691856 16:0.20796817894799838 17:0.212175030733138 18:0.20549523165855177 19:0.008737331740621808 20:0.008399917033208613 21:0.23276236805819617 22:0.2249499573470256 23:0.24591227599907597 24:0.003892310788847576 25:0.007348604356376519 26:0.013753752181794211 27:0.2092145294562883 28:0.00901407546820651 29:0.21972191375037392 30:0.21377198552589485 31:0.23578143464215556 32:0.23336811398752869 33:0.2141727770558108 34:0.22629456337050233 35:0.21801894282718967 36:0.21931796780758486 37:0.2244062924254247 38:0.00699762024360604 39:0.006581244539556358 40:0.2034592719294483 41:0.206183462694517 42:0.22080541966327025 43:0.020185926941319276 44:0.21871130274370956 45:0.2043075516904993 46:0.22503527491328304 47:0.22080658370249412 48:0.18249395229965457 49:0.010327913089129885 50:0.22110376831440573 51:0.2140609772436274 52:0.004222805088451672 53:0.003538759418388872 54:0.006048339660492699 55:0.0044041010054146216 56:0.2146492876683796 57:0.22048304724282758 58:0.22366420821943664 59:0.23022523936097194 60:0.2224604389788801 61:0.021015854595187452 62:0.20869488327064148 63:0.23016476077438922 64:0.005333034411228312 65:0.019231608127596042 66:0.2589993173939222 67:0.22840076930624809 68:0.00516326762671164 69:0.01050022303021728 70:0.23111812021944034 71:0.0029432818165114833 72:0.2268569419998409 73:0.2258993454585504 74:0.006433976211560066 75:0.007159778580221415 76:0.003720212674335126 77:0.19974054823995024 78:0.0311217699102682 79:0.009495690402376768 80:0.20507919717742595 81:0.5908435989152917 82:0.005368823073020767 83:0.0044319999819955064 84:0.21765120042155106 85:0.0034870902298566125 86:0.2042290679082602 87:0.22369605885805266 88:0.0213923329566971 89:0.009388849615239591 90:0.06148603956108928 91:0.013180022805754907 92:0.20924666902642441 93:0.24018701680691645 94:0.22938189317282 95:0.21840079960120648 96:0.1238536846389711 97:0.006368860528701649 98:0.21809796948899618 99:0.003090550944888663 100:0.02354838548103626 
1.0 0.0 0.0 0.0 0.0 0.0 0.0 1:0.18439658408281304 2:0.007935955700911922 3:0.004485212978485271 4:0.17974582075815132 5:0.18160461722546858 6:0.0064905696439994135 7:0.1839247489041031 8:0.19184246864861978 9:0.016131977094248264 10:0.0030830963475293417 11:0.18997129899877027 12:0.1882730061993765 13:0.007021704904381217 14:0.1849743297629635 15:0.18665035133488006 16:0.1826372906677542 17:0.18261935258108658 18:0.17943800154603612 19:0.006686838019983331 20:0.0070398235533473425 21:0.18625483081619215 22:0.17073105720131473 23:0.17644358228664597 24:0.0028241413608820903 25:0.002734678609020401 26:0.011795372716584802 27:0.17037247004223005 28:0.008172622410301941 29:0.17090655488496123 30:0.17208677280597887 31:0.18724555029879153 32:0.18529547689163361 33:0.1881894550230347 34:0.18238852862095545 35:0.1801753268501645 36:0.18001136007110904 37:0.18548888305851838 38:0.0057095399727651154 39:0.005351973604787028 40:0.1882172952733697 41:0.16335237183318227 42:0.16957323724190174 43:0.0034403881273364313 44:0.18197374034630395 45:0.18112907553411717 46:0.17499761410724327 47:0.17137800616031706 48:0.17274591577078707 49:0.008466762083107388 50:0.18373120044862973 51:0.18244801138384387 52:0.0022918461516941288 53:0.0025288960931693265 54:0.005081980059837938 55:0.0033162849357046744 56:0.18404793241910405 57:0.18294903856552053 58:0.1858771100307331 59:0.18187808256178087 60:0.1798618177816468 61:0.017444334675944896 62:0.18930669564477584 63:0.19680768826431008 64:0.004589630593467022 65:0.01499357284221643 66:0.0044915896309312186 67:0.17735445376077755 68:0.0033082777935050456 69:0.009018792813957675 70:0.1832460317621173 71:0.0023772571921231046 72:0.1695007389339196 73:0.17589289453470264 74:0.0053867351079759 75:0.005606911787326808 76:0.0038810842669615014 77:0.17301580039128306 78:0.02687272490063784 79:0.006984467729456989 80:0.17543808249590692 81:0.24541830689058491 82:0.012039689018930976 83:0.003011867484533113 84:0.17190785213072288 85:0.0024681692147539465 86:0.16386685160739586 87:0.1737333461921723 88:0.01686065850585625 89:0.007215462779681394 90:0.05124102163483909 91:0.009405715022081792 92:0.17504320446790494 93:0.19387593671357392 94:0.18617204500438778 95:0.17202614640941266 96:0.0034613802586457606 97:0.005062984640601657 98:0.1880014641676896 99:0.002671402694687226 100:0.6563163419274068 
0.0 0.0 1.0 1.0 1.0 1.0 1.0 1:0.26991318670877146 2:0.011250439677523778 3:0.036796440723646844 4:0.2629470384873276 5:0.26132795758502647 6:0.008540296827501848 7:0.2536046615522393 8:0.2571992308427747 9:0.021682430213954672 10:0.003413676392988927 11:0.25905023967734553 12:0.2821690433053474 13:0.011487523486714314 14:0.26048956398497125 15:0.2601959833899916 16:0.2571670732169581 17:0.26811949213978614 18:0.2570159533591449 19:0.010296752747408258 20:0.010086427644597539 21:0.25498962961404803 22:0.2528052817396267 23:0.2603515397422162 24:0.004214064279724215 25:0.004342641567290393 26:0.017856326461275933 27:0.2511855485472127 28:0.010703810157060989 29:0.26161985427706524 30:0.25877954380910184 31:0.2581220251114282 32:0.2625595054663262 33:0.27119244551852545 34:0.25416549805239885 35:0.27545430501921464 36:0.24790457584325576 37:0.2586089240823494 38:0.00822248769720968 39:0.00767662851929935 40:0.250376214985255 41:0.2580238573979925 42:0.27109629366891036 43:0.18238192142196674 44:0.25816466307030433 45:0.2665950333264753 46:0.26825436160063293 47:0.2520644693535241 48:0.23756696838482338 49:0.012476530704565144 50:0.2602417588768499 51:0.255705165833508 52:0.007195898200315583 53:0.002679852559031592 54:0.007666028377904806 55:0.005337505969147649 56:0.2681534865899382 57:0.25614746196979366 58:0.2709019620064193 59:0.26615889802778175 60:0.25838098352148153 61:0.02482036147331608 62:0.2443798460480959 63:0.2819369520974031 64:0.006466104589147413 65:0.023646075732375142 66:0.22829839869585256 67:0.24807002783185464 68:0.005078883030491373 69:0.013315644961242013 70:0.2596099532474247 71:0.010243929176082389 72:0.2737753422098322 73:0.26478677749078405 74:0.007461989069726197 75:0.009250711320975435 76:0.026487482468845292 77:0.2507064348246701 78:0.0374227433477771 79:0.010235398929202718 80:0.24617468800191955 81:0.04347601199609656 82:0.38626121389561247 83:0.006018433099187546 84:0.2802650479007656 85:0.005144257256917834 86:0.2572516964836149 87:0.2510746807270072 88:0.025877377524442382 89:0.010688955745947776 90:0.06770290509270795 91:0.014796874628024417 92:0.26636349860077424 93:0.2623686916012367 94:0.2680694303210445 95:0.24482165526047558 96:0.003906441276048398 97:0.0074156117869879365 98:0.26942760082647954 99:0.01985214713370848 100:0.0047970431307474085 
1.0 0.0 0.0 0.0 0.0 0.0 0.0 1:0.1286145914395667 2:0.005521820368713151 3:0.6955622466432707 4:0.12817890520913558 5:0.12406359516808625 6:0.003972471047562192 7:0.13153133493220565 8:0.12303990110263405 9:0.012391696702868844 10:0.0016244030677697373 11:0.12316544743253217 12:0.12607348343431077 13:0.005143679369382854 14:0.12563329524116737 15:0.12281735010069648 16:0.1274651099668622 17:0.1299784320937854 18:0.12497083638580488 19:0.004854179643037323 20:0.005148279941640405 21:0.130046899084911 22:0.12328272453577745 23:0.13240083625262317 24:0.002118604062174126 25:0.002629631622790908 26:0.008205191945927332 27:0.11681584541625664 28:0.005358662613703832 29:0.12101018812734292 30:0.13169916465970893 31:0.13181196374820697 32:0.1263536729483152 33:0.1268147523402343 34:0.12765736918361564 35:0.131361597715405 36:0.13390992129854068 37:0.12264319777000315 38:0.004191620431609194 39:0.0037882342325570536 40:0.12204375885208815 41:0.12435509667770195 42:0.11974817747387678 43:0.016361129043067826 44:0.11370979388611012 45:0.125874281446967 46:0.1229439220580252 47:0.11858919862760234 48:0.12462334601400965 49:0.006666883935896426 50:0.12814603019703982 51:0.12667270203602282 52:0.0047942520587305505 53:0.0013457009471282673 54:0.003465421051730029 55:0.0028805607198147424 56:0.12023909461497484 57:0.13547664306278853 58:0.1312281765392479 59:0.12881933334361167 60:0.12216251193394591 61:0.012379189640669827 62:0.12489673663018283 63:0.12463699168834809 64:0.0032446012850528834 65:0.010577792910638515 66:0.09580662625904669 67:0.12767431160311976 68:0.002569907664877832 69:0.0054389613152681544 70:0.11983678277515744 71:0.0026347629625619335 72:0.12463435669581802 73:0.12838718613658937 74:0.0038600211742063437 75:0.004011594448709175 76:0.003096720106107176 77:0.12659424705497813 78:0.019876429043470624 79:0.0050449571685760005 80:0.12856139946345846 81:0.19837942350752685 82:0.006338227620499512 83:0.002492776035518576 84:0.12252411799000494 85:0.0020233340422492114 86:0.12089274567410584 87:0.12680119427313571 88:0.01207200823782273 89:0.00495230349324066 90:0.035486189027529355 91:0.007141399471808578 92:0.12442351901264188 93:0.12197568809425897 94:0.1381436257147327 95:0.12620216007148022 96:0.002450251388629697 97:0.0035704692880686537 98:0.12784682825721538 99:0.0022755336785636967 100:0.002656408962537552 
0.0 0.0 1.0 0.0 0.0 0.0 0.0 1:0.1638681012621343 2:0.007474440931377943 3:0.04661625624454478 4:0.1641853729745505 5:0.1670639383654517 6:0.005674456304091039 7:0.16543236543230427 8:0.16448974064705263 9:0.014658218016963648 10:0.0020985977330003737 11:0.16521026195002156 12:0.1655617638015325 13:0.006396434167979517 14:0.16722110090520587 15:0.1608555816334931 16:0.15733071980176824 17:0.16320267002723532 18:0.15339314300562765 19:0.006580619605759837 20:0.00639691895967122 21:0.1685137562199173 22:0.16311019248968328 23:0.1477594567978575 24:0.0021479395387044966 25:0.00276654604322966 26:0.010612040067682463 27:0.16195270016780755 28:0.007032049611207131 29:0.1593787910265462 30:0.16936809283593598 31:0.16270053410560217 32:0.16098472883519319 33:0.1627081187367518 34:0.16573208517522633 35:0.16465412084047598 36:0.15839190021115118 37:0.16672509114174464 38:0.005272191787781891 39:0.00471422247953461 40:0.1673037042558927 41:0.16752119884230338 42:0.1618610696202634 43:0.23420832768365782 44:0.1542685609479174 45:0.1615099740769232 46:0.16824172589760641 47:0.15320711061312248 48:0.1572864711368472 49:0.007881438316902974 50:0.1691684993168923 51:0.16130829891708556 52:0.007594468494736807 53:0.0016793141278484258 54:0.0044422917294264855 55:0.003282484561907299 56:0.16031112883745177 57:0.16518318215796352 58:0.16523401252561304 59:0.16913234641003172 60:0.15732634104749865 61:0.015945184234176592 62:0.16168949644103436 63:0.17308954400377724 64:0.004104466652603021 65:0.013656984811181248 66:0.48868155682069475 67:0.15962943431828955 68:0.0030627881482348128 69:0.007741312977889812 70:0.16682645636037133 71:0.0035842322582795073 72:0.16680673403633586 73:0.15676517906613774 74:0.004649938569685941 75:0.005318652139313019 76:0.005282946093242168 77:0.1643752125529777 78:0.02379758407341085 79:0.006835858588976732 80:0.16313054184788087 81:0.15112635802097554 82:0.2633259043623433 83:0.002752083820960479 84:0.16040437867730237 85:0.002518678195392682 86:0.1563903891427253 87:0.16027568415168364 88:0.015464758781723088 89:0.006573375629031755 90:0.04357426712771586 91:0.008873136388850124 92:0.17046593296404794 93:0.1640775523830555 94:0.16447674299824167 95:0.15871307328005235 96:0.0025094070553929723 97:0.004526918631483178 98:0.16383038340306014 99:0.005292398544428827 100:0.002605780373723956 
1.0 0.0 1.0 1.0 1.0 0.0 1.0 1:0.09289900373015507 2:0.004307855611003802 3:0.33876292208528197 4:0.0898890830870103 5:0.09331322560999043 6:0.0033134997122376206 7:0.09541598915255678 8:0.09207798466386126 9:0.00890054321178556 10:0.0013015139371686173 11:0.0979457746513038 12:0.09844800663188681 13:0.004100280783230415 14:0.10073833927686482 15:0.09898450190885817 16:0.0976313624468586 17:0.09574872380182348 18:0.09622480530324827 19:0.0038635760616439903 20:0.0034706750871002705 21:0.09825728049621778 22:0.09405478763806116 23:0.09726279010487253 24:0.003468784809208937 25:0.0019880382954341382 26:0.006473470480334399 27:0.08862615000297872 28:0.00427499362121956 29:0.10235898007466647 30:0.09913322292638392 31:0.0956517408714897 32:0.09663171325401944 33:0.09824412281411889 34:0.10171804227493611 35:0.09431241826473516 36:0.0924945736380416 37:0.10090128882443834 38:0.0032134992565422257 39:0.002853460084011936 40:0.0998384167561276 41:0.09350452758409 42:0.09789630538178985 43:0.021517188826299924 44:0.09473737599091808 45:0.09746702204985527 46:0.09966648601797279 47:0.09366806683539503 48:0.09726248156365255 49:0.004603101539517504 50:0.09670862791130119 51:0.09497482076086425 52:0.006843066256311715 53:0.0010898743373260642 54:0.00270664002287898 55:0.0017874196604160722 56:0.09154880108133656 57:0.09931284046955745 58:0.09493127751059871 59:0.09993230988288639 60:0.0906370995859988 61:0.009552429388522429 62:0.10251362711392509 63:0.09846503520863274 64:0.0024200220650064854 65:0.008185637050057556 66:0.05067755761833383 67:0.0976382212237466 68:0.001969720204213857 69:0.004537033382966979 70:0.1006953108050862 71:0.0033082284419179557 72:0.09789468457384969 73:0.0916252620691613 74:0.0029948301799307166 75:0.003188510210992348 76:0.00911353794564269 77:0.09327903818725355 78:0.014958350592011819 79:0.00404360992862313 80:0.09561848737749783 81:0.04803024464501234 82:0.2647230716676905 83:0.0016735191895556683 84:0.09465701707599476 85:0.0015566808565684585 86:0.09269487164467571 87:0.0958654801795873 88:0.009103692286371977 89:0.0037894816802391453 90:0.028332990436664162 91:0.005168445116685481 92:0.09565636660554162 93:0.09532361834095976 94:0.0995089718309943 95:0.0953448071474906 96:0.0019259189649585343 97:0.0027611119229481495 98:0.09244600274936007 99:0.0017481826018180598 100:0.26400075141065044 
1.0 0.0 0.0 0.0 0.0 0.0 0.0 1:0.2814772900301392 2:0.012764781288683143 3:0.43650060440179345 4:0.28028588092003776 5:0.28268776028245823 6:0.009401558067834586 7:0.25979753690768087 8:0.2710818779244459 9:0.028385065060615878 10:0.004019463619689211 11:0.26123296925876155 12:0.3143693560865366 13:0.010424853088488091 14:0.3090401506983987 15:0.299466313134083 16:0.2799392274405773 17:0.28232570653475547 18:0.26773745272516486 19:0.011027895334721169 20:0.010514083107622151 21:0.319898908829932 22:0.28894180966118244 23:0.26483043877283396 24:0.0038565898758753654 25:0.0033154386917219184 26:0.019274228956388233 27:0.2824743995145932 28:0.012482720964910828 29:0.25660477033426754 30:0.283196938182325 31:0.30623733666477193 32:0.27968836981221235 33:0.2944710032684406 34:0.2750405453148344 35:0.29709516205491066 36:0.29288959778680085 37:0.27673817230784514 38:0.00900931147888528 39:0.008275127647050705 40:0.25365108020987176 41:0.26621494206327945 42:0.2563658676627382 43:0.004645107531746732 44:0.31320242847348123 45:0.2851138264830396 46:0.30023921708612017 47:0.2643303790205671 48:0.2630871010489833 49:0.014060934602111793 50:0.27651024650122574 51:0.2833076196506524 52:0.004722828316185865 53:0.0033221107304221226 54:0.00860034734115392 55:0.005431079949550479 56:0.2915767355979242 57:0.314329817974498 58:0.3076338774129059 59:0.29567595300363464 60:0.27596959472067734 61:0.027923904189980794 62:0.28900628534070555 63:0.2863229309951937 64:0.007131270289732409 65:0.024710537529016162 66:0.009714018075305107 67:0.28276585844685104 68:0.005186538930499595 69:0.01355309495838025 70:0.27173757776103574 71:0.00268082585260613 72:0.27960245483779483 73:0.28112652156209184 74:0.009870241683790136 75:0.009525203088714206 76:0.005643008723421475 77:0.27677056131209427 78:0.04272277555379866 79:0.012019119082595965 80:0.29227332852755694 81:0.35090455771532547 82:0.00480557286332916 83:0.005863257352786329 84:0.26464553104469346 85:0.004173609315768935 86:0.2662602918317264 87:0.2858472927363585 88:0.02785979364794144 89:0.012654845232732899 90:0.07757643903894755 91:0.014716551125457993 92:0.29828888900720946 93:0.2987941468657097 94:0.293297766856978 95:0.2858687834790118 96:0.004053976368394125 97:0.008951387420428064 98:0.2767410192295192 99:0.002856013336064346 100:0.013778397132693512 
1.0 0.0 0.0 0.0 0.0 0.0 0.0 1:0.24048020666949288 2:0.00978840158027074 3:0.004101151498720431 4:0.22295539320885055 5:0.22058581624761656 6:0.007847803502334693 7:0.22327317952678802 8:0.20701715757143718 9:0.022061761457136096 10:0.002930781311008514 11:0.22910510437037263 12:0.2158877638345344 13:0.009446735902104838 14:0.22125587853522252 15:0.22206848556697228 16:0.22275871324568144 17:0.2612259462344096 18:0.21469461145838897 19:0.00868554158492391 20:0.008341339762544584 21:0.22264573252826433 22:0.21712652549703318 23:0.21513514776873832 24:0.0034899217697878493 25:0.0031109740243292806 26:0.01564249136538538 27:0.2228266371968597 28:0.008997405604512234 29:0.21728467631534604 30:0.22102221600598743 31:0.23368652906750306 32:0.20377673982214004 33:0.2314565560605269 34:0.2194527537342566 35:0.23417816122645055 36:0.21564116175482806 37:0.22191403815927013 38:0.0072708268947123626 39:0.006771893585830769 40:0.21257938271689153 41:0.21543992231133272 42:0.22605259582342813 43:0.003536878543091015 44:0.20776976503384223 45:0.23245445514547475 46:0.22706360027834227 47:0.22715828388478404 48:0.19704218559002412 49:0.011181811835586555 50:0.21861039418832331 51:0.20498170583776248 52:0.0037923880718629516 53:0.0025197874938918106 54:0.006403904268932544 55:0.004162181855871719 56:0.19935115889944996 57:0.21562384505538637 58:0.23460326618588176 59:0.22340542657843873 60:0.24223866650493234 61:0.02386123103614401 62:0.20929235793215892 63:0.23119519575282801 64:0.005596965601834653 65:0.019310835619367212 66:0.005656375703080296 67:0.22046057829140742 68:0.004043347703589855 69:0.010183315419409013 70:0.23778363383559944 71:0.005129787681005934 72:0.21579045843385655 73:0.22918642235430683 74:0.006153665867447465 75:0.006888016400007243 76:0.004272871767954616 77:0.21436282386108205 78:0.03201993015641571 79:0.009055508883903711 80:0.21418269779438712 81:0.44914517104658735 82:0.008983582026194693 83:0.004105493458379664 84:0.21628193411857927 85:0.0030823862510429255 86:0.20692239420653002 87:0.21807021090729645 88:0.02052458977854726 89:0.009158356294922051 90:0.05848143951102635 91:0.012705484125514834 92:0.20876101006256031 93:0.21233933985566708 94:0.21475920325954795 95:0.21385605890093806 96:0.004104442559301605 97:0.006169057789148778 98:0.21672948512092305 99:0.00297008904383077 100:0.4236449373122832 
1.0 0.872713779487745 0.0 0.0 0.0 1.0 0.0 1:0.20321018382152037 2:0.010097041878968078 3:0.5013684864555183 4:0.22073126513494418 5:0.22287611925193504 6:0.007674199444229369 7:0.2314480236387308 8:0.22345882625249314 9:0.02769270281989398 10:0.0028379282395284548 11:0.22348843270811455 12:0.23767149467337192 13:0.008685896678963741 14:0.21182717383214575 15:0.2161806299269151 16:0.23317890207034023 17:0.21816524956074176 18:0.21913046351221052 19:0.008416070054328909 20:0.008421852534504073 21:0.2295852009323925 22:0.2090176481264844 23:0.22997536396909252 24:0.004238301780611499 25:0.0037986701357679317 26:0.015752139540491702 27:0.20407869088542058 28:0.009181522337769225 29:0.21038458996248097 30:0.23367572758987287 31:0.23416500577067378 32:0.227188549446816 33:0.2203548899897965 34:0.24022188333699848 35:0.21743369611134147 36:0.22582047143602982 37:0.23469414063175623 38:0.007018208939243862 39:0.006747949826768047 40:0.22371752554522484 41:0.22332394097577932 42:0.23661929056697584 43:0.005633657972642447 44:0.22321585455821816 45:0.23751644340074407 46:0.22022785681759754 47:0.22082131171670924 48:0.2192320503692977 49:0.010665381422227196 50:0.22312306500974582 51:0.2294200931555512 52:0.00548362751993451 53:0.0034580279980604323 54:0.006670461089025156 55:0.004765830059782617 56:0.20885102649675127 57:0.23395871684556227 58:0.2293279292270696 59:0.23039293769463895 60:0.217786988495065 61:0.021965225388468165 62:0.2168665742228882 63:0.21283711257852245 64:0.005400617538179058 65:0.0180419724044855 66:0.007069232690438372 67:0.23197640840011252 68:0.005377250504793927 69:0.010017624019621193 70:0.23508880177856953 71:0.02737337879333537 72:0.2156485984082137 73:0.21507748085666928 74:0.006792747228886006 75:0.007137780218634127 76:0.0351905997245297 77:0.21183105405408478 78:0.03215117471146582 79:0.008783601885313127 80:0.20954285223746247 81:0.031090721684544975 82:0.03316062842854395 83:0.0038177336546328274 84:0.21394863374739678 85:0.0036706431662920968 86:0.2358004830332075 87:0.22826641946192322 88:0.023031494685647167 89:0.010015436877134434 90:0.06341591933456828 91:0.012472937750222145 92:0.22205437827902696 93:0.21893167508842284 94:0.21327396485818048 95:0.22503094810658034 96:0.006297935152566632 97:0.006792847562234475 98:0.2075624765737938 99:0.0047425545056219995 100:0.21250732520399201 
0.019183694941297666 0.0 0.0 0.0 0.0 0.0 0.0 1:0.13917557878384915 2:0.0064793491434574375 3:0.12798194927885864 4:0.1555409630546796 5:0.1527887108740487 6:0.004978058155207705 7:0.1361540319657136 8:0.1528755130226059 9:0.9641417718465136 10:0.0019099428757036738 11:0.1619635948869641 12:0.1524370024092712 13:0.007172239990689474 14:0.1538574003488775 15:0.15081834996550947 16:0.1475885219990158 17:0.15558878216748684 18:0.1369466937063452 19:0.005493413497062802 20:0.005918668586718777 21:0.1469465802826839 22:0.14744606728371348 23:0.14161562991554966 24:0.0028417235586477734 25:0.002279965594666422 26:0.009891935623847194 27:0.14455162145774983 28:0.006205618925970152 29:0.14318691266630598 30:0.1495715317240911 31:0.15066063436952126 32:0.1437551804130627 33:0.1434598866205677 34:0.143491544032156 35:0.1490445014675899 36:0.15301002074185943 37:0.16146445371092835 38:0.004793571780167107 39:0.0042855180219834145 40:0.14591383057689025 41:0.1442549974685608 42:0.14546496600233824 43:0.008406039875371486 44:0.14201001819170997 45:0.14598736559832157 46:0.14383124271738815 47:0.14033578236850672 48:0.1356042469825781 49:0.0072603765384312065 50:0.14574887109001664 51:0.1396740022114094 52:0.005857191587116336 53:0.0022876334068861314 54:0.0039669284950499635 55:0.0027034648712568965 56:0.13615757137530826 57:0.15202851728171604 58:0.14298019338747742 59:0.15465676003825124 60:0.15096664466165577 61:0.014759237353358465 62:0.15317732900866143 63:0.14107733884191717 64:0.003731970580629071 65:0.012274056288010406 66:0.02763488363130514 67:0.1407689321649396 68:0.0027665409597283676 69:0.006498941011252737 70:0.15782533329526527 71:0.002392838341155142 72:0.13392686058587672 73:0.1486006124347332 74:0.004417905989957089 75:0.005045224264243098 76:0.35407139313824965 77:0.1476375234824146 78:0.02218010762356058 79:0.0058882339214069886 80:0.14067786917143446 81:0.14076786092496182 82:0.16233267764836282 83:0.003058800550358834 84:0.1343412256503657 85:0.0022396307536932916 86:0.15163833249851488 87:0.15379093158465662 88:0.013816764017422933 89:0.005904512962147407 90:0.04105638588681326 91:0.008168374202424838 92:0.1469188232549879 93:0.14910164467815526 94:0.1441801967183057 95:0.14348830685900948 96:0.005710679343359255 97:0.004298176517279891 98:0.14803363245710777 99:0.002399907816157125 100:0.008695176083769842 
0.0 0.0 1.0 0.0 0.0 0.0 0.0 1:0.3232832438915823 2:0.012826893507315413 3:0.008113921155551353 4:0.2888184278390133 5:0.3140757986172353 6:0.009994311876965093 7:0.30896231844971905 8:0.27081006215113324 9:0.025624907229340195 10:0.0038134538371557424 11:0.3000503671225643 12:0.27128610566953293 13:0.010773565883610043 14:0.3182893048332595 15:0.29673146215563295 16:0.3020301039385409 17:0.29865913679693473 18:0.2868322642850512 19:0.011722806551914109 20:0.011610702043376227 21:0.28813698746353045 22:0.3108632868906846 23:0.2983352817439244 24:0.006572980740905178 25:0.012495836037817348 26:0.018902033549548072 27:0.3010504307371435 28:0.012644065492265192 29:0.2843649761317938 30:0.31001783490199286 31:0.3123909987445976 32:0.30924648363085266 33:0.28405977911348596 34:0.28418951796990527 35:0.2973964578441047 36:0.28659076270458167 37:0.28898775429979295 38:0.009332265734505267 39:0.008928704685756217 40:0.2811669457351236 41:0.2924835875256735 42:0.29745970029272056 43:0.005867115680142769 44:0.31133996092047544 45:0.31687632339739 46:0.30073780212838197 47:0.3079096994116956 48:0.28510231214260273 49:0.01456479783788865 50:0.31603814397310465 51:0.28691645573106533 52:0.022772772415176275 53:0.003171676538789004 54:0.0078268229784539 55:0.0063565739479121116 56:0.3013554960788253 57:0.3045875437575499 58:0.2988819488102618 59:0.30604683107749836 60:0.28714338457823463 61:0.02872949229059315 62:0.2951411143114299 63:0.29231039151635163 64:0.007628451850084588 65:0.02811257709521087 66:0.02285471967520001 67:0.300457298848285 68:0.005902585760786042 69:0.013531834608686608 70:0.3090989165200165 71:0.025072520128777375 72:0.2957353184856057 73:0.2847189301884608 74:0.009209332106013697 75:0.009740429149767981 76:0.006889253075650649 77:0.28791640554001374 78:0.04366512167365605 79:0.011804475360767354 80:0.2868880164674965 81:0.5587518074046317 82:0.007792024617821053 83:0.006580879917908066 84:0.29517447588616275 85:0.00480683450367691 86:0.2928245027167565 87:0.2939278153808307 88:0.0282468574285395 89:0.012613908455838648 90:0.07775617983854044 91:0.016572064569805846 92:0.31448701211937363 93:0.2945346979678685 94:0.29889829458563766 95:0.30323700292980976 96:0.0059468439831376185 97:0.008716953073623385 98:0.29854653851120055 99:0.0046211001229801525 100:0.17888518011052573 
1.0 0.0 1.0 0.0 0.0 0.0 0.0 1:0.23980041694140694 2:0.00970855632897799 3:0.03481759231356775 4:0.25188361397715553 5:0.23030978458114573 6:0.007493179071216076 7:0.224927211264834 8:0.21945631280092653 9:0.023528272545103205 10:0.0032022660492088155 11:0.2333577809064448 12:0.215527529322711 13:0.008976834643762513 14:0.23697168806893534 15:0.24148922684970978 16:0.2291321340580246 17:0.23843662298536525 18:0.21474858749325684 19:0.009723149100155391 20:0.008934820004798616 21:0.24686894197609702 22:0.21599881045432867 23:0.2532698908404582 24:0.0031308360325931683 25:0.0046159807056932135 26:0.014756960401200397 27:0.2236821480950957 28:0.010479656422058016 29:0.24217419728272188 30:0.22951368201371983 31:0.24078417466151847 32:0.2442353117547734 33:0.2348836489806745 34:0.22549614132786677 35:0.23411322751302063 36:0.23695909301253892 37:0.22446369019740026 38:0.0070614260774557475 39:0.0065510113676206985 40:0.2358432618665886 41:0.23551799885418093 42:0.23018380110329775 43:0.013680005297023956 44:0.23301227013218462 45:0.22035565071153426 46:0.24088650109544898 47:0.23399745832855584 48:0.21538821851137557 49:0.011021904076247896 50:0.23414671181592284 51:0.23473922868948036 52:0.0029512712222323372 53:0.0029389932788223957 54:0.0057904435031051315 55:0.00436520833265175 56:0.21123736867006165 57:0.2212861637748791 58:0.22982714116116015 59:0.22844675440129517 60:0.23584920017818478 61:0.024989691476040424 62:0.22869980241986623 63:0.23682025961137812 64:0.0056106090240478764 65:0.02109127130030532 66:0.005606636617116877 67:0.22411551628560958 68:0.004285912422987664 69:0.01140628997263751 70:0.22875436628504364 71:0.0031173738308577855 72:0.24059742139689896 73:0.2386049097822924 74:0.007020018512217466 75:0.007771246196710254 76:0.003870611643153248 77:0.2308085418230294 78:0.034830107688076394 79:0.009845216688212371 80:0.23042755619086705 81:0.5072766888322902 82:0.0035679351710693505 83:0.003533639624710292 84:0.23761204594181476 85:0.0031376893402052164 86:0.21012949935317754 87:0.21349991578619182 88:0.021522365618642805 89:0.009419184408329586 90:0.06264803032996291 91:0.013020745214020283 92:0.21661016561061444 93:0.22749245828231002 94:0.2432207950411524 95:0.22904625909615042 96:0.0042960239651182565 97:0.006710701432723761 98:0.2380474161442738 99:0.002710027828028867 100:0.32784249004138877 
1.0 1.0 1.0 1.0 1.0 1.0 1.0 1:0.19738172881113117 2:0.008804268319324265 3:0.019118006606606352 4:0.20136838731516923 5:0.2074362108151904 6:0.00688481264575625 7:0.20928467283750135 8:0.2044500328842414 9:0.5095130764574218 10:0.0027368628808720195 11:0.20387665821703238 12:0.20790663146496968 13:0.008745181646835158 14:0.21016594708278918 15:0.20356060268491918 16:0.20760977317160606 17:0.20983968453740703 18:0.2014733184024986 19:0.00778528557368934 20:0.007803523845336309 21:0.2179832403901098 22:0.20624289022966394 23:0.1924452943312151 24:0.0030223466397019693 25:0.003349633703549557 26:0.01318293252532232 27:0.2037786997235779 28:0.008271160751703886 29:0.2114899944833971 30:0.20144788130431787 31:0.2070029987022543 32:0.20486435175381376 33:0.2034440537967882 34:0.2021745604025378 35:0.2126252762999341 36:0.20548101683516226 37:0.21724715739242254 38:0.006628962786779154 39:0.006082022545853639 40:0.20674276249441645 41:0.2009066864710151 42:0.2009197230926297 43:0.006582256270849346 44:0.19899082849191854 45:0.20810359528917932 46:0.21174323751596305 47:0.20465787952586925 48:0.19043908475265436 49:0.01040955584242823 50:0.19521220552583415 51:0.20401194572811904 52:0.005980518632285617 53:0.0022262157164973286 54:0.005381643080900942 55:0.003836661939029217 56:0.19692499231437038 57:0.20259293414954246 58:0.21421116784788743 59:0.20755524371603673 60:0.2020324421886665 61:0.019552923308127777 62:0.21140625816851197 63:0.20623487662087311 64:0.005128413930275589 65:0.0179091231953898 66:0.007250476777113447 67:0.20816163011528177 68:0.003954398902357595 69:0.010136018869996561 70:0.2035325004893584 71:0.007018604615735259 72:0.19242121266438206 73:0.20219180225490394 74:0.005850364494321862 75:0.007180849478557529 76:0.3077911518324647 77:0.2005365301982129 78:0.03029858286045307 79:0.008095450939041886 80:0.20213752221323836 81:0.04663863057601871 82:0.39843270470198006 83:0.004147167575688934 84:0.20803456668117176 85:0.0035626441175251873 86:0.2017824591437425 87:0.20737284854485782 88:0.019069137610816893 89:0.00832011643329018 90:0.05347763173778827 91:0.011909547760679392 92:0.2022054336196434 93:0.2015368497776378 94:0.20427706922300004 95:0.19948965845537825 96:0.004233253816880294 97:0.006016604996823862 98:0.1986565462945592 99:0.0032371783844038753 100:0.004824208384264102 
0.0 0.24715502073682352 0.0 0.37698780573144797 0.3543382498711839 1.0 0.0 1:0.3200969463947181 2:0.01393193531987965 3:0.011745819312571439 4:0.32552882288604895 5:0.3163115569696948 6:0.010570965557379982 7:0.29957944759315724 8:0.30136746610498416 9:0.8190554146811887 10:0.004629931969499933 11:0.3314484761960692 12:0.3314274619027871 13:0.01338872473488406 14:0.3096638663021131 15:0.31120591242242296 16:0.30222493542844947 17:0.3265189804590884 18:0.3200102131668036 19:0.012609641058197894 20:0.012350597018874022 21:0.3207908031791891 22:0.3306141502524047 23:0.30638261476560275 24:0.0045001155316692475 25:0.004546646439602845 26:0.020914136091167053 27:0.30412683448318284 28:0.013847241054653436 29:0.30447168941676284 30:0.3200850671897996 31:0.3158510030260729 32:0.31445540121227894 33:0.3073923943816717 34:0.3127613113315278 35:0.3283060924114955 36:0.3228907458721255 37:0.33105028156896704 38:0.01011946206954467 39:0.009032176789796396 40:0.3064941066371994 41:0.31075870402938094 42:0.3213754006420898 43:0.02082792990699073 44:0.30242765464959437 45:0.3086124954683271 46:0.3233814204785183 47:0.3048379216025765 48:0.2836093266654435 49:0.015612934986005798 50:0.3149819173971763 51:0.3147988117324156 52:0.01982006236537922 53:0.003272797365238952 54:0.00828226206122716 55:0.006581219677821778 56:0.30992951778832 57:0.3096414724487886 58:0.3177687437638777 59:0.3168435151488165 60:0.322120897190352 61:0.030190644812055727 62:0.315976767848646 63:0.31497409743188326 64:0.007915389235338754 65:0.026224610404452453 66:0.01764877537271548 67:0.3193680937704902 68:0.005737877924273653 69:0.014505299459927025 70:0.32499186900443994 71:0.004349748935346397 72:0.3125914834647839 73:0.31071850266521095 74:0.009178865005146478 75:0.01039360615769496 76:0.31777505605893325 77:0.3138519059522769 78:0.04549324001624548 79:0.012886765798651088 80:0.3250840444235456 81:0.05451524557172256 82:0.22061158901508635 83:0.008387429789932475 84:0.32821646783918745 85:0.00533873938767723 86:0.2997119265058956 87:0.31040840683795323 88:0.03101305628042373 89:0.013162949322967667 90:0.08815038449846137 91:0.01773673744895751 92:0.32490239163739704 93:0.3250877897013358 94:0.31572094904654163 95:0.31685396794590953 96:0.007269864381559758 97:0.008869475313673205 98:0.3037721400244826 99:0.004187230185213856 100:0.007339743973961444 
1.0 0.0 0.0 0.0 0.0 0.0 0.0 1:0.3813719972723607 2:0.01579682459637696 3:0.010442424996005754 4:0.3772298517211131 5:0.3728211353800925 6:0.012120369288319445 7:0.37017000400703376 8:0.3475611542224517 9:0.038008458337892584 10:0.004814202424665061 11:0.3840720453892842 12:0.3653148382965693 13:0.014117939672337229 14:0.3861453882196294 15:0.41908834706184 16:0.3871902511147788 17:0.37414380484542664 18:0.37492606017833013 19:0.014375777803634084 20:0.014320457666981338 21:0.3759942360442044 22:0.3728444186849505 23:0.365935096647779 24:0.005787656201767461 25:0.004903727687315128 26:0.02577561073884673 27:0.35678902595226786 28:0.015276393563729852 29:0.3755042715191624 30:0.3771027231412997 31:0.3703227683539902 32:0.3605198985295428 33:0.3730460625481421 34:0.38956761662036565 35:0.3719466254547661 36:0.3887254313590073 37:0.3940780824297542 38:0.012129807923091684 39:0.01084661883842625 40:0.36344050901005276 41:0.38072011229362723 42:0.36633191333354787 43:0.006612287676625173 44:0.3668122336085808 45:0.38474268308752263 46:0.38333790491134884 47:0.34742919480186657 48:0.34801273122563464 49:0.020060251083628588 50:0.36726904276524364 51:0.36291264852322763 52:0.005345465107878007 53:0.0037719559595827384 54:0.010613363050660303 55:0.007223964851083229 56:0.3494781491769734 57:0.35917114421555174 58:0.37682805216765697 59:0.37777743306764155 60:0.3777558808426978 61:0.03460720200876196 62:0.36205349852505114 63:0.3922448272564252 64:0.009074434164467498 65:0.03410233311887383 66:0.009571249906775586 67:0.37230702497190105 68:0.009687468475876222 69:0.01682170432240637 70:0.36645038033378585 71:0.006244050802142724 72:0.38283286828423696 73:0.37841746111948665 74:0.010772922994667266 75:0.01266391615169724 76:0.007071634799358725 77:0.3598937950726715 78:0.05768926513362626 79:0.01535423933784489 80:0.3543497648517208 81:0.4161023097672466 82:0.00623879047553167 83:0.011929182332709584 84:0.38851587076195526 85:0.005646386773124587 86:0.38369597797978344 87:0.3800352940028793 88:0.0353471703186133 89:0.015008586593834548 90:0.09609757543376837 91:0.021462673917894432 92:0.3463348693805655 93:0.38116014890871763 94:0.3681908142409734 95:0.3571988956815705 96:0.00631816289748403 97:0.010821071973481079 98:0.3787379554068591 99:0.007970127178931427 100:0.275279457059424 
0.0 0.0 1.0 0.0 0.0 0.0 0.0 1:0.2260947942109124 2:0.010053821809028996 3:0.0045619094609736345 4:0.2275441030281548 5:0.2224405039135532 6:0.007469964492600194 7:0.24157743954591343 8:0.23562836225506625 9:0.021182279887818574 10:0.002953816040236687 11:0.24166097819251056 12:0.23184394361089905 13:0.010238929844448687 14:0.24917573364412743 15:0.2350951404789732 16:0.23727951272253855 17:0.23707919679297304 18:0.23695743099120375 19:0.00934513428328054 20:0.008724768627264767 21:0.23816677475952336 22:0.2285479211812328 23:0.23752306025456676 24:0.004148300502643937 25:0.0055513924902853805 26:0.01586346244492396 27:0.23167505354692589 28:0.010186812192257571 29:0.23492845753086228 30:0.24633031678644848 31:0.24939208862382414 32:0.22840810781942977 33:0.23585277020855389 34:0.24596512960653294 35:0.23251761388107797 36:0.23300852385192128 37:0.23243686889784562 38:0.007749461088388743 39:0.0070777076081071704 40:0.22861741601102148 41:0.21947143537096622 42:0.2333996382193991 43:0.004259485393551146 44:0.21243918144736096 45:0.23189347334119054 46:0.2294715255511522 47:0.23629279040025813 48:0.21954168995566212 49:0.01203325507147189 50:0.22640089732800484 51:0.22366123516750294 52:0.003726616671805234 53:0.0027024159365644233 54:0.005893509838985872 55:0.00422935105212942 56:0.2223487200653008 57:0.24163637838960933 58:0.2280720498325309 59:0.23029658312631432 60:0.2331967338707192 61:0.021717696308245833 62:0.22718859479534728 63:0.24902672716720792 64:0.005748332015260685 65:0.01940839689176507 66:0.009843593880177448 67:0.23828995621267443 68:0.005928999234536931 69:0.010719240131412374 70:0.22215513051540836 71:0.005212029169873469 72:0.24061137891264492 73:0.23023141021031085 74:0.007233675502544089 75:0.008007205271721529 76:0.0037622412652022555 77:0.23904696290338984 78:0.034590335521625444 79:0.009251047004172104 80:0.22165946916223556 81:0.521272280669723 82:0.004172612658629971 83:0.004286245028604271 84:0.22411288284546427 85:0.0035834696218427467 86:0.235665769540642 87:0.22467140796834412 88:0.022402318407152996 89:0.009143625010650714 90:0.06455278504793147 91:0.012667557910914187 92:0.22674862015939834 93:0.22558209893235606 94:0.23444729302269496 95:0.22752586160692323 96:0.09643274813992977 97:0.006735909365170183 98:0.23801458714937995 99:0.0024406954242141557 100:0.2561752518327996 
1.0 0.0 0.0 0.0 0.0 0.0 0.0 1:0.2132694574025017 2:0.00878464523720145 3:0.6326582835088423 4:0.2021604614836373 5:0.21562219250943845 6:0.006896911705507244 7:0.2036571049080109 8:0.19661813166790737 9:0.02278875568661423 10:0.002682609478350634 11:0.19433872880329378 12:0.20494197218978924 13:0.008033868250446158 14:0.211572370734659 15:0.20551254249135892 16:0.21001024887531977 17:0.1952053038515233 18:0.19412012636435705 19:0.008047119289872085 20:0.007657958201516421 21:0.20610207442588369 22:0.21551591263596429 23:0.20313999266932062 24:0.003974722029011817 25:0.003160531148894625 26:0.014029243232674375 27:0.20381683677628348 28:0.008218595433571991 29:0.19996677707346236 30:0.20348880362366756 31:0.21192061186458594 32:0.22890663739611836 33:0.20743146754919206 34:0.21782115227333734 35:0.21481909488768403 36:0.2070924036701209 37:0.21914993327392734 38:0.006750146553775184 39:0.007774770418658237 40:0.21653250965047116 41:0.19249101665799112 42:0.20409938052723328 43:0.004240503507369038 44:0.1972366456860374 45:0.21747736406247975 46:0.21638401781294098 47:0.19925112742161916 48:0.1910792882130955 49:0.010593221086706161 50:0.20335854451002885 51:0.20314583426530097 52:0.0037881433336592564 53:0.0043196210759477195 54:0.005133671036095008 55:0.004149974137891378 56:0.1985877786461507 57:0.21844047527548419 58:0.20021048753127405 59:0.20688166432603639 60:0.19920158728532192 61:0.02005620518111336 62:0.2109209789135891 63:0.21601245148561493 64:0.005334957929294485 65:0.019185934722080165 66:0.008312056766400597 67:0.20280481804537528 68:0.004007617881656854 69:0.009684482502613709 70:0.2073805401085648 71:0.0032633850783706816 72:0.20174563724786415 73:0.20799707295401604 74:0.00582212654661095 75:0.006975869787379639 76:0.0027884624098272887 77:0.21492898862938906 78:0.031080985811975822 79:0.00895098900548732 80:0.19927072482053976 81:0.2198533454159116 82:0.0050391075606839595 83:0.0030220789766420278 84:0.20908979590011298 85:0.003103691004092258 86:0.19861190189596353 87:0.21425026792624705 88:0.019708067624883547 89:0.008441789933667185 90:0.054974430857760666 91:0.0108186808666427 92:0.20032725823468597 93:0.200148353439503 94:0.21069494039374193 95:0.20227544314183776 96:0.005081685631063487 97:0.0062173934423811915 98:0.1882167103192985 99:0.0026648987056056292 100:0.01565467026957109 
1.0 0.0 0.0 0.0 0.0 1.0 0.0 1:0.2992377677905432 2:0.011936447040640357 3:0.7362743247933557 4:0.2781469775716799 5:0.2966008824846999 6:0.009577835682501827 7:0.2723307557412706 8:0.27977536647727425 9:0.11136238016577159 10:0.004076723971546424 11:0.3043570568288467 12:0.2955829841135945 13:0.012877718960535484 14:0.31192868070009755 15:0.28388187865109654 16:0.29384600785998266 17:0.3036230065377846 18:0.27828018216529277 19:0.011429930915762764 20:0.01132034090492461 21:0.3134277934841545 22:0.27019720608761727 23:0.2910683306605344 24:0.005626310101827654 25:0.006692881582438866 26:0.021289989234874535 27:0.2604439282818182 28:0.011262554880257514 29:0.29873738563990254 30:0.3122398373646262 31:0.30159622857895074 32:0.29855474337048016 33:0.30908522057230914 34:0.29328864643987795 35:0.2867284890156728 36:0.28889893360158947 37:0.29889197060873113 38:0.009181090367582927 39:0.008433394021355489 40:0.2950685938625773 41:0.2806539222545725 42:0.27921997037538315 43:0.004810340238500307 44:0.3005801102963499 45:0.29403534333366455 46:0.2997375776490057 47:0.2968871026546465 48:0.2797311039826227 49:0.01401608929346505 50:0.27082187497494586 51:0.27836538320852233 52:0.004520636691248303 53:0.0028851307635401296 54:0.007848542487857227 55:0.005929475835787831 56:0.28727414016595293 57:0.28035690411692304 58:0.3079309342042331 59:0.3055357509305469 60:0.28768615350734933 61:0.025392197365510624 62:0.26555353741398685 63:0.3218896300162535 64:0.0071629369539645505 65:0.025134521023678063 66:0.009465548259064541 67:0.2982052709865255 68:0.007723362084842912 69:0.013370890985328794 70:0.29841227817447114 71:0.0032655607766300227 72:0.2848438958342425 73:0.2908535252484797 74:0.00898378327414438 75:0.010022773185508777 76:0.0032777393214454688 77:0.29468242785930004 78:0.04366998314760834 79:0.011493973114009829 80:0.28204953569251395 81:0.0099486326314317 82:0.005990299515640781 83:0.004162478068143205 84:0.31244794108564206 85:0.003911520057325719 86:0.28990702864152285 87:0.2734850337527007 88:0.02748608522302462 89:0.011586307071966227 90:0.07857515515251041 91:0.015665128007619347 92:0.28152707715515835 93:0.3211042473087871 94:0.30319161601091477 95:0.28076089431966306 96:0.004161211423624739 97:0.00870238244630042 98:0.2968145603176472 99:0.0029518332446023983 100:0.006687247026815444 
1.0 0.0 0.0 0.0 0.0 0.0 0.0 1:0.20104322926647306 2:0.008239972495568553 3:0.006322112196017403 4:0.21113300823456474 5:0.20920134158413597 6:0.006865836150955052 7:0.22018138534902074 8:0.19704781123065265 9:0.018282153008811346 10:0.002650463196082958 11:0.20833331954362858 12:0.20135978673075303 13:0.007506690404515699 14:0.19203288801320148 15:0.19895964289204357 16:0.20724304021568724 17:0.2028987830298389 18:0.19685712577692727 19:0.007459286184607725 20:0.008183043846094995 21:0.21132250574253164 22:0.2159978932883491 23:0.21013319073995887 24:0.00224439112627148 25:0.0028014309210517493 26:0.014777343750851824 27:0.20220806855217888 28:0.008818815174571924 29:0.21506215045279978 30:0.18916629600631701 31:0.18848416893807865 32:0.21052243601455622 33:0.2188004949062106 34:0.19129995442421174 35:0.20888927567259002 36:0.20885377275339437 37:0.1888332996487008 38:0.0071575060801728155 39:0.006250802303081907 40:0.18791628238041497 41:0.18420989796905052 42:0.2200413385405174 43:0.0022659042034313035 44:0.199648343803092 45:0.20718390781713455 46:0.20738971152778016 47:0.20954651409460004 48:0.19339287552958492 49:0.01081259865755681 50:0.19688305698746159 51:0.1978318324330574 52:0.003620325285166633 53:0.0027784662670687654 54:0.00601765516579084 55:0.0035468147725655655 56:0.1883619541441255 57:0.21917494549027408 58:0.22054528922100106 59:0.2191066707094347 60:0.20216079997298597 61:0.020202002984190472 62:0.1977065366861719 63:0.20908196684405986 64:0.004669425441352786 65:0.017570878027489394 66:0.004775103939409238 67:0.21029512648942886 68:0.003932750933863518 69:0.009379721727110943 70:0.21575280275139577 71:0.004863431230147365 72:0.2095392703661071 73:0.2056745901091328 74:0.006008136816147171 75:0.006534935086815476 76:0.003224097397599629 77:0.2138667936530219 78:0.02983403970409108 79:0.008020485201672707 80:0.19580678546666475 81:0.49607188117631945 82:0.006417768155836051 83:0.0027444231332024874 84:0.2007845025803252 85:0.0027506106199397485 86:0.21361077230134556 87:0.22027401979162436 88:0.019642150323381354 89:0.009408007764984284 90:0.05581874284563853 91:0.010788060505383735 92:0.2034077782040684 93:0.20453869791764256 94:0.20385486927887078 95:0.21361978871234372 96:0.0028245857009029144 97:0.005515355226198626 98:0.20035625452515982 99:0.0024165509469215507 100:0.4037049449098511 
1.0 0.0 0.0 0.0 0.0 0.0 0.0 1:0.350810285534731 2:0.01775376085877703 3:0.00559725840841978 4:0.4009802122192887 5:0.39928201817582903 6:0.011716173792409587 7:0.4311923659112658 8:0.39020665518860687 9:0.0352651234413821 10:0.004915376345352028 11:0.3936947953489462 12:0.3894236737669429 13:0.01279244386299494 14:0.3840818022967213 15:0.39345409632151973 16:0.41071549167517046 17:0.37283060311287797 18:0.4009450595440508 19:0.014326116857804614 20:0.013770078718356595 21:0.38841292841719915 22:0.3877054523952193 23:0.40631854598052164 24:0.003903784460706817 25:0.0041173161022860175 26:0.02878799076597216 27:0.3753834125107611 28:0.01703158209690914 29:0.4158268938069596 30:0.3839414294361582 31:0.40918663659057986 32:0.3741146540233597 33:0.38328357166553256 34:0.4495972402548639 35:0.4152704959367343 36:0.40503007632002086 37:0.3960818804488641 38:0.012239652329362532 39:0.01101010189641164 40:0.39193298810797583 41:0.37061952322852604 42:0.3956900664363753 43:0.0040784980652476014 44:0.3674954753523456 45:0.3779138382065639 46:0.37784798714683226 47:0.40464857929971604 48:0.36075227145743394 49:0.018556086393528185 50:0.3836494669063124 51:0.34897681403562714 52:0.004468876364204405 53:0.005341183378942395 54:0.010371513174026962 55:0.007105741626214934 56:0.3528969436231331 57:0.3964217859193514 58:0.39325785122076085 59:0.3661531237145978 60:0.3546767251035716 61:0.0321380126651748 62:0.37662708638331427 63:0.3674768817798668 64:0.008992651375067181 65:0.03217496092000102 66:0.0075442037022539175 67:0.389481716250842 68:0.007102982194182006 69:0.01622693592955491 70:0.38875687010435744 71:0.0047578814393347485 72:0.36595113917497735 73:0.3624358918909085 74:0.012041515150954942 75:0.012506150388588625 76:0.007020960212879989 77:0.4040525021060297 78:0.06164622678394833 79:0.016256488254359044 80:0.40416233088936687 81:0.3852512612072541 82:0.004585958917180944 83:0.004982196440618155 84:0.3582316226749948 85:0.00429700149206856 86:0.34267745306242664 87:0.3947716532299227 88:0.036586649505051444 89:0.01761041858305057 90:0.10510717302460487 91:0.020824035511203216 92:0.3792329876724482 93:0.4079987410427841 94:0.4319536800418507 95:0.4044202241570748 96:0.004512097298341556 97:0.011096209466869176 98:0.38811208520916307 99:0.004848198304861647 100:0.31928711260326786 
1.0 0.0 0.0 0.0 0.0 0.0 0.0 1:0.18584171326971904 2:0.007929568873266468 3:0.006697745714787772 4:0.1745438593694413 5:0.17265733111666504 6:0.006000375370713579 7:0.1800270940706429 8:0.16434243228986004 9:0.015977405124009737 10:0.0023412979431358164 11:0.16317611342425956 12:0.16623235035609457 13:0.007328686160371353 14:0.17941356028880406 15:0.1817951085771573 16:0.18239629898210233 17:0.15854560032517653 18:0.16351515775639772 19:0.006761213506578307 20:0.007037867509322806 21:0.16346509331538658 22:0.17163606399489612 23:0.17597976147609748 24:0.0022564572246678042 25:0.0017481524599816142 26:0.011950779585173404 27:0.16567524534871947 28:0.007516661416260113 29:0.16906559738208768 30:0.17845881194516378 31:0.18760682139208462 32:0.1759132373904769 33:0.16872677191760682 34:0.1823378512156414 35:0.17242012790045633 36:0.1810487671460932 37:0.17711957711624254 38:0.005089589128344901 39:0.005112762837469593 40:0.18095988886642264 41:0.18687585019733807 42:0.17971448348678018 43:0.0021969975950451633 44:0.1700746320418143 45:0.18117504735332904 46:0.17391970409140883 47:0.18506056071649155 48:0.16752121443357776 49:0.008750596703742293 50:0.1710035180512758 51:0.16974936160483356 52:0.0020405393367212412 53:0.002547970876099613 54:0.004678949707776544 55:0.0034078174032970863 56:0.17363944854100427 57:0.18660381839035844 58:0.17197860123406442 59:0.17751081037541833 60:0.16018413653866495 61:0.017105386026264664 62:0.17686951436596843 63:0.18466426544095635 64:0.004669837995195183 65:0.01626861680048653 66:0.004073353235988358 67:0.16530608146966877 68:0.0033086631444564237 69:0.008048772220528447 70:0.1793694454068252 71:0.0016628302022132038 72:0.16341702294107824 73:0.16808518172031378 74:0.005069516500134327 75:0.0059426010734625065 76:0.0018958598459063926 77:0.15949484773244876 78:0.02569295877596606 79:0.006797891303332006 80:0.17141272085241946 81:0.4183093196886176 82:0.0018240094870075412 83:0.002559458184307112 84:0.18310466977295564 85:0.0023005292119406585 86:0.16233889396778434 87:0.16818187232374063 88:0.017166598032450756 89:0.006906885769244077 90:0.047147037553845285 91:0.009854120173799533 92:0.15860995573259293 93:0.16565386134673435 94:0.1885280360903215 95:0.17515696253431096 96:0.002405007883394626 97:0.005335388586676699 98:0.19062101315961028 99:0.0017655792275801012 100:0.5179569810436231 
1.0 0.0 0.0 0.0 0.0 0.0 0.0 1:0.15923289591726075 2:0.006564961817367373 3:0.3993441810363666 4:0.1388597192957589 5:0.14540639726092328 6:0.0048221954595565105 7:0.16627025315422103 8:0.14293343690470015 9:0.013508692200999548 10:0.0020412194937348494 11:0.1523044895178262 12:0.16272522411122195 13:0.0058718103226832186 14:0.14140305548384774 15:0.1586791982353243 16:0.14795422649968648 17:0.14640457428596465 18:0.13709759788009662 19:0.005951427271620734 20:0.0055027251878837875 21:0.16517145767912575 22:0.15274966873140403 23:0.14992254348044262 24:0.002107269440983686 25:0.002631844679155763 26:0.01098032932769243 27:0.14485059711784978 28:0.006563399137046825 29:0.14543582392524454 30:0.16489443925134664 31:0.15173792623056748 32:0.16576606677276456 33:0.14828319737430207 34:0.15090218540489547 35:0.15855333578971476 36:0.14475269428677684 37:0.15851216577235325 38:0.0053364408598318685 39:0.005480459527610078 40:0.16150255341458372 41:0.14638076441049136 42:0.16436020509969612 43:0.0028534040288038702 44:0.14087398944490606 45:0.1556930264875179 46:0.16220852702414526 47:0.15563985027158797 48:0.15481938364887055 49:0.0070417049192783455 50:0.170342372569278 51:0.14208818395687683 52:0.004903401648136123 53:0.001644054417173712 54:0.00425288144325388 55:0.0027888983640223138 56:0.15066786017026934 57:0.15646998633091685 58:0.1570688181343638 59:0.15471888391808405 60:0.14771072012760258 61:0.013967185666627139 62:0.14574765780148585 63:0.15213625824563978 64:0.0038410617573564395 65:0.013543819439988126 66:0.005700814034131073 67:0.1476056483673839 68:0.0028762077241256435 69:0.0073556494805360854 70:0.15828240496720608 71:0.006664187636647634 72:0.15167182431258505 73:0.15109392451717377 74:0.0047047666434390225 75:0.005021795034608355 76:0.004540999828763208 77:0.14965972704062036 78:0.022731447198222187 79:0.006442357330709551 80:0.15278401243271594 81:0.26583422807225 82:0.016301993196751317 83:0.0021361877334607443 84:0.15680593105213544 85:0.0021154542473171317 86:0.1505933521873608 87:0.1488164428320534 88:0.014594132910050333 89:0.006136976894516791 90:0.04196697371994039 91:0.008827835304218856 92:0.14879140989394365 93:0.15283368774573391 94:0.1482671555903404 95:0.15774756282699404 96:0.006132800922353241 97:0.004259211893162422 98:0.1490955455432992 99:0.00325068005990218 100:0.25002672716159124 
1.0 0.0 1.0 0.0 0.0 0.0 0.0 1:0.25023155744349085 2:0.010102022518434676 3:0.028487940863513066 4:0.24077972699481642 5:0.23699814367149188 6:0.007634332432841922 7:0.24598542950640656 8:0.21892560527549093 9:0.02083716406555391 10:0.0028598228115142258 11:0.23526533037251993 12:0.22816542534453296 13:0.009194459070261103 14:0.2535423451974333 15:0.23983754144232675 16:0.2381774968849021 17:0.255967430570639 18:0.24725304513429378 19:0.008956099425271478 20:0.00956910306532666 21:0.24040160326672833 22:0.24044178452620749 23:0.21908271936987384 24:0.003627625874349689 25:0.00757263828469728 26:0.015523718646003262 27:0.2173078788844669 28:0.009666043411717666 29:0.23108808933085512 30:0.25310415944560216 31:0.23433148031456663 32:0.23073598034549403 33:0.22597786151643026 34:0.2539743054164508 35:0.24441491370232352 36:0.23529376556583992 37:0.2335906549115176 38:0.007505322863929171 39:0.00696080023775076 40:0.2272496109212616 41:0.23986062074418207 42:0.23206018935801004 43:0.010207661499606707 44:0.2373006237509884 45:0.23179490221244806 46:0.22581438347075336 47:0.22769319867904442 48:0.22838827615736265 49:0.012862334613413247 50:0.2577554221844315 51:0.2201120557480295 52:0.007967206780646344 53:0.002810642019927258 54:0.006525062124364649 55:0.004424156308488602 56:0.22111709034358776 57:0.23645903028176943 58:0.232923082161374 59:0.23273642562988398 60:0.23661277315376933 61:0.021608468096629956 62:0.21652510111117274 63:0.2326761443386713 64:0.005715962537029028 65:0.02064913538505514 66:0.00660068005128082 67:0.23077367225237436 68:0.004273895306713254 69:0.010772340361269254 70:0.22823498193933398 71:0.0024303145774650916 72:0.23782119231033072 73:0.22057565945073362 74:0.006716035921080497 75:0.007835171910269648 76:0.004235122657275176 77:0.2411182869813333 78:0.03727938787689567 79:0.009394018873163669 80:0.22760561559325593 81:0.10265781251822273 82:0.008837710022175597 83:0.0030537530362867806 84:0.23959825097329382 85:0.0032959381484730663 86:0.22587288610039907 87:0.23422705197940766 88:0.02353736287829767 89:0.008752742108461399 90:0.06218954127919669 91:0.011934281523377997 92:0.22902182893161252 93:0.23666791907140242 94:0.2403877825552964 95:0.2250415369658848 96:0.007829776070730241 97:0.006314233456925882 98:0.24003248693106521 99:0.002369491376336388 100:0.6963837456512895 
1.0 1.0 1.0 1.0 1.0 1.0 1.0 1:0.6441117265592037 2:0.029828060886322432 3:0.2252861529675233 4:0.6674901774878903 5:0.6907108552568045 6:0.021963845852949155 7:0.6833439098840527 8:0.6467426815003856 9:0.06161042119532934 10:0.008721865750087706 11:0.6759901280913794 12:0.682088620674621 13:0.02565489867191497 14:0.6725366014242654 15:0.630947828366883 16:0.6465144116138446 17:0.6650047590319645 18:0.6431589412991429 19:0.0253541993117091 20:0.025390110181990402 21:0.6657450160377617 22:0.6634017560498883 23:0.6225422720453149 24:0.008816476591934382 25:0.008915861066532289 26:0.044681758524893846 27:0.6464487845974116 28:0.026377353420353356 29:0.6746654605042175 30:0.6601454048178823 31:0.6390943828263301 32:0.6497811609212258 33:0.6679540748312587 34:0.6406425327629519 35:0.6232901730580898 36:0.676943874664398 37:0.6723415616087202 38:0.02191191298905908 39:0.021173982662887225 40:0.6373517305967423 41:0.7174753309224164 42:0.6665373390155453 43:0.032170251849708745 44:0.6531217695067165 45:0.6702292446299505 46:0.6894345043950385 47:0.6501780467306955 48:0.6666864930917884 49:0.034704876648329004 50:0.6681510762701014 51:0.6264232185082029 52:0.02831743012400554 53:0.007053394494562915 54:0.017635185540427926 55:0.013079675493861716 56:0.61760903469163 57:0.6414432305539841 58:0.66791199669023 59:0.6897670481273331 60:0.6630444749312099 61:0.06370102603153886 62:0.6604241341674321 63:0.7104679464446931 64:0.016855719942523394 65:0.056647492745959184 66:0.015631832646949614 67:0.6665164169172346 68:0.015129003470955393 69:0.0316009366935115 70:0.6935187419422519 71:0.020786745379378156 72:0.6700812027526094 73:0.6327011407265518 74:0.02077614580696917 75:0.02217038176157997 76:0.0267109674084663 77:0.6833191372720891 78:0.10148573812855047 79:0.0253843142872937 80:0.6639990512234374 81:0.017544400987800787 82:0.02883002966536131 83:0.008828701377877057 84:0.6394099914798053 85:0.014509853362231385 86:0.6882137273396546 87:0.6577073960425265 88:0.06552909242083346 89:0.027192687625491697 90:0.17998245470673405 91:0.03603929551148237 92:0.6530676611679846 93:0.696299761682237 94:0.6358002376034957 95:0.6633959668249495 96:0.012077573629204695 97:0.018671915098338522 98:0.6598581461752164 99:0.026655554915715658 100:0.013072411281402222 
1.0 0.0 0.0 0.0 0.0 0.0 0.0 1:0.15671256475152587 2:0.006785721144428901 3:0.01664372639328376 4:0.15001455315585346 5:0.1443170932180192 6:0.0049544136442210805 7:0.16122634840711977 8:0.13936364267490858 9:0.013709046055906036 10:0.001917926600730049 11:0.1525744687471856 12:0.1550847909977427 13:0.00556425872120343 14:0.14474507109576534 15:0.1565103225245164 16:0.13938871352421967 17:0.15428523638308728 18:0.14864507970273194 19:0.00567656623018831 20:0.006053378552396393 21:0.15002103917783297 22:0.15810501263224308 23:0.1501909797842352 24:0.001922205908801008 25:0.0017248336294288917 26:0.010248077668782933 27:0.1424918979223382 28:0.0058540406540924465 29:0.15455392121544131 30:0.15892107189147095 31:0.167398221477817 32:0.13908889035026462 33:0.15091327671958848 34:0.15612397636241868 35:0.15151421815710536 36:0.14660721105287194 37:0.15705504681648264 38:0.004997011666846266 39:0.004682647429149082 40:0.14024201961792024 41:0.1482846220228743 42:0.1527438438394137 43:0.0023285583313485798 44:0.15830904115900996 45:0.14320214528182587 46:0.16082835361069 47:0.14573546153454073 48:0.14782009349560316 49:0.006777631332892253 50:0.14578796188436555 51:0.13076464112720612 52:0.0024686819135395803 53:0.0014856704007058447 54:0.004217091440108977 55:0.0029679036894857762 56:0.14461273780349543 57:0.14969983301474607 58:0.15207992578978285 59:0.14108329838137673 60:0.14599135823030585 61:0.016041498969174672 62:0.13394227485954086 63:0.1616610518608823 64:0.004076879556368439 65:0.012626612249977487 66:0.003978406591524446 67:0.15346873046899726 68:0.0029657756989609325 69:0.006266671469664055 70:0.14879894814070085 71:0.002699924890482526 72:0.15994819675831606 73:0.14235802718500895 74:0.004365582210812839 75:0.005423351657304636 76:0.0023635190824885287 77:0.14150006842593454 78:0.023365622182150065 79:0.006534236591128322 80:0.15174602977999496 81:0.3978166639845025 82:0.0021370115528301565 83:0.002813028099069074 84:0.1522278402973846 85:0.0020009056792878615 86:0.14931534490786616 87:0.16102110388971128 88:0.012377204183696052 89:0.006963807715261076 90:0.04009495858220467 91:0.00751965254221349 92:0.15365247390383427 93:0.15427553072598885 94:0.1440750775987588 95:0.14884759055519733 96:0.001751834492040472 97:0.004358934548123801 98:0.13950103130796157 99:0.0014667464865017257 100:0.5502283430245708 
1.0 0.0 0.0 0.0 0.0 0.0 0.0 1:0.29421018218491674 2:0.011322827441706193 3:0.005115025636325453 4:0.2896236396423651 5:0.2870562674326519 6:0.009709136227776373 7:0.2770747526385443 8:0.29691004172900715 9:0.02760360387875601 10:0.003645535272742263 11:0.2968251891127466 12:0.290963690150496 13:0.010883702332045664 14:0.2730997416842005 15:0.2870520870052176 16:0.2611442292682742 17:0.31581268785261374 18:0.28697635936803606 19:0.01148031411886754 20:0.01137029154064352 21:0.27216489899797247 22:0.2889616766440468 23:0.27474542474397395 24:0.0036522663526790573 25:0.003916424427080021 26:0.01906719478808603 27:0.28135194538564634 28:0.010929782491792111 29:0.26459550624708716 30:0.27714835775104835 31:0.26003841484829143 32:0.28417514755234363 33:0.28116289845000003 34:0.2886858907326869 35:0.2767042004011349 36:0.2786471815894155 37:0.2726667940848089 38:0.009724580426752252 39:0.009177272381385609 40:0.2545247777464178 41:0.27077146135399366 42:0.28838695128414993 43:0.003603591932830722 44:0.26769942208069736 45:0.3046664667282459 46:0.29717474316782977 47:0.27112518103636146 48:0.29482407308808156 49:0.015353329781108094 50:0.3085620295538471 51:0.26746591598985775 52:0.0027542717881940777 53:0.0033873112569443265 54:0.00731485386615893 55:0.004999324903997184 56:0.28026631523359447 57:0.28968451366693054 58:0.25285880654499937 59:0.28962240419199003 60:0.28560354429080304 61:0.028729492290593166 62:0.2964588548133344 63:0.32990785729301364 64:0.006792552105024743 65:0.025037474657958338 66:0.005910795435619198 67:0.3099099399016156 68:0.005051037472426798 69:0.014100305712896062 70:0.27705638075240363 71:0.002296412359252109 72:0.2817606575874286 73:0.27453595203689435 74:0.008410040710451422 75:0.009539810159665905 76:0.002363519082488529 77:0.28286958404892026 78:0.043687057592708925 79:0.012080550953215821 80:0.2767301919335006 81:0.32056299063416305 82:0.0026295297850745573 83:0.0033050201655354084 84:0.28673174683871405 85:0.003208872396687443 86:0.26791442044498737 87:0.3151074466045586 88:0.025956955120242015 89:0.012822009742856834 90:0.07417937164912043 91:0.016664905681299035 92:0.258861492671089 93:0.2685497792008467 94:0.26611837539258815 95:0.28116499262003436 96:0.003564299323539272 97:0.00797810879777468 98:0.29525104665011986 99:0.0021237841195314456 100:0.49559778345000494 
1.0 0.0 0.0 0.0 0.0 0.0 0.0 1:0.22380065072807567 2:0.009395785895999082 3:0.0033094958849893327 4:0.21953290014158924 5:0.21601901303304918 6:0.0073261210469401285 7:0.20978678668594422 8:0.20794723691056813 9:0.0205861873318807 10:0.002735058358466991 11:0.20864868673385148 12:0.2032380813752394 13:0.008101692785258015 14:0.23817163649124093 15:0.21515021877992535 16:0.21268605758047893 17:0.21480191358734518 18:0.20465040907695276 19:0.008594769736570007 20:0.008465948013236645 21:0.22708365875609357 22:0.20252510332996418 23:0.2172348220073237 24:0.0035565640585737525 25:0.005546873419758891 26:0.014891921747223692 27:0.2064548227138278 28:0.008944720780123632 29:0.2082956015770269 30:0.23104492016503614 31:0.21799910056820151 32:0.21464092475439966 33:0.21690787946405352 34:0.2182078218258301 35:0.20629892189741045 36:0.20872443558648024 37:0.22408379288171773 38:0.0067289778213606155 39:0.006107674840048565 40:0.21793650794558944 41:0.22087713842606885 42:0.21139485912880798 43:0.004240105933736198 44:0.20104489316640742 45:0.20659838162153835 46:0.21566341509231207 47:0.22062731884075862 48:0.2031208071300715 49:0.010446927873136187 50:0.2218626023983462 51:0.22681011134848558 52:0.005501078834493751 53:0.0029866085703185033 54:0.0058868188146058605 55:0.004004573376124247 56:0.2099827914508357 57:0.21884283016204734 58:0.2064453652582308 59:0.24035157599751547 60:0.22896983339695545 61:0.01956316951947681 62:0.21785284152316028 63:0.21757742469574554 64:0.005819316305786838 65:0.01930815809925156 66:0.004627506764672438 67:0.2146892935711061 68:0.004147883468286896 69:0.009602754118418775 70:0.21119636527040045 71:0.005135497534076892 72:0.21677667187382182 73:0.22378792215851015 74:0.006448649144241561 75:0.007400934014183258 76:0.0033399408636051895 77:0.2254075953082784 78:0.03182629762545659 79:0.008556820184522675 80:0.21734307507666387 81:0.5034349183245409 82:0.003892285698225744 83:0.0033556980144003653 84:0.20286306581440217 85:0.0028287425059681857 86:0.21330506611112907 87:0.19911781499480344 88:0.02007921494333038 89:0.008832586141412987 90:0.060867742916562204 91:0.012274876578475107 92:0.20857856259775637 93:0.21780826712091433 94:0.1964605977403771 95:0.21484077102922575 96:0.0032969805790759054 97:0.006228865372482482 98:0.20775529386792446 99:0.0035279634967895473 100:0.38319627988047006 
1.0 0.0 0.0 0.0 0.0 0.0 0.0 1:0.25194198904250054 2:0.010471253286189077 3:0.005176888911558205 4:0.2367175804044074 5:0.26832595727082925 6:0.007283056643643958 7:0.25437335455633475 8:0.23866828813767887 9:0.02203225993692871 10:0.0033912980327621698 11:0.2313647148607617 12:0.26060709760658823 13:0.010124682074146523 14:0.25631129395571034 15:0.2320994253460177 16:0.25165489921104206 17:0.2557659678252297 18:0.25482018790176025 19:0.009429398018768072 20:0.009456644865411454 21:0.24617729306921327 22:0.2382684710597959 23:0.24713394875681002 24:0.003015818248603262 25:0.0032006802302104913 26:0.016727748986140444 27:0.26078683548340825 28:0.01536427689118044 29:0.23421583243724692 30:0.2752353524475945 31:0.24780048412767744 32:0.2350695497652788 33:0.23637127261895258 34:0.25017079511299123 35:0.23284918841302968 36:0.23725599173593537 37:0.27562948502515355 38:0.007606906298700186 39:0.007226519500856406 40:0.25235920598063444 41:0.2456510248593824 42:0.24382159088390074 43:0.0038454845923642862 44:0.23382384340604165 45:0.2631632502126909 46:0.26270963025406213 47:0.2630918666232603 48:0.24249509417675522 49:0.013264470663104403 50:0.2542930072724962 51:0.24985836957593088 52:0.0031494753775260283 53:0.0030942736824077486 54:0.007370535158263155 55:0.004587426449762804 56:0.20791860536093765 57:0.24797137328242191 58:0.2631653339175977 59:0.2343912661754304 60:0.24626177739491184 61:0.02363148525806414 62:0.24028938496709654 63:0.2655205273032024 64:0.006394893344188056 65:0.020300876943788473 66:0.005236237195184137 67:0.2481300284224968 68:0.004529168617790459 69:0.013042140347827224 70:0.25025442377649115 71:0.005130204607053862 72:0.24110078231608417 73:0.2548670558563104 74:0.007625245023911822 75:0.007825990537655234 76:0.0026582323376889206 77:0.2307302327432522 78:0.0378692533801529 79:0.01043201415710111 80:0.26513289742584717 81:0.48646781423285407 82:0.004492819747302679 83:0.0031687640930656803 84:0.23217871845022917 85:0.002822410023838024 86:0.2269472094682587 87:0.2451202513918479 88:0.021903012209972966 89:0.010951566252183194 90:0.06535330625624984 91:0.013093630292926263 92:0.22909779864035176 93:0.26987411425425184 94:0.2635847050735028 95:0.260799861297913 96:0.0029608020049545405 97:0.006911190168224464 98:0.2671413488678164 99:0.002581944356815154 100:0.370429522826925 
1.0 0.0 1.0 1.0 0.0 0.0 0.40546044060730013 1:0.2563706324092973 2:0.01065326905741251 3:0.0063060893310904545 4:0.28729944450485195 5:0.267865254987412 6:0.008520527465641426 7:0.2633995879229186 8:0.24689571096480462 9:0.022654688453021227 10:0.003525472434953789 11:0.2636451904703215 12:0.2508208714246228 13:0.010209459817431312 14:0.2805248302648688 15:0.24906442034062873 16:0.25248083063495624 17:0.27011234061209105 18:0.2672422251999875 19:0.010045281659909778 20:0.00994757962109458 21:0.2768793298650321 22:0.2561787461295284 23:0.2735370677752885 24:0.004090226103101852 25:0.08325093640686887 26:0.01800995227284362 27:0.25033788993968137 28:0.011260995601997932 29:0.23606675159148938 30:0.2503287305012529 31:0.27669087446754653 32:0.26369100735688 33:0.2613609462180694 34:0.25643210908218306 35:0.24494061725494565 36:0.252013456649082 37:0.2593089901009882 38:0.00931759752341211 39:0.007836812364047995 40:0.25967067991442777 41:0.23911318388378552 42:0.2536683531586806 43:0.003469609749540044 44:0.25538915885743324 45:0.2675988492744755 46:0.2666674545074375 47:0.2613860226857823 48:0.24446812646898325 49:0.013447461991745046 50:0.26179917763532373 51:0.2673287293049112 52:0.003627142113737411 53:0.003157503073626457 54:0.007232083933327514 55:0.005066781965200111 56:0.2692885339602756 57:0.25323349621198693 58:0.2766546915164681 59:0.27134845232001614 60:0.26892801766943014 61:0.02314375464909246 62:0.2630573439510032 63:0.279083353727808 64:0.006122083697811372 65:0.0230987171957139 66:0.0075485600526453015 67:0.2859615844187544 68:0.005352880863916036 69:0.01171679340190756 70:0.2533739546773948 71:0.007548783765563585 72:0.25850453160439335 73:0.24889416362809827 74:0.007927865225305761 75:0.008901616313995948 76:0.004635062939234172 77:0.2505326963223934 78:0.03953040833521068 79:0.011509905283524998 80:0.26743761817879474 81:0.11175509189189765 82:0.004696494112672612 83:0.003423958174055911 84:0.27946381011438015 85:0.008262895438792089 86:0.24699061888144608 87:0.2558374216466578 88:0.025319836440634416 89:0.01101713004696638 90:0.06765596496177691 91:0.015614230047048094 92:0.23775778676679102 93:0.24964408880358954 94:0.2470732815171892 95:0.2736527992320225 96:0.0041319613115851535 97:0.007653676255336658 98:0.2735331635319334 99:0.00323761392232317 100:0.6187956819832173 
1.0 0.0 0.02270622098148577 0.0 0.0 0.0 0.0 1:0.18612579059981477 2:0.00805238391274362 3:0.005124286432841264 4:0.1874365130902744 5:0.18731591422545954 6:0.006597525640232216 7:0.19182911708602335 8:0.19514172283116094 9:0.016361818530053765 10:0.0027213369785438913 11:0.18663343081871606 12:0.18902042600583038 13:0.007240470054406208 14:0.1751484467862211 15:0.2030225931052235 16:0.18021112983121326 17:0.20373831250383678 18:0.1790210449601847 19:0.008468028868285387 20:0.007542493996524918 21:0.2244885507061576 22:0.17700012544034444 23:0.1944365206943214 24:0.0027908377897431667 25:0.0024603692898309197 26:0.01250974724060481 27:0.19076475455037697 28:0.007794113231764184 29:0.18843903464251116 30:0.19905814578548678 31:0.19734478671488964 32:0.189149204537535 33:0.19112862673507983 34:0.1974878102991279 35:0.17752123112935528 36:0.18256000759924132 37:0.18197013789191493 38:0.006020614814560327 39:0.005918954187251976 40:0.17620735559281336 41:0.1877121276617711 42:0.1871497046064315 43:0.0030302886577761386 44:0.17876083159645456 45:0.1951159179193838 46:0.19820796536071453 47:0.17969701402511964 48:0.17624744448633023 49:0.00908745177301441 50:0.19264069149204366 51:0.17506006548938968 52:0.003090652025826524 53:0.002110474589741254 54:0.005047133862846188 55:0.003660777842629803 56:0.18297769524119473 57:0.19078353928116684 58:0.1824677393603324 59:0.17400534798948958 60:0.18765401371484355 61:0.01858723163563222 62:0.18134224743601754 63:0.18542771570732203 64:0.004555641240416794 65:0.01660614125941081 66:0.0044783741866555316 67:0.2026144317379069 68:0.0038115536128911494 69:0.009021674340544506 70:0.19008330963291278 71:0.0023495999557598835 72:0.1788027392438355 73:0.19760827169371256 74:0.005556057136348312 75:0.006085983555241807 76:0.003195490435905749 77:0.19588593887157782 78:0.028797316760127804 79:0.0076582284250800835 80:0.18991891376234069 81:0.056515955395036024 82:0.002850404965409934 83:0.002826861781853699 84:0.18440597708992731 85:0.0028707777358614396 86:0.18598077054135792 87:0.1923390955338133 88:0.01649473648647736 89:0.008162129283640027 90:0.05122196099399521 91:0.010262660042444504 92:0.1805441209896459 93:0.1823932714377889 94:0.1837517157237279 95:0.18442822703867248 96:0.0037607769292315315 97:0.0055181497734897176 98:0.17875198553215937 99:0.0021369729807843804 100:0.8350686886453684 
1.0 0.0 0.0 0.0 0.0 0.0 0.0 1:0.1445475090741686 2:0.006949557350936348 3:0.0038493869737536665 4:0.1457415410685383 5:0.15494217460614465 6:0.004943223428679635 7:0.14417763996777852 8:0.14243126061098935 9:0.013993099732811114 10:0.0030375439053488915 11:0.14838992554687572 12:0.1624310024923125 13:0.005646364838366845 14:0.14924508453111343 15:0.15917332235538112 16:0.15163257077950998 17:0.15003849083440582 18:0.15635210814122716 19:0.005337798987485972 20:0.005608668364364647 21:0.15723264827038205 22:0.14477678215949066 23:0.16048497122893854 24:0.0020076579346720107 25:0.0019733236434977797 26:0.010396481691942861 27:0.15259117552124535 28:0.005810384125606725 29:0.1415404718426394 30:0.14687698839326846 31:0.15211235702811154 32:0.14797939989324177 33:0.15114538177761683 34:0.14531000141515862 35:0.14893732086800787 36:0.14838926311257036 37:0.14788269978497212 38:0.0044339158627850345 39:0.004284996370565925 40:0.1489727199971432 41:0.1550631040779324 42:0.151423760271427 43:0.002055254035870717 44:0.13865646658749545 45:0.16039196811738932 46:0.16877932620691147 47:0.14706047092558366 48:0.13409256378537354 49:0.00743135398551931 50:0.15249439574565657 51:0.1423263522713813 52:0.0022802278070267446 53:0.001675362792079058 54:0.003943427098902016 55:0.0029255298045726616 56:0.14538309885240122 57:0.14665192666938529 58:0.14565043186610907 59:0.15684044854838014 60:0.15566326348310675 61:0.014722882479726846 62:0.1370256389136552 63:0.13966763043440927 64:0.003557900866222917 65:0.012428878818533409 66:0.004020341338810637 67:0.14788284285753708 68:0.002899232242971924 69:0.006473416885803413 70:0.15462080882605259 71:0.0020829598858322627 72:0.14871727880571456 73:0.13913276074183173 74:0.004541657154875663 75:0.005118330624920844 76:0.003344293687214886 77:0.15507785885191744 78:0.0220307612442703 79:0.006260331705283227 80:0.13836115825041276 81:0.4312844925363037 82:0.003328328186369724 83:0.0051272117758273845 84:0.1422916763791455 85:0.007059373195496045 86:0.14118734824753434 87:0.15750473209281418 88:0.014227533283489415 89:0.0061162100795360014 90:0.03935905380457683 91:0.008159967885083262 92:0.1416904498402156 93:0.15836654412207493 94:0.15026613167800074 95:0.142600521788771 96:0.0023706837665217286 97:0.003975496101380459 98:0.14361687420423497 99:0.002364317318947507 100:0.5239704601188863 
1.0 0.0 0.0 0.0 0.0 0.0 0.0 1:0.23555078908193447 2:0.00994330187834486 3:0.007074808624710829 4:0.2447827537622297 5:0.2095024303886363 6:0.006995508958978643 7:0.22090582937482364 8:0.24911978335637652 9:0.01969068002211367 10:0.003051962672955068 11:0.2407314526923983 12:0.22468130031988492 13:0.009467242713308033 14:0.22751298912506543 15:0.2200858571742087 16:0.22140157936001312 17:0.22241246081241162 18:0.21484647782827068 19:0.008915592798259979 20:0.008749552873491391 21:0.2572569105594536 22:0.22426513076124127 23:0.23177818520835 24:0.004346292109214646 25:0.0029493683663404206 26:0.017117658292252362 27:0.21511935695742393 28:0.00892876888269899 29:0.2382293036852553 30:0.2281248310952738 31:0.22947185358392186 32:0.24109174854370077 33:0.20019691737433903 34:0.22668438528243473 35:0.22899053446058015 36:0.23325528950275062 37:0.23010512121248602 38:0.007704942371426739 39:0.0062397387407099455 40:0.2303621374563928 41:0.20664482874963352 42:0.21551110499668358 43:0.0028543320656983615 44:0.22691863587368621 45:0.22632163770488944 46:0.2367724103127507 47:0.2133260546533078 48:0.21392024356997302 49:0.011017585709699745 50:0.23685834391928776 51:0.2277826984014468 52:0.003435906158014041 53:0.002440768985981982 54:0.005982679155692683 55:0.004234423250827895 56:0.2337695233531918 57:0.2234205788787904 58:0.22015371643708387 59:0.22436960211863788 60:0.23197101183058824 61:0.020811591018584447 62:0.21277470124065395 63:0.23752975034105803 64:0.006009985521414413 65:0.02099232532942091 66:0.006096378998077286 67:0.2378335518699715 68:0.0041989810397255285 69:0.0097690972998718 70:0.2040656976871492 71:0.004017122340589688 72:0.21704466842801218 73:0.2179866166277918 74:0.006890097371861515 75:0.007260917388982521 76:0.00337453286170278 77:0.2278665440300437 78:0.035263664676415125 79:0.00919873514327258 80:0.20952913143495197 81:0.36897749971360544 82:0.004296674540243852 83:0.0032942403218354462 84:0.23620995928316582 85:0.003174464931029701 86:0.24364070855620876 87:0.24393974803593976 88:0.022019403575699006 89:0.009189069676320053 90:0.06153209407327045 91:0.013038912457266948 92:0.22919729565024669 93:0.20304657172936613 94:0.21543594275395492 95:0.2258006921769609 96:0.007714518664306466 97:0.006301401902409063 98:0.19890059073054517 99:0.002751353287292386 100:0.4955508483666907 
0.0 0.0 1.0 0.0 0.0 0.0 0.0 1:0.19023513270568235 2:0.008640638769882535 3:0.11811659505581112 4:0.1679596370768653 5:0.17286492806094553 6:0.005378084935241973 7:0.17973563670724785 8:0.17593217557243818 9:0.01439932928499525 10:0.0026202982056498635 11:0.18864746425050113 12:0.1762869219062921 13:0.007343808339057006 14:0.18780160047261382 15:0.1891715624123754 16:0.17613096326658526 17:0.16628401312817268 18:0.1764316237050667 19:0.007227719267304348 20:0.007024372265929007 21:0.20583908166043408 22:0.18097405208781028 23:0.1709192845654959 24:0.0028260380068925303 25:0.0026697279887765452 26:0.011154888964708771 27:0.1708716187211177 28:0.007400104827565672 29:0.17600304689809088 30:0.18928266462107607 31:0.17518809428164608 32:0.18497701357169105 33:0.1699941065383012 34:0.1845110550392638 35:0.1868939957478091 36:0.17152524005825684 37:0.18223964313241092 38:0.006092603844615194 39:0.005191581173152743 40:0.18035029890545176 41:0.18438313964195155 42:0.18791436096075603 43:0.01313679105288561 44:0.17255749324420727 45:0.1708121553757819 46:0.1809054162753679 47:0.16875829374574824 48:0.16662303885396187 49:0.009300677819744316 50:0.1721589516721915 51:0.16913200531623962 52:0.003599835870946294 53:0.0019642814823484286 54:0.00495938807523506 55:0.0033605598656135426 56:0.17422139724840735 57:0.19623416569138583 58:0.18065839874602718 59:0.18432037245084995 60:0.19033875850834592 61:0.018386510267710068 62:0.17333512840648432 63:0.18341025562925972 64:0.004277552504543075 65:0.014620872116294361 66:0.010217544412227868 67:0.18629610890963905 68:0.003735822053506421 69:0.007435232517408313 70:0.17493014762017806 71:0.009546085951462432 72:0.18321904512354156 73:0.16092559347043742 74:0.005459258687385301 75:0.0059920840270317015 76:0.003590995078345488 77:0.1579755396175276 78:0.02623293292304064 79:0.007354208701840603 80:0.1780904379039261 81:0.5509549100283234 82:0.007272218248887048 83:0.009498818394666259 84:0.17504510720165947 85:0.0029193663695912743 86:0.16362458119549686 87:0.17521578560826084 88:0.017868341813081386 89:0.007305371818868472 90:0.04805999404682143 91:0.009613895293113142 92:0.19155099344070362 93:0.17484138345250425 94:0.16844671694585794 95:0.17498005312862328 96:0.012711267961094062 97:0.006958975211830722 98:0.17964777439305182 99:0.0030214255234700844 100:0.22892950403739196 
0.0 0.0 1.0 0.0 0.0 0.0 0.0 1:0.2055259865853621 2:0.00952633476337394 3:0.00353700825511657 4:0.24182039520962614 5:0.23032571091602 6:0.007417047078476457 7:0.21426118128095806 8:0.2118287687621538 9:0.02056370129370575 10:0.0032129400310460733 11:0.222942364821519 12:0.23669514213809087 13:0.008224333278216317 14:0.21981289561646672 15:0.22472101930008914 16:0.23017155938172199 17:0.23529235716501826 18:0.2214018935070344 19:0.009064752965298444 20:0.008735291441272356 21:0.22842468651442305 22:0.21263913065546136 23:0.23260306224553667 24:0.0031627614188145504 25:0.00795151769338792 26:0.014369110627714461 27:0.23273525387043056 28:0.009545310838237247 29:0.21783769765045116 30:0.23811713977130064 31:0.25192557419099204 32:0.23604698564260868 33:0.224974011322814 34:0.23046326827139588 35:0.22662269716058064 36:0.24548779820329727 37:0.22247954308787582 38:0.007108125789629939 39:0.00713437109223989 40:0.21922886960592725 41:0.2252487533515092 42:0.2334606345501472 43:0.011932980721704237 44:0.2127063678827426 45:0.24458067315424523 46:0.24394856480804913 47:0.2349366918711623 48:0.2097727061758707 49:0.010318930522184614 50:0.2120276797125462 51:0.23264305711289668 52:0.0035312263906265764 53:0.002459359280151224 54:0.006164997605086791 55:0.0045459497776039436 56:0.22781304537424915 57:0.2218739675637537 58:0.2123627440582072 59:0.2259790546094546 60:0.2328436188851936 61:0.020453358763243702 62:0.22424121376584266 63:0.2238315155674157 64:0.005806230734414833 65:0.019502189320996087 66:0.005758567989335718 67:0.20863300051956896 68:0.0051687068093047624 69:0.010020791318221573 70:0.2154653796887173 71:0.013746001888832723 72:0.23697992450821528 73:0.21959408811962422 74:0.0069441507160938 75:0.007516389419719424 76:0.0034469136166362657 77:0.2141997114293799 78:0.032469981301920386 79:0.009768689485326127 80:0.22796281502943416 81:0.5299117846445497 82:0.02135529165807125 83:0.002863636141696096 84:0.22091286884112757 85:0.002949046005681123 86:0.20884418074472125 87:0.2257535812329378 88:0.022979524527088558 89:0.010190216149626362 90:0.06645876815308539 91:0.011955386359227492 92:0.23512748409847023 93:0.22919999367372912 94:0.2209897228166439 95:0.23262670456720075 96:0.004685249787865787 97:0.006612723147778599 98:0.20709112956556794 99:0.004250721050653324 100:0.31011433562776725 
1.0 0.0 0.0 0.0 0.0 0.0 0.0 1:0.2192078842903826 2:0.01059801102645196 3:0.004876257685915106 4:0.2511226932340434 5:0.24460406573425147 6:0.008029244864884601 7:0.235533689431931 8:0.2406561235078379 9:0.019672814099068393 10:0.0030126183364165096 11:0.2606900931277382 12:0.2320043023389467 13:0.009577630094597202 14:0.26282995016437344 15:0.22935634723502418 16:0.2339046725924871 17:0.23808407921695676 18:0.22286342484671484 19:0.009253422403903292 20:0.008793006041831334 21:0.23313686352057164 22:0.2348266685873256 23:0.21088091408595014 24:0.0025732399534964877 25:0.0027133991531693383 26:0.016512788934469405 27:0.2005556818192981 28:0.00881925911732238 29:0.24221093177044437 30:0.25579832043382533 31:0.2243899984431624 32:0.24624036788171627 33:0.24974514219392385 34:0.25653031580177343 35:0.24390256510927877 36:0.2496072806106992 37:0.26132032001884253 38:0.006880500570950295 39:0.007190951458830846 40:0.2278930193352448 41:0.21947480282130885 42:0.24573795729911596 43:0.0033274179522846305 44:0.23047744164196896 45:0.2465508228152379 46:0.22981518427899905 47:0.22951574719165344 48:0.22691971714083845 49:0.01142927483565816 50:0.21740129388505686 51:0.2364697175736008 52:0.003313403783295174 53:0.0028139313420248104 54:0.006465440483193156 55:0.004578715203148 56:0.2408033653097551 57:0.2574562209340147 58:0.23479957170373766 59:0.24776078239691096 60:0.2377438214799631 61:0.023006835690536905 62:0.23504007567197716 63:0.2616135126116189 64:0.005690752014916958 65:0.02035853767207996 66:0.005055108072649385 67:0.249081848155476 68:0.004541071076632846 69:0.010866046350616068 70:0.21673085349042004 71:0.004454475874261681 72:0.24194909880960053 73:0.21897909769080365 74:0.006771161651076981 75:0.007952609311117364 76:0.003436015073409263 77:0.22702986537850867 78:0.03740908200603483 79:0.008909302123879007 80:0.25434392604682826 81:0.5167816040786556 82:0.003200720440152029 83:0.005510840989307936 84:0.2307231706288027 85:0.00300928580660577 86:0.22445784773949623 87:0.249218048089222 88:0.02174220543986998 89:0.010188310329103214 90:0.06273190454907276 91:0.012841123166857859 92:0.22342850206522755 93:0.25540141710974024 94:0.2521939460991837 95:0.22715192714403276 96:0.0037063381613862026 97:0.00656714021646917 98:0.2322076742622124 99:0.0028264725138610184 100:0.35486895982613276 
1.0 0.0 0.0 0.0 0.0 0.0 0.0 1:0.30659863882809735 2:0.013344070126611828 3:0.006416633399012179 4:0.299176300279244 5:0.29644159274550874 6:0.011117998928714751 7:0.3008186114693851 8:0.2964883712192407 9:0.026458418175567277 10:0.003808244236332743 11:0.2940795218235642 12:0.27519415039454526 13:0.011620786730495793 14:0.30167578221500335 15:0.3051981902949918 16:0.28126065656144084 17:0.3184140304944351 18:0.30637574598487294 19:0.010835003934438505 20:0.012042252303521671 21:0.2993857217053983 22:0.2972929411582727 23:0.3022166063717904 24:0.0033061525142974286 25:0.003284822492832868 26:0.019599868791329904 27:0.2650724715599942 28:0.011981582407475941 29:0.28868476011635286 30:0.2983278381554193 31:0.2964296070093588 32:0.2921947167528149 33:0.3214893481397638 34:0.2855596477022859 35:0.3002429326147582 36:0.26610287128173366 37:0.31012743698251055 38:0.009496663615059716 39:0.00905777416042507 40:0.2924934268461151 41:0.30397617974149094 42:0.30032469924853 43:0.003091232466503837 44:0.2931522942146907 45:0.2775350119694098 46:0.2830976974986622 47:0.26372363374910873 48:0.2737404068709214 49:0.014005231179275589 50:0.30562131643448603 51:0.2806248382243526 52:0.004407961213703898 53:0.0035083826404760012 54:0.00815016972664398 55:0.0052645655347923 56:0.3150540944476052 57:0.30291921370358954 58:0.29898690174606884 59:0.2699371869544005 60:0.287502060319187 61:0.028137165231119476 62:0.29815970343207887 63:0.2648146497845914 64:0.006878386299234823 65:0.026084280966404777 66:0.005802655773004654 67:0.32704413335104965 68:0.005272859121926375 69:0.013303639635917543 70:0.2734234190789277 71:0.0028275402425601203 72:0.2921102934695384 73:0.30172208636815506 74:0.008377637844317214 75:0.010018014725936704 76:0.003136160073758272 77:0.28327829265846627 78:0.04589111783246581 79:0.010830612919935416 80:0.2794190004563854 81:0.38657495969479366 82:0.0028789387485194332 83:0.00417788819503861 84:0.3123542933256714 85:0.0035508400050592395 86:0.28489142393679556 87:0.27820493235105875 88:0.02878309258668666 89:0.011938235129989028 90:0.07717795611558537 91:0.01599874027882786 92:0.2739509811773525 93:0.2880506273177423 94:0.31061557232569104 95:0.2830204417781142 96:0.0033132066753078647 97:0.0086260486238064 98:0.29543203907575727 99:0.0028277056617535368 100:0.42161476299018014 
1.0 0.0 0.0 0.0 0.0 0.0 0.0 1:0.11521759047819907 2:0.00592226726744068 3:0.822707556620752 4:0.1324952850282068 5:0.12905988798778237 6:0.004392987353979367 7:0.13718303843801577 8:0.11808417491291855 9:0.01075339919465702 10:0.001714598748654206 11:0.12386083981446179 12:0.12362270558128427 13:0.005338451516188662 14:0.13480206548274032 15:0.1276176070212226 16:0.11833505416020988 17:0.12795448846819074 18:0.119386433819218 19:0.004838511413233605 20:0.004864234968442512 21:0.12074544413127701 22:0.12758319437505064 23:0.1257209599299631 24:0.0019450473402536036 25:0.008073483728250116 26:0.00806031576285158 27:0.11366922226720327 28:0.0051952132062187935 29:0.11954744025420871 30:0.13358544374951242 31:0.13017288546403452 32:0.11668544100874464 33:0.15021623635883394 34:0.14030001913164628 35:0.12596755428313344 36:0.12032364208124985 37:0.12812864161117044 38:0.004143469794614373 39:0.0037519988055595126 40:0.13060932879218598 41:0.11753448594259307 42:0.11881705734591679 43:0.01015762921674596 44:0.12426228798912306 45:0.13333808473570033 46:0.13582473868587117 47:0.12137728088302684 48:0.1185478205129662 49:0.00633377591792279 50:0.1311159295392645 51:0.12480583540408034 52:0.005752114664218165 53:0.0014478768796826194 54:0.003310712634494481 55:0.0025695561875729977 56:0.12496576174442321 57:0.1286193601948383 58:0.12754213094515068 59:0.12717535013438266 60:0.12040957103985529 61:0.011623924550588107 62:0.12397449087545839 63:0.12300300138079816 64:0.0030226225228389206 65:0.010844687391018263 66:0.0049190730813149725 67:0.12208853714445915 68:0.0021627400313087766 69:0.005918704521469314 70:0.11998429727922859 71:0.008948404954299284 72:0.11792269924530858 73:0.11739358626082246 74:0.0038638853906247275 75:0.003926811986489945 76:0.005560815871813162 77:0.1242980183152557 78:0.019287222092574538 79:0.004990548433451952 80:0.12063576550460418 81:0.07712671151460658 82:0.015466250186038042 83:0.0017492405369374038 84:0.14070807507591102 85:0.001841481475762898 86:0.12549572187219804 87:0.12252446050123615 88:0.012395083988243403 89:0.004874969248682018 90:0.0315453767137287 91:0.008034449304883253 92:0.13013996287248472 93:0.12746530536501663 94:0.11303011316016133 95:0.12368409830017774 96:0.0035193140687273926 97:0.0037344080847952488 98:0.11982209703205365 99:0.002307935652964282 100:0.011572397080631219 
1.0 0.0 0.0 0.0 0.0 0.0 0.0 1:0.2079119507762687 2:0.008833669406791691 3:0.003986460195430982 4:0.20912943789374402 5:0.20509344490681816 6:0.00691307216401363 7:0.20251323711000177 8:0.20115374120914598 9:0.0182272930407027 10:0.0028166673993819027 11:0.20779058422123384 12:0.2169072668549672 13:0.008280815278650397 14:0.21075074993590281 15:0.21043742337127766 16:0.21275857877091703 17:0.2234527696412614 18:0.1958566216848676 19:0.00833968615688865 20:0.007575074690649409 21:0.20411863278068132 22:0.1971331466114872 23:0.2080347847604706 24:0.0031857419069983403 25:0.0027866425868890406 26:0.01463074400047778 27:0.20381964144541773 28:0.008657472973303751 29:0.2194253177563746 30:0.21048160678209846 31:0.2362096546559167 32:0.21345285877278614 33:0.2145874309721151 34:0.21391362240589498 35:0.20657200188496014 36:0.21149344353983363 37:0.22212838203110544 38:0.007283327989226229 39:0.006193759034156102 40:0.20531073860780238 41:0.2099922030858454 42:0.2128880276073381 43:0.0025976482630223246 44:0.21907135085917698 45:0.20672597980685126 46:0.21573741134360558 47:0.21068107392974217 48:0.20655886826331085 49:0.009998235393750754 50:0.21895522272036932 51:0.21608497171121427 52:0.00255640263086846 53:0.00254373587495037 54:0.006013616016724412 55:0.0038761469450896546 56:0.21530510031035494 57:0.216645670913647 58:0.2173706016502511 59:0.21361665439204874 60:0.20731869134434489 61:0.02036903053822701 62:0.2129885695216052 63:0.20862028229064572 64:0.005682643525437396 65:0.018019194046530088 66:0.005208954640613163 67:0.20311726935394628 68:0.00405176951910208 69:0.01024481678460952 70:0.19592556058585733 71:0.004527535739765033 72:0.21335904357574537 73:0.20275743105890842 74:0.006241296761051526 75:0.007396684012699948 76:0.0028246932300994318 77:0.21218502408653084 78:0.03112940219795092 79:0.008329913381966566 80:0.221313189899259 81:0.38310699808089316 82:0.0034325952327755216 83:0.0029915116934329175 84:0.22517151963915355 85:0.0028440780873720825 86:0.1973412612738108 87:0.20960649942690346 88:0.019676421180237734 89:0.008909816701509952 90:0.0599252590608864 91:0.01162317166371106 92:0.1896040764707512 93:0.20375146874081665 94:0.233483687110126 95:0.2180080908051195 96:0.003650186871071811 97:0.006081817144528179 98:0.20248001046183386 99:0.0035187733460012387 100:0.5065921128701529 
0.0 0.0 1.0 1.0 1.0 0.0 1.0 1:0.16886101916913146 2:0.007838357346727545 3:0.017236177629568823 4:0.17430572249463958 5:0.17932929707990575 6:0.005813714484498519 7:0.16945519578811252 8:0.16755032877456008 9:0.016108479621257735 10:0.0023673410816440737 11:0.18062759003555884 12:0.17471632845941384 13:0.008898749048753448 14:0.1775064883952259 15:0.17822074431783055 16:0.17432895242640484 17:0.18652566249069302 18:0.1772360099651059 19:0.006902246047706279 20:0.00703114175237227 21:0.18819059902713536 22:0.16193879637339212 23:0.17291167039525676 24:0.002925571253036637 25:0.005887964720963524 26:0.011694799951333006 27:0.1769284471261397 28:0.007289748996810755 29:0.18152241499511165 30:0.1745081544436933 31:0.1758829255260259 32:0.16689290729684522 33:0.17487112495231508 34:0.16871744652315793 35:0.17778323111261257 36:0.1704168722064629 37:0.17597561782623466 38:0.005597952270157485 39:0.005101651428159529 40:0.16642316057099393 41:0.16859364858552353 42:0.1708829776341668 43:0.17248006045636569 44:0.1739812499537137 45:0.18499240736585942 46:0.17444292257297156 47:0.17590823236833314 48:0.1745340310512322 49:0.00904814096143221 50:0.17741764055477932 51:0.18036571330956191 52:0.01028513560823745 53:0.0018060803500190034 54:0.004913357905239663 55:0.004692967493117068 56:0.16222730346914846 57:0.1785202084431367 58:0.16925609315816212 59:0.18781280624633212 60:0.178609151576305 61:0.01781490119859131 62:0.16357484774399111 63:0.16797809550479673 64:0.004868189801204227 65:0.015742698154395482 66:0.2704149670097706 67:0.18621050547578002 68:0.003196248668482302 69:0.007977019912271559 70:0.17804110005616897 71:0.005516927932806345 72:0.1759854279280957 73:0.17060315582727545 74:0.005315787678064739 75:0.0055820210897875025 76:0.016912305276112913 77:0.17657459773413733 78:0.027288843709094984 79:0.006962403631953401 80:0.1790767518853532 81:0.04956973407676046 82:0.48023909851982727 83:0.0041912386101183915 84:0.17140636615633378 85:0.00432039913486088 86:0.17217774382748058 87:0.18542487148867295 88:0.01632475325052945 89:0.007788742312597758 90:0.049615247501800956 91:0.009878632722527918 92:0.18178569519489013 93:0.18055757880095907 94:0.17673480105388706 95:0.16754756056499048 96:0.0029158226420161015 97:0.005108851907264806 98:0.15968368703936975 99:0.017671672849979638 100:0.0029716166001864325 
0.0 0.0 1.0 0.0 0.0 0.0 1.0 1:0.27691003878618614 2:0.012426295374367227 3:0.08009689674387548 4:0.2684368454895981 5:0.2796870563342206 6:0.009776361030096162 7:0.2819301508559925 8:0.27636447179732804 9:0.02496462809217866 10:0.0037919467388327363 11:0.27616280318057207 12:0.28061148321000035 13:0.01160120019791397 14:0.2906813605622198 15:0.2715181484096168 16:0.27398309318980246 17:0.2807630642486532 18:0.27510464506840143 19:0.011354902506404333 20:0.010633114762856739 21:0.27641276544585397 22:0.27101206519185106 23:0.2932828272969199 24:0.004368048402522967 25:0.006301288114183815 26:0.017455391816851927 27:0.2760683369418095 28:0.01140836492396327 29:0.2812794986876489 30:0.2843750931259842 31:0.288043140323569 32:0.2951067562560289 33:0.27676695182443384 34:0.26538000362557523 35:0.27530979204466277 36:0.2619257018290205 37:0.31495513279109655 38:0.009366149935659844 39:0.008093768015636181 40:0.2668741384755266 41:0.2975187146848645 42:0.2752292996915642 43:0.006659695547688413 44:0.28450354067178923 45:0.28221842238634065 46:0.2941966640366215 47:0.27001323640381747 48:0.26675215626085896 49:0.01447368993045268 50:0.2843724126327722 51:0.29635034382887365 52:0.011443086412966342 53:0.0028287829410573017 54:0.009500780698881654 55:0.005334419542779112 56:0.28335768945630757 57:0.308081184954259 58:0.293826976812508 59:0.29059632661099494 60:0.2868292878031862 61:0.026311784953227186 62:0.2998268273103355 63:0.29780131052244585 64:0.007279637053858102 65:0.023266035812593695 66:0.021220285211778583 67:0.2722580954074725 68:0.005854263509132992 69:0.013580933430694199 70:0.2693262621739425 71:0.007397749842959194 72:0.2964479566657365 73:0.27866308718009775 74:0.00896005677871054 75:0.009294748301471551 76:0.00720806197078099 77:0.26755117626976627 78:0.03908771743070266 79:0.011436778544486133 80:0.27804556294736243 81:0.41420725166458094 82:0.11200833802409046 83:0.006168178830883621 84:0.27736908427581375 85:0.006170166137332086 86:0.27239082068411763 87:0.29044948176207447 88:0.026956990963310595 89:0.01138659251585365 90:0.07264093415295347 91:0.015576598193944741 92:0.27325576140790203 93:0.2911727259619348 94:0.28521632289532456 95:0.26412004416604157 96:0.0034081687811189656 97:0.007821104586358657 98:0.28061834931320295 99:0.16857768894892497 100:0.010007215333165356 
