svm_type c_svc
kernel_type linear
nr_class 8
total_sv 1452
rho -1.009651668269894 -0.3873563655613124 -1.1716394589652874 -0.761008820101708 0.42991800611010156 0.41619467198385457 -0.7820492177873103 0.8618232850658786 -0.22658788407938696 0.6529338426415476 0.9738723104212172 0.9702332746212968 0.8074892539793326 -0.929702436707125 -0.4685691510605609 0.4573111882167891 0.46564200308803144 -0.7994330072535899 0.9491057640715732 1.0996434979232939 1.0019193398758608 0.9320398263196645 1.0570846537254568 0.685151672898418 -0.18217832086566152 -0.013355499951630935 -0.7490134379453739 -0.8442019324896503
label 0 2 3 5 4 7 6 1
nr_sv 154 104 260 89 166 249 159 271
SV
0.0 0.0 0.2636655026152618 0.0 0.0 0.0 0.0 29:0.051724137931034475 34:0.05405405405405405 35:0.022222222222222223 45:0.06818181818181818 54:0.032679738562091505 66:0.03125 69:0.06976744186046512 76:0.016666666666666666 86:0.06315789473684211 110:0.23529411764705885 116:0.08928571428571429 126:0.007246376811594203 141:0.007874015748031496 155:0.020833333333333336 169:0.02380952380952381 213:0.09999999999999999 228:0.008547008547008546 233:0.06 239:0.0736842105263158 257:0.31818181818181823 281:0.045454545454545456 288:0.19999999999999998 295:0.015384615384615385 303:0.014285714285714285 312:0.024096385542168676 324:0.03571428571428572 352:0.01142857142857143 353:0.0813953488372093 380:0.09803921568627452 381:0.01098901098901099 388:0.15151515151515152 390:0.047619047619047616 412:0.09090909090909091 415:0.01234567901234568 460:0.25 469:0.19047619047619047 487:0.4473684210526316 492:0.09090909090909091 505:0.039473684210526314 508:0.03529411764705882 514:0.008278145695364237 525:0.07142857142857142 534:0.07692307692307691 542:0.16666666666666666 564:0.01694915254237288 565:0.9 572:0.28571428571428575 576:0.25 601:0.1281150441037357 602:0.01603725331975169 603:0.18398750909975958 604:0.20617076963696343 605:0.532027369653573 606:0.03619553881824281 607:0.334360976214478 608:0.49456795538946025 609:0.018760741821730514 610:0.2633449500449795 
1.0 0.0 0.0 0.0 0.0 0.0 0.0 17:0.045454545454545456 22:0.0099009900990099 29:0.1293103448275862 35:0.044444444444444446 46:0.15476190476190477 48:0.046875 72:0.00892857142857143 78:0.11016949152542373 93:0.012820512820512822 94:0.1 112:0.043478260869565216 126:0.028985507246376812 131:0.005319148936170213 132:0.03225806451612904 134:0.0065359477124183 138:0.058823529411764705 141:0.04724409448818898 149:0.009174311926605503 158:0.02631578947368421 160:0.02702702702702703 173:0.02702702702702703 198:0.017543859649122806 203:0.03571428571428571 233:0.04 245:0.012658227848101266 272:0.018181818181818184 296:0.04 302:0.09302325581395349 307:0.010204081632653062 315:0.007462686567164179 329:0.011494252873563218 337:0.043478260869565216 375:0.06382978723404255 382:0.021052631578947368 395:0.007575757575757576 400:0.17647058823529413 405:0.001841620626151013 419:0.01020408163265306 445:0.020833333333333332 457:0.03278688524590164 469:0.023809523809523808 477:0.02777777777777778 487:0.026315789473684213 494:0.11627906976744187 496:0.013157894736842105 505:0.2368421052631579 507:0.015384615384615385 508:0.10588235294117647 510:0.013888888888888888 537:0.05714285714285714 562:0.04347826086956522 564:0.05084745762711864 571:0.010869565217391304 601:0.08453800638843041 602:0.095594695692434 603:0.1369492006994303 604:0.02885615217606814 605:0.5064109663340256 606:0.13006102291059338 607:0.4340714538041828 608:0.502497587010864 609:0.1452123640236505 610:0.13392406979361582 
0.0 0.0 0.17841630615628962 0.0 0.0 0.0 0.0 30:0.21052631578947367 34:0.08108108108108107 46:0.011904761904761904 110:0.08823529411764706 116:0.01785714285714286 126:0.050724637681159424 132:0.06451612903225808 138:0.058823529411764705 141:0.043307086614173235 213:0.09999999999999999 239:0.11578947368421053 240:0.3333333333333333 241:0.00980392156862745 257:0.09090909090909091 258:0.008968609865470852 265:0.018633540372670808 275:0.05194805194805195 282:0.04347826086956522 295:0.015384615384615385 316:0.0410958904109589 324:0.03571428571428572 352:0.005714285714285715 394:0.008130081300813007 406:0.022222222222222223 460:0.25 492:0.09090909090909091 505:0.039473684210526314 508:0.07058823529411765 514:0.009933774834437087 518:0.05050505050505051 525:0.07142857142857142 542:0.16666666666666666 572:0.28571428571428575 577:0.12 587:0.009615384615384616 601:0.1332433244642877 602:0.049424870558732466 603:0.18397221154712104 604:0.09212798744080317 605:0.3282354296532179 606:0.12497115984274454 607:0.2747199464289768 608:0.7592327039279018 609:0.03662394616950187 610:0.2810554525863672 
1.0 0.0 0.0 0.0 0.0 0.0 0.0 26:0.005681818181818182 29:0.051724137931034475 66:0.1875 69:0.011627906976744186 70:0.020833333333333336 72:0.07142857142857144 77:0.25 103:0.5 132:0.22580645161290325 135:0.057692307692307696 138:0.11764705882352941 141:0.1968503937007874 169:0.011904761904761906 202:0.05263157894736842 213:0.09999999999999999 233:0.02 255:0.02127659574468085 257:0.022727272727272728 258:0.004484304932735426 281:0.13636363636363638 282:0.08695652173913045 296:0.02 302:0.023255813953488372 312:0.006024096385542169 313:0.024096385542168676 318:0.052631578947368425 324:0.03571428571428572 340:0.018867924528301886 353:0.023255813953488372 390:0.14285714285714285 440:0.016129032258064516 460:0.25 490:0.1276595744680851 491:0.058823529411764705 492:0.09090909090909091 505:0.013157894736842106 508:0.047058823529411764 514:0.0033112582781456954 525:0.07142857142857142 533:0.024390243902439025 542:0.16666666666666666 557:0.06976744186046513 572:0.28571428571428575 576:0.375 592:0.05555555555555556 601:0.14483020276805744 602:0.045798274882538334 603:0.144484549054385 604:0.10275457230757656 605:0.5415000898305257 606:0.14187539333329086 607:0.38849130721281633 608:0.46959966121602087 609:0.08970067070696087 610:0.15210398426301225 
1.0 0.0 0.0 0.0 0.0 0.0 0.0 9:0.09090909090909091 11:0.13809523809523808 29:0.06034482758620689 34:0.08108108108108107 45:0.022727272727272728 48:0.0625 58:0.01515151515151515 66:0.03125 69:0.011627906976744186 72:0.0625 76:0.02222222222222222 86:0.010526315789473684 116:0.10714285714285715 126:0.050724637681159424 132:0.06451612903225808 138:0.11764705882352941 141:0.14173228346456693 173:0.08108108108108109 184:0.058823529411764705 213:0.09999999999999999 216:0.07692307692307693 232:0.011904761904761906 255:0.06382978723404255 257:0.022727272727272728 258:0.004484304932735426 281:0.045454545454545456 295:0.015384615384615385 302:0.046511627906976744 304:0.30769230769230765 324:0.03571428571428572 337:0.08695652173913043 353:0.12790697674418605 381:0.054945054945054944 390:0.14285714285714285 400:0.05882352941176471 406:0.011111111111111112 460:0.25 469:0.047619047619047616 487:0.052631578947368425 492:0.09090909090909091 494:0.023255813953488372 505:0.013157894736842106 507:0.03076923076923077 508:0.12941176470588234 511:0.07142857142857144 513:0.10810810810810811 525:0.07142857142857142 529:0.041666666666666664 533:0.024390243902439025 540:0.1111111111111111 542:0.16666666666666666 572:0.28571428571428575 582:0.125 587:0.009615384615384616 596:0.008196721311475409 598:0.006369426751592356 601:0.04305830606656915 602:0.04441253451018202 603:0.10330625142173248 604:0.08059454802076225 605:0.7313741168815947 606:0.12589753506752177 607:0.3922033010705376 608:0.7378442776439814 609:0.07217331064068001 610:0.13455945209012538 
0.0 0.0 0.0 0.0 0.3242250759044013 0.0 0.0 4:0.25 15:0.012987012987012986 26:0.03977272727272727 28:0.02531645569620253 35:0.022222222222222223 78:0.00847457627118644 115:0.026785714285714288 130:0.0060975609756097554 141:0.007874015748031496 149:0.009174311926605503 196:0.027210884353741496 209:0.01801801801801802 219:0.02380952380952381 241:0.0392156862745098 243:0.04166666666666667 254:0.03125 258:0.013452914798206279 260:0.014492753623188406 282:0.04347826086956522 293:0.03181818181818182 345:0.046511627906976744 382:0.052631578947368425 444:0.02127659574468085 445:0.020833333333333332 451:0.016129032258064516 455:0.003952569169960474 475:0.024096385542168676 476:0.0125 487:0.026315789473684213 494:0.5348837209302326 501:0.02380952380952381 503:0.07894736842105263 510:0.08333333333333333 513:0.013513513513513514 533:0.024390243902439025 549:0.007936507936507936 594:0.03571428571428571 601:0.12699080972344332 602:0.27510533778147284 603:0.1262524589445435 604:0.1117804548796857 605:0.14048549944471872 606:0.20767603129739473 607:0.17509982641316632 608:0.28013756572178844 609:0.10055599439874122 610:0.054772970575086025 
1.0 0.0 1.0 0.0 0.0 0.0 0.0 11:0.03809523809523809 15:0.03896103896103896 17:0.045454545454545456 29:0.025862068965517238 46:0.08333333333333333 63:0.01639344262295082 72:0.00892857142857143 78:0.050847457627118633 93:0.012820512820512822 96:0.09523809523809525 115:0.008928571428571428 126:0.007246376811594203 131:0.005319148936170213 132:0.03225806451612904 138:0.08823529411764705 141:0.1968503937007874 149:0.009174311926605503 160:0.05405405405405406 173:0.02702702702702703 202:0.02631578947368421 203:0.03571428571428571 232:0.02380952380952381 233:0.04 241:0.00980392156862745 257:0.045454545454545456 260:0.014492753623188406 281:0.022727272727272728 282:0.04347826086956522 288:0.06666666666666667 293:0.08636363636363636 296:0.02 299:0.06666666666666667 302:0.023255813953488372 309:0.00909090909090909 312:0.01807228915662651 315:0.007462686567164179 329:0.06896551724137931 345:0.023255813953488372 368:0.047619047619047616 373:0.125 375:0.02127659574468085 394:0.016260162601626015 413:0.007633587786259542 419:0.01020408163265306 445:0.10416666666666667 457:0.01639344262295082 468:0.0125 469:0.023809523809523808 471:0.005681818181818181 475:0.024096385542168676 492:0.09090909090909091 494:0.046511627906976744 496:0.039473684210526314 503:0.02631578947368421 505:0.013157894736842106 508:0.09411764705882353 511:0.07142857142857144 513:0.013513513513513514 514:0.008278145695364237 521:0.13008130081300812 522:0.23529411764705882 523:0.012987012987012988 533:0.07317073170731708 561:0.024390243902439025 569:0.003968253968253968 571:0.11956521739130432 590:0.05555555555555555 592:0.01388888888888889 596:0.016393442622950817 601:0.21203286576878208 602:0.3259929727652433 603:0.2614351229877449 604:0.0360993677825233 605:0.6465368503054786 606:0.10472751205867263 607:0.5720981855392148 608:0.5669641684161105 609:0.14597254076418925 610:0.17992536647329316 
0.0 0.0 0.0 0.0 0.19605095568094966 0.7579621310864789 0.0 29:0.008620689655172414 34:0.2162162162162162 50:0.07042253521126761 112:0.043478260869565216 207:0.03571428571428571 295:0.010256410256410258 324:0.03571428571428572 390:0.047619047619047616 406:0.011111111111111112 460:0.25 494:0.023255813953488372 508:0.023529411764705882 518:0.04040404040404041 525:0.07142857142857142 540:0.037037037037037035 542:0.16666666666666666 576:0.125 601:0.0021360616688336476 602:2.352208903490587E-4 603:0.01400088496673223 604:0.02924991159991234 605:0.1611143999918208 606:1.9029356171005799E-4 607:0.024019304379143673 608:0.2663203468926115 609:1.8356467601692947E-4 610:0.025208686317068622 
1.0 0.0 0.0 0.0 0.0 0.0 0.0 23:0.049999999999999996 34:0.027027027027027025 50:0.028169014084507043 69:0.01744186046511628 76:0.005555555555555555 88:0.052631578947368425 116:0.03571428571428572 120:0.009523809523809523 126:0.10869565217391304 127:0.009615384615384616 131:0.005319148936170213 132:0.03225806451612904 135:0.019230769230769232 138:0.11764705882352941 141:0.05905511811023623 158:0.013157894736842105 169:0.04761904761904762 173:0.10810810810810811 207:0.03571428571428571 231:0.06557377049180328 233:0.14 255:0.0425531914893617 257:0.06818181818181818 260:0.07246376811594203 282:0.04347826086956522 296:0.13999999999999999 304:0.03846153846153846 307:0.020408163265306124 312:0.006024096385542169 316:0.0136986301369863 320:0.04 324:0.03571428571428572 336:0.052631578947368425 337:0.08695652173913043 349:0.008620689655172414 353:0.011627906976744186 375:0.02127659574468085 388:0.015151515151515152 390:0.047619047619047616 406:0.08888888888888889 423:0.13043478260869568 460:0.25 469:0.023809523809523808 472:0.012396694214876032 492:0.09090909090909091 494:0.023255813953488372 499:0.047619047619047616 505:0.013157894736842106 508:0.03529411764705882 518:0.020202020202020204 525:0.07142857142857142 529:0.041666666666666664 533:0.04878048780487805 542:0.16666666666666666 570:0.034482758620689655 576:0.125 592:0.05555555555555556 598:0.006369426751592356 601:0.04953569281537117 602:0.01617929382368152 603:0.05504040922432002 604:0.043266695231216415 605:0.49858598100448615 606:0.012581846371454557 607:0.6564659436007648 608:0.6431137809745222 609:0.018680306621108447 610:0.0838341988506081 
1.0 0.0 0.0 0.0 0.0 0.0 0.0 12:0.0851063829787234 29:0.025862068965517238 34:0.27027027027027023 37:0.020833333333333336 50:0.04225352112676056 66:0.09375 72:0.00892857142857143 86:0.12631578947368421 112:0.2318840579710145 116:1.0 126:0.014492753623188406 138:0.14705882352941177 141:0.011811023622047246 202:0.02631578947368421 207:0.03571428571428571 233:0.02 255:0.10638297872340426 257:0.2272727272727273 272:0.018181818181818184 312:0.006024096385542169 316:0.0410958904109589 324:0.03571428571428572 329:0.011494252873563218 353:0.13953488372093023 393:0.3333333333333333 406:0.28888888888888886 460:0.25 469:0.023809523809523808 483:0.14285714285714288 492:0.09090909090909091 494:0.023255813953488372 507:0.015384615384615385 518:0.010101010101010102 525:0.07142857142857142 561:0.04878048780487805 564:0.01694915254237288 569:0.003968253968253968 572:0.14285714285714288 576:0.125 596:0.008196721311475409 601:0.03712956858108979 602:0.13359586650815655 603:0.06084802052249965 604:0.04532572766092754 605:0.5919899676995123 606:0.042494094321383936 607:0.287740774782131 608:0.5163985903443689 609:0.05132396076167342 610:0.0787115395355161 
0.3186020020152019 0.0 0.0 0.0 0.0 0.0 0.0 17:0.045454545454545456 29:0.08620689655172414 48:0.296875 54:0.006535947712418301 72:0.00892857142857143 76:0.005555555555555555 77:0.08333333333333333 83:0.017857142857142856 86:0.010526315789473684 94:0.06666666666666667 112:0.014492753623188406 126:0.2536231884057971 131:0.01595744680851064 132:0.03225806451612904 138:0.058823529411764705 141:0.10236220472440946 173:0.05405405405405406 202:0.10526315789473684 207:0.03571428571428571 233:0.04 255:0.10638297872340426 257:0.06818181818181818 258:0.008968609865470852 260:0.014492753623188406 294:0.016129032258064516 295:0.005128205128205129 299:0.13333333333333333 302:0.18604651162790697 304:0.11538461538461538 312:0.030120481927710843 316:0.0136986301369863 324:0.03571428571428572 329:0.011494252873563218 381:0.01098901098901099 393:0.5833333333333334 406:0.2777777777777778 460:0.25 462:0.026315789473684213 483:0.14285714285714288 491:0.17647058823529413 492:0.09090909090909091 494:0.06976744186046512 505:0.013157894736842106 514:0.0016556291390728477 518:0.010101010101010102 525:0.07142857142857142 533:0.024390243902439025 542:0.16666666666666666 572:0.28571428571428575 576:0.125 587:0.009615384615384616 601:0.1572861706772017 602:0.05373891490798902 603:0.1843047843899553 604:0.08621983671772873 605:0.5905098600929773 606:0.12989353573745713 607:0.4402607865784393 608:0.7205588880835408 609:0.0907837079117206 610:0.24559784474806937 
1.0 0.0 0.28700145230419477 0.0 0.0 0.44818146052197866 0.0 6:0.013157894736842106 11:0.0047619047619047615 25:0.02631578947368421 35:0.022222222222222223 51:0.022727272727272728 63:0.01639344262295082 77:0.16666666666666666 94:0.1 114:0.0053475935828877 138:0.029411764705882353 169:0.011904761904761906 173:0.05405405405405406 207:0.07142857142857142 211:0.02564102564102564 213:0.5 219:0.011904761904761906 232:0.011904761904761906 233:0.38 241:0.00980392156862745 242:0.04347826086956522 245:0.012658227848101266 288:0.06666666666666667 302:0.023255813953488372 304:0.07692307692307691 324:0.03571428571428572 349:0.08620689655172414 351:0.07692307692307693 363:0.06666666666666667 368:0.047619047619047616 373:0.0625 379:0.012195121951219513 380:0.019607843137254905 382:0.021052631578947368 390:0.09523809523809523 402:0.13362068965517243 460:0.25 469:0.047619047619047616 472:0.07438016528925619 483:0.14285714285714288 492:0.18181818181818182 494:0.023255813953488372 507:0.015384615384615385 508:0.023529411764705882 510:0.013888888888888888 518:0.010101010101010102 525:0.07142857142857142 542:0.16666666666666666 557:0.046511627906976744 561:0.024390243902439025 562:0.08695652173913045 572:0.28571428571428575 596:0.008196721311475409 601:0.05756102189309099 602:0.06261366335161898 603:0.05237730745166973 604:0.0630569791161428 605:0.2703045529681727 606:0.041807075726895085 607:0.2884361711476762 608:0.17971850876838852 609:0.062383862766763915 610:0.11633582739537195 
0.0 0.0 0.6308277665009882 0.0 0.0 0.0 0.0 11:0.023809523809523808 37:0.020833333333333336 46:0.07142857142857142 63:0.01639344262295082 78:0.00847457627118644 89:0.04672897196261682 112:0.043478260869565216 116:0.01785714285714286 126:0.04347826086956522 130:0.04268292682926829 133:0.012658227848101264 138:0.058823529411764705 139:0.0625 141:0.015748031496062992 203:0.07142857142857142 207:0.03571428571428571 219:0.02380952380952381 239:0.010526315789473684 254:0.0625 255:0.02127659574468085 258:0.004484304932735426 260:0.014492753623188406 282:0.04347826086956522 289:0.0196078431372549 293:0.09545454545454546 295:0.010256410256410258 316:0.0136986301369863 324:0.03571428571428572 330:0.008620689655172414 338:0.010638297872340425 340:0.03773584905660377 406:0.022222222222222223 445:0.08333333333333333 455:0.003952569169960474 460:0.25 464:0.11111111111111112 467:0.01818181818181818 483:0.14285714285714288 494:0.023255813953488372 500:0.04 501:0.011904761904761906 505:0.039473684210526314 508:0.047058823529411764 518:0.010101010101010102 525:0.07142857142857142 533:0.04878048780487805 542:0.16666666666666666 558:0.030303030303030304 561:0.024390243902439025 562:0.04347826086956522 564:0.03389830508474576 572:0.14285714285714288 576:0.125 587:0.028846153846153848 594:0.017857142857142856 601:0.14718814816402812 602:0.19538724087601642 603:0.1689716703585229 604:0.09626168922695683 605:0.358605555350935 606:0.1734704287216172 607:0.36278426790194196 608:0.75807841969759 609:0.07103401824308934 610:0.24652874824618326 
1.0 0.0 0.22551808630327486 0.0 0.0 0.0 0.0 34:0.05405405405405405 35:0.022222222222222223 43:0.008264462809917356 77:0.08333333333333333 94:0.03333333333333333 112:0.2753623188405797 114:0.0053475935828877 126:0.014492753623188406 138:0.14705882352941177 198:0.017543859649122806 202:0.02631578947368421 207:0.03571428571428571 255:0.10638297872340426 257:0.06818181818181818 281:0.045454545454545456 295:0.010256410256410258 316:0.0684931506849315 324:0.03571428571428572 353:0.313953488372093 390:0.047619047619047616 406:0.03333333333333333 415:0.40740740740740744 440:0.016129032258064516 445:0.020833333333333332 460:0.25 469:0.16666666666666666 483:0.14285714285714288 492:0.09090909090909091 494:0.023255813953488372 499:0.047619047619047616 508:0.1411764705882353 518:0.05050505050505051 525:0.07142857142857142 572:0.14285714285714288 583:0.0392156862745098 601:0.020250002947858187 602:0.045708028739525466 603:0.14331729855170827 604:0.04846693514270016 605:0.3214647944755612 606:0.023077839838229943 607:0.18028497592479514 608:0.4334283798706526 609:0.024421784508706103 610:0.08076932450676524 
0.0 0.0 0.23416833481175714 0.0 0.0 0.0 0.0 50:0.1267605633802817 70:0.020833333333333336 112:0.014492753623188406 126:0.02173913043478261 138:0.029411764705882353 173:0.08108108108108109 207:0.03571428571428571 239:0.010526315789473684 255:0.1702127659574468 272:0.07272727272727274 295:0.015384615384615385 304:0.03846153846153846 307:0.051020408163265314 312:0.08433734939759037 324:0.03571428571428572 330:0.004310344827586207 390:0.047619047619047616 406:0.2222222222222222 445:0.020833333333333332 460:0.25 483:0.14285714285714288 492:0.18181818181818182 494:0.023255813953488372 508:0.03529411764705882 514:0.0033112582781456954 518:0.05050505050505051 525:0.07142857142857142 533:0.024390243902439025 572:0.14285714285714288 576:0.125 601:0.1083596789621517 602:0.05555388814103643 603:0.14113064540597658 604:0.04593535599717973 605:0.1755017519032631 606:0.01808835738794722 607:0.17314778586758128 608:0.47368992649963554 609:0.005940213866469813 610:0.1596070855564005 
1.0 0.0 0.0 0.0 0.0 0.0 0.0 21:0.015873015873015872 23:0.25 29:0.08620689655172414 45:0.022727272727272728 50:0.14084507042253522 54:0.006535947712418301 69:0.005813953488372093 77:0.08333333333333333 112:0.2898550724637681 116:0.10714285714285715 126:0.02173913043478261 138:0.029411764705882353 139:0.0625 141:0.08661417322834647 169:0.04761904761904762 173:0.13513513513513514 202:0.02631578947368421 207:0.03571428571428571 233:0.02 239:0.021052631578947368 252:0.1111111111111111 255:0.02127659574468085 281:0.022727272727272728 295:0.015384615384615385 296:0.13999999999999999 304:0.11538461538461538 312:0.006024096385542169 316:0.0273972602739726 324:0.03571428571428572 353:0.011627906976744186 378:0.1 380:0.019607843137254905 387:0.06976744186046512 390:0.047619047619047616 406:0.2222222222222222 423:0.021739130434782608 460:0.25 483:0.14285714285714288 492:0.09090909090909091 494:0.023255813953488372 507:0.015384615384615385 508:0.011764705882352941 514:0.004966887417218543 518:0.010101010101010102 525:0.07142857142857142 529:0.125 533:0.024390243902439025 557:0.046511627906976744 572:0.14285714285714288 576:0.125 600:0.027027027027027025 601:0.1299272018939858 602:0.018683622173966453 603:0.13192933079261474 604:0.04910922009602933 605:0.5008974165737453 606:0.012700747911804564 607:0.40688782435434345 608:0.5719494132316997 609:0.03909236427020752 610:0.20069899478685957 
1.0 0.0 0.0 0.0 0.0 0.0 0.0 15:0.012987012987012986 23:0.049999999999999996 26:0.005681818181818182 50:0.056338028169014086 57:0.021739130434782608 69:0.005813953488372093 76:0.01111111111111111 77:0.08333333333333333 78:0.00847457627118644 94:0.06666666666666667 103:0.07142857142857144 131:0.005319148936170213 132:0.06451612903225808 138:0.029411764705882353 173:0.02702702702702703 196:0.006802721088435374 207:0.03571428571428571 232:0.02380952380952381 235:0.7857142857142858 241:0.00980392156862745 255:0.0425531914893617 272:0.07272727272727274 295:0.005128205128205129 303:0.04285714285714286 304:0.11538461538461538 316:0.0273972602739726 324:0.03571428571428572 336:0.1754385964912281 365:0.022727272727272728 381:0.01098901098901099 390:0.14285714285714285 423:0.043478260869565216 460:0.25 462:0.026315789473684213 469:0.023809523809523808 472:0.004132231404958678 483:0.14285714285714288 492:0.18181818181818182 494:0.06976744186046512 501:0.011904761904761906 505:0.026315789473684213 508:0.36470588235294116 518:0.010101010101010102 525:0.07142857142857142 566:0.01818181818181818 572:0.14285714285714288 576:0.125 578:0.29411764705882354 601:0.04557228785799366 602:0.09312582967741845 603:0.050605738004974636 604:0.09877424183805358 605:0.21801018487013843 606:0.029442489252749785 607:0.26682624110741393 608:0.31412404543458383 609:0.03221706480173046 610:0.17975328903063018 
1.0 1.0 1.0 1.0 1.0 1.0 1.0 2:0.025974025974025976 8:0.024390243902439025 11:0.0047619047619047615 15:0.03896103896103896 63:0.01639344262295082 78:0.025423728813559317 89:0.018691588785046728 94:0.03333333333333333 113:0.011627906976744186 128:0.05555555555555556 141:0.007874015748031496 149:0.018348623853211007 196:0.013605442176870748 202:0.05263157894736842 232:0.02380952380952381 243:0.04166666666666667 246:0.019230769230769232 258:0.004484304932735426 293:0.14545454545454545 300:0.011111111111111112 330:0.004310344827586207 345:0.023255813953488372 373:0.015625 406:0.011111111111111112 407:0.014598540145985401 411:0.27272727272727276 445:0.020833333333333332 450:0.03571428571428572 455:0.015810276679841896 464:0.11111111111111112 467:0.03636363636363636 476:0.0125 483:0.14285714285714288 492:0.09090909090909091 494:0.023255813953488372 495:0.008620689655172414 500:0.04 513:0.05405405405405406 514:0.004966887417218543 517:0.018867924528301886 518:0.010101010101010102 526:0.008264462809917356 549:0.007936507936507936 558:0.007575757575757576 569:0.007936507936507936 572:0.14285714285714288 596:0.008196721311475409 601:0.30061435589243296 602:0.3938073785689266 603:0.15053287525742506 604:0.2432984795710614 605:0.19794506770842119 606:0.2611230385982833 607:0.18261087448570335 608:0.3218473982451501 609:0.23716278788530754 610:0.13227539024632032 
1.0 0.0 0.0 0.0 0.0 0.0 0.0 23:0.049999999999999996 43:0.008264462809917356 50:0.028169014084507043 76:0.03333333333333333 116:0.07142857142857144 126:0.036231884057971016 138:0.029411764705882353 141:0.02755905511811024 158:0.013157894736842105 165:0.09999999999999999 169:0.02380952380952381 173:0.08108108108108109 180:0.09638554216867469 225:0.029411764705882353 233:0.02 255:0.0425531914893617 260:0.014492753623188406 296:0.04 304:0.11538461538461538 316:0.0410958904109589 337:0.043478260869565216 379:0.024390243902439025 390:0.19047619047619047 406:0.044444444444444446 423:0.021739130434782608 483:0.14285714285714288 492:0.09090909090909091 494:0.023255813953488372 501:0.011904761904761906 508:0.07058823529411765 518:0.020202020202020204 529:0.041666666666666664 572:0.14285714285714288 583:0.0392156862745098 587:0.019230769230769232 601:0.024063488167313386 602:0.010723178331553417 603:0.07135321930040772 604:0.017992424623403218 605:0.2795036421378381 606:0.003299132056309942 607:0.3987919160360845 608:0.4657545679366921 609:0.004742563647582299 610:0.0755270258446206 
0.0 0.0 1.0 1.0 1.0 1.0 0.0 89:0.009345794392523364 94:0.03333333333333333 128:0.02777777777777778 219:0.03571428571428571 237:0.006369426751592357 239:0.010526315789473684 243:0.08333333333333334 260:0.014492753623188406 276:0.021739130434782608 289:0.0196078431372549 293:0.12272727272727273 312:0.012048192771084338 345:0.023255813953488372 411:0.02272727272727273 445:0.08333333333333333 455:0.011857707509881424 483:0.14285714285714288 494:0.023255813953488372 498:0.037037037037037035 500:0.04 514:0.0016556291390728477 518:0.010101010101010102 533:0.024390243902439025 539:0.022222222222222223 558:0.007575757575757576 562:0.04347826086956522 572:0.14285714285714288 587:0.009615384615384616 601:0.1749472895320827 602:0.17030609283042736 603:0.15559390370870518 604:0.009603363832933235 605:0.027852662177267746 606:0.049470186926693055 607:0.06413430710659819 608:0.2880054716469114 609:0.018137242247096428 610:0.17869370851690042 
0.6494534259540957 0.0 0.0 0.0 0.0 0.0 0.0 21:0.031746031746031744 45:0.022727272727272728 50:0.014084507042253521 69:0.03488372093023256 70:0.5 72:0.01785714285714286 77:0.16666666666666666 86:0.021052631578947368 141:0.003937007874015748 173:0.05405405405405406 207:0.03571428571428571 216:0.07692307692307693 228:0.025641025641025644 233:0.02 255:0.10638297872340426 257:0.20454545454545453 258:0.004484304932735426 281:0.022727272727272728 295:0.005128205128205129 302:0.023255813953488372 304:0.07692307692307691 316:0.0136986301369863 324:0.03571428571428572 353:0.10465116279069767 381:0.03296703296703297 390:0.047619047619047616 406:0.1 460:0.25 469:0.23809523809523808 483:0.14285714285714288 490:0.02127659574468085 492:0.09090909090909091 494:0.046511627906976744 505:0.013157894736842106 508:0.047058823529411764 518:0.020202020202020204 525:0.07142857142857142 530:0.043478260869565216 542:0.16666666666666666 576:0.125 601:0.03098714039315778 602:0.020975463807683788 603:0.05365844770092892 604:0.23129607580613448 605:0.4997595791129586 606:0.13889210346000097 607:0.2157510403605689 608:0.4974697562951611 609:0.04038780333453925 610:0.07605380354662562 
1.0 0.0 0.0 0.0 0.0 0.0 0.0 12:0.5319148936170213 43:0.01652892561983471 45:0.1590909090909091 77:0.08333333333333333 86:0.021052631578947368 138:0.029411764705882353 141:0.003937007874015748 228:0.07692307692307691 281:0.045454545454545456 302:0.023255813953488372 319:0.08571428571428572 363:0.06666666666666667 406:0.011111111111111112 428:0.04761904761904762 440:0.03225806451612903 469:0.16666666666666666 483:0.14285714285714288 487:0.026315789473684213 492:0.09090909090909091 494:0.023255813953488372 518:0.010101010101010102 557:0.023255813953488372 601:0.024247751845191887 602:0.004456529451314974 603:0.0359032539523816 604:0.16730216762992461 605:0.28534431382391556 606:0.025862089901253583 607:0.17794188372385453 608:0.30418404429606066 609:0.013867983792992283 610:0.03860340223931133 
0.0 0.0 0.9458828306346169 0.0 0.0 0.0 0.0 17:0.045454545454545456 29:0.2672413793103448 34:0.05405405405405405 43:0.01652892561983471 112:0.2318840579710145 116:0.03571428571428572 126:0.07971014492753624 140:0.009708737864077669 153:0.012658227848101266 199:0.23529411764705882 207:0.03571428571428571 232:0.011904761904761906 245:0.06329113924050633 255:0.02127659574468085 257:0.25 289:0.0196078431372549 299:0.06666666666666667 302:0.023255813953488372 303:0.014285714285714285 312:0.0963855421686747 316:0.5068493150684931 324:0.03571428571428572 338:0.031914893617021274 380:0.03921568627450981 381:0.01098901098901099 390:0.14285714285714285 406:0.2 460:0.25 469:0.047619047619047616 483:0.14285714285714288 492:0.18181818181818182 494:0.023255813953488372 508:0.03529411764705882 514:0.0016556291390728477 518:0.010101010101010102 525:0.07142857142857142 533:0.024390243902439025 542:0.16666666666666666 576:0.125 601:0.10864333774496575 602:0.015279471110226603 603:0.11598998782363089 604:0.04867108590915776 605:0.3219374804310708 606:0.007768289035732133 607:0.15227338402437685 608:0.45118139034183413 609:0.023576814107238598 610:0.44430237561776764 
0.0 0.0 1.0 1.0 0.0 0.0 0.0 2:0.012987012987012988 8:0.14634146341463417 21:0.015873015873015872 34:0.05405405405405405 46:0.023809523809523808 77:0.08333333333333333 78:0.06779661016949153 93:0.025641025641025644 96:0.04761904761904762 112:0.014492753623188406 126:0.02173913043478261 130:0.012195121951219511 131:0.010638297872340425 141:0.003937007874015748 169:0.07142857142857144 188:0.007999999999999998 194:0.010638297872340425 196:0.006802721088435374 207:0.03571428571428571 219:0.03571428571428571 237:0.006369426751592357 241:0.08823529411764705 243:0.0625 246:0.019230769230769232 254:0.0625 255:0.06382978723404255 282:0.08695652173913045 288:0.06666666666666667 293:0.06818181818181819 316:0.0547945205479452 324:0.03571428571428572 340:0.11320754716981132 406:0.07777777777777778 445:0.08333333333333333 460:0.25 483:0.14285714285714288 494:0.023255813953488372 501:0.011904761904761906 505:0.013157894736842106 514:0.0033112582781456954 517:0.018867924528301886 518:0.010101010101010102 525:0.07142857142857142 526:0.01652892561983471 533:0.04878048780487805 539:0.022222222222222223 542:0.16666666666666666 549:0.007936507936507936 558:0.007575757575757576 569:0.003968253968253968 601:0.2898905269136003 602:0.3781488342100822 603:0.14164696915283723 604:0.11876876330161813 605:0.23132910155411196 606:0.11866773922166517 607:0.3452121629656498 608:0.5668318067837834 609:0.06494418613075752 610:0.13629379611556725 
1.0 0.0 0.0 0.0 0.0 0.0 0.0 69:0.01744186046511628 76:0.01111111111111111 112:0.17391304347826086 141:0.003937007874015748 173:0.21621621621621623 255:0.0851063829787234 257:0.022727272727272728 260:0.014492753623188406 288:0.06666666666666667 304:0.5384615384615384 337:0.043478260869565216 390:0.047619047619047616 406:0.011111111111111112 469:0.047619047619047616 483:0.14285714285714288 492:0.36363636363636365 494:0.023255813953488372 508:0.08235294117647057 518:0.010101010101010102 601:0.01356034767327732 602:0.004669376319234248 603:0.02409777460213532 604:0.01528296354581622 605:0.274322625710249 606:0.006143133645357594 607:0.14498824149869619 608:0.3701525250309527 609:0.00495808528545304 610:0.039300711014059235 
1.0 0.0 0.0 0.0 0.0 0.0 0.0 6:0.013157894736842106 11:0.20476190476190476 34:0.027027027027027025 50:0.014084507042253521 54:0.25490196078431376 76:0.01111111111111111 78:0.00847457627118644 88:0.052631578947368425 94:0.03333333333333333 126:0.13768115942028986 131:0.06382978723404256 136:0.06666666666666667 138:0.029411764705882353 141:0.007874015748031496 152:0.15384615384615385 168:0.1639344262295082 173:0.10810810810810811 180:0.03614457831325301 207:0.03571428571428571 233:0.32 245:0.012658227848101266 255:0.02127659574468085 272:0.07272727272727274 278:0.26506024096385544 290:0.25 295:0.005128205128205129 296:0.060000000000000005 304:0.03846153846153846 307:0.010204081632653062 324:0.03571428571428572 336:0.01754385964912281 378:0.2 379:0.012195121951219513 382:0.010526315789473684 390:0.14285714285714285 406:0.03333333333333333 423:0.26086956521739135 462:0.13157894736842107 469:0.023809523809523808 472:0.01652892561983471 483:0.14285714285714288 494:0.023255813953488372 508:0.3058823529411765 514:0.0016556291390728477 518:0.010101010101010102 525:0.07142857142857142 529:0.08333333333333333 542:0.16666666666666666 576:0.125 600:0.027027027027027025 601:0.1274876606325077 602:0.03559827618015231 603:0.11282846394754217 604:0.052248582111443925 605:0.3715870631340699 606:0.008360729407045034 607:0.5379402207372254 608:0.4219151475662557 609:0.0121416454029225 610:0.2104207106671382 
0.709428102356407 0.0 0.0 0.0 0.0 0.0 0.0 15:0.03896103896103896 23:0.049999999999999996 34:0.24324324324324323 54:0.006535947712418301 57:0.021739130434782608 69:0.01744186046511628 77:0.08333333333333333 112:0.30434782608695654 116:0.07142857142857144 126:0.036231884057971016 131:0.0425531914893617 138:0.029411764705882353 141:0.1377952755905512 169:0.011904761904761906 207:0.03571428571428571 227:0.2571428571428571 233:0.28 235:0.14285714285714285 255:0.06382978723404255 257:0.18181818181818182 258:0.013452914798206279 260:0.014492753623188406 295:0.020512820512820516 296:0.04 304:0.03846153846153846 312:0.006024096385542169 316:0.1095890410958904 324:0.03571428571428572 337:0.043478260869565216 345:0.023255813953488372 351:0.07692307692307693 378:0.2 381:0.01098901098901099 390:0.23809523809523808 400:0.17647058823529413 406:0.2222222222222222 428:0.14285714285714288 469:0.047619047619047616 483:0.14285714285714288 492:0.18181818181818182 494:0.023255813953488372 505:0.052631578947368425 508:0.08235294117647057 518:0.1414141414141414 525:0.07142857142857142 532:0.024999999999999998 533:0.024390243902439025 542:0.16666666666666666 576:0.125 596:0.032786885245901634 601:0.05068434259642348 602:0.04310923297788936 603:0.0717227283706817 604:0.08480001790375956 605:0.4954366716035538 606:0.11914901586581715 607:0.4649344111838809 608:0.7016927487208154 609:0.0367962516893911 610:0.10682746846843305 
1.0 0.0 0.562749153090081 0.0 0.0 0.0 0.0 6:0.03947368421052632 11:0.03809523809523809 15:0.012987012987012986 17:0.045454545454545456 50:0.2676056338028169 51:0.022727272727272728 77:0.25 88:0.07894736842105263 116:0.10714285714285715 120:0.05714285714285714 126:0.036231884057971016 127:0.04807692307692308 131:0.026595744680851064 135:0.019230769230769232 138:0.4117647058823529 141:0.03937007874015748 158:0.02631578947368421 169:0.02380952380952381 173:0.02702702702702703 207:0.03571428571428571 209:0.01801801801801802 233:0.02 255:0.02127659574468085 260:0.014492753623188406 281:0.3409090909090909 282:0.04347826086956522 293:0.004545454545454545 296:0.4000000000000001 307:0.010204081632653062 312:0.042168674698795185 324:0.03571428571428572 340:0.11320754716981132 349:0.1206896551724138 356:0.010752688172043012 365:0.022727272727272728 373:0.015625 379:0.012195121951219513 388:0.030303030303030304 397:0.044444444444444446 423:0.021739130434782608 440:0.03225806451612903 468:0.0125 472:0.008264462809917356 483:0.14285714285714288 492:0.09090909090909091 493:0.3181818181818182 494:0.11627906976744187 498:0.037037037037037035 503:0.07894736842105263 505:0.052631578947368425 514:0.008278145695364237 518:0.010101010101010102 525:0.07142857142857142 542:0.16666666666666666 572:0.7142857142857144 576:0.125 581:0.061224489795918366 601:0.15475103679066063 602:0.08657698144904936 603:0.19496352811610393 604:0.041402663109213686 605:0.4358766750766848 606:0.021154631906134914 607:0.7597038729150877 608:0.3978981815713688 609:0.01983959531623668 610:0.1601309401978402 
1.0 0.0 0.11723685290137549 0.0 0.0 0.0 0.0 11:0.009523809523809523 21:0.015873015873015872 29:0.025862068965517238 34:0.05405405405405405 35:0.022222222222222223 45:0.045454545454545456 48:0.015625 54:0.0196078431372549 70:0.0625 76:0.005555555555555555 77:0.25 86:0.10526315789473684 88:0.15789473684210525 110:0.029411764705882356 112:0.028985507246376812 116:0.01785714285714286 126:0.007246376811594203 132:0.03225806451612904 136:0.06666666666666667 138:0.029411764705882353 141:0.007874015748031496 149:0.018348623853211007 202:0.02631578947368421 213:0.09999999999999999 224:0.10526315789473684 228:0.008547008547008546 245:0.012658227848101266 255:0.02127659574468085 257:0.09090909090909091 281:0.13636363636363638 295:0.0358974358974359 302:0.1627906976744186 324:0.03571428571428572 353:0.05813953488372093 365:0.022727272727272728 388:0.015151515151515152 390:0.047619047619047616 393:0.16666666666666666 434:0.04 440:0.04838709677419355 455:0.007905138339920948 457:0.01639344262295082 460:0.25 468:0.0125 469:0.09523809523809523 483:0.14285714285714288 492:0.09090909090909091 494:0.023255813953488372 505:0.013157894736842106 508:0.09411764705882353 514:0.0016556291390728477 525:0.07142857142857142 538:0.022727272727272728 542:0.16666666666666666 565:0.2833333333333333 587:0.019230769230769232 601:0.1628038596075213 602:0.026436570580176726 603:0.1752487745984348 604:0.21045708921795447 605:0.6120665922498885 606:0.07953584947148636 607:0.38140658474623895 608:0.7041877358740674 609:0.06342027410850866 610:0.26275916825247564 
1.0 0.0 0.0 0.0 0.0 0.0 0.0 17:0.045454545454545456 21:0.015873015873015872 29:0.06896551724137931 37:0.04166666666666667 43:0.04132231404958678 45:0.09090909090909091 48:0.03125 50:0.014084507042253521 69:0.03488372093023256 70:0.020833333333333336 72:0.0625 76:0.04999999999999999 77:0.08333333333333333 86:0.07368421052631578 109:0.02702702702702703 116:0.10714285714285715 126:0.007246376811594203 132:0.16129032258064516 138:0.029411764705882353 141:0.12204724409448818 173:0.02702702702702703 202:0.02631578947368421 213:0.09999999999999999 216:0.15384615384615385 228:0.034188034188034185 251:0.05172413793103449 252:0.3333333333333333 255:0.0425531914893617 258:0.004484304932735426 275:0.025974025974025976 281:0.06818181818181819 282:0.1739130434782609 286:0.012195121951219511 295:0.015384615384615385 302:0.06976744186046512 304:0.03846153846153846 316:0.0136986301369863 324:0.03571428571428572 353:0.0813953488372093 381:0.01098901098901099 390:0.14285714285714285 406:0.011111111111111112 416:0.030303030303030304 428:0.06349206349206349 434:0.04 440:0.03225806451612903 460:0.25 469:0.07142857142857142 483:0.14285714285714288 492:0.09090909090909091 494:0.023255813953488372 505:0.15789473684210525 508:0.09411764705882353 525:0.07142857142857142 530:0.13043478260869565 533:0.04878048780487805 538:0.022727272727272728 540:0.037037037037037035 542:0.16666666666666666 576:0.25 601:0.04239075981538453 602:0.02813571482278296 603:0.0634923755599487 604:0.23264750490869476 605:0.6398274226320715 606:0.15063899532330824 607:0.3483483660889213 608:0.6885439710800916 609:0.05703439941930046 610:0.11447802439914026 
1.0 0.0 0.0 0.0 0.0 0.0 0.0 9:0.045454545454545456 21:0.015873015873015872 34:0.05405405405405405 35:0.022222222222222223 54:0.006535947712418301 72:0.00892857142857143 76:0.04999999999999999 77:0.25 86:0.11578947368421051 103:0.35714285714285715 116:0.01785714285714286 149:0.009174311926605503 213:0.09999999999999999 228:0.025641025641025644 251:0.017241379310344827 255:0.02127659574468085 266:0.06976744186046512 281:0.022727272727272728 295:0.02564102564102564 316:0.0136986301369863 324:0.03571428571428572 390:0.09523809523809523 440:0.016129032258064516 451:0.3548387096774193 460:0.25 483:0.14285714285714288 492:0.09090909090909091 505:0.039473684210526314 507:0.015384615384615385 508:0.1176470588235294 511:0.07142857142857144 525:0.07142857142857142 530:0.043478260869565216 538:0.022727272727272728 542:0.16666666666666666 576:0.125 601:0.04725772267541042 602:0.006094150737404334 603:0.028893360632903445 604:0.19173774692189763 605:0.26563933126469425 606:0.05524460791313476 607:0.07044142975401829 608:0.3000514343622072 609:0.03906599315861613 610:0.04805985169786278 
1.0 0.0 0.0 0.0 0.0 0.0 0.0 9:0.045454545454545456 12:0.19148936170212766 15:0.012987012987012986 29:0.008620689655172414 43:0.01652892561983471 45:0.13636363636363635 48:0.03125 50:0.2535211267605634 54:0.0392156862745098 66:0.15625 69:0.011627906976744186 70:0.10416666666666666 86:0.5368421052631579 100:0.013513513513513513 132:0.03225806451612904 138:0.058823529411764705 141:0.1377952755905512 203:0.03571428571428571 213:0.09999999999999999 228:0.008547008547008546 232:0.011904761904761906 255:0.06382978723404255 257:0.045454545454545456 281:0.045454545454545456 295:0.015384615384615385 318:0.052631578947368425 324:0.03571428571428572 337:0.043478260869565216 353:0.023255813953488372 376:0.009259259259259259 416:0.06060606060606061 428:0.015873015873015872 434:0.12000000000000001 460:0.25 469:0.16666666666666666 483:0.14285714285714288 492:0.09090909090909091 494:0.023255813953488372 505:0.013157894736842106 507:0.03076923076923077 508:0.03529411764705882 511:0.07142857142857144 525:0.07142857142857142 534:0.07692307692307691 538:0.022727272727272728 542:0.16666666666666666 576:0.125 601:0.0454463942304585 602:0.017773198403044085 603:0.06912156483848177 604:0.21337373169875135 605:0.5055238484231731 606:0.06584884734578333 607:0.2272993133542454 608:0.45704684684600555 609:0.03935350723989141 610:0.08814141404480458 
1.0 0.0 0.0 0.0 0.0 0.0 0.0 11:0.16190476190476188 15:0.10389610389610389 29:0.11206896551724137 34:0.05405405405405405 35:0.022222222222222223 45:0.045454545454545456 48:0.078125 66:0.015625 69:0.4825581395348837 72:0.026785714285714288 86:0.1368421052631579 112:0.11594202898550725 120:0.009523809523809523 126:0.02173913043478261 138:0.029411764705882353 141:0.1377952755905512 155:0.020833333333333336 173:0.3783783783783784 213:0.09999999999999999 255:0.02127659574468085 295:0.020512820512820516 300:0.03333333333333333 304:0.8846153846153846 307:0.010204081632653062 316:0.0136986301369863 324:0.03571428571428572 353:0.011627906976744186 390:0.19047619047619047 400:0.05882352941176471 406:0.011111111111111112 460:0.25 469:0.07142857142857142 483:0.14285714285714288 487:0.026315789473684213 490:0.02127659574468085 492:0.09090909090909091 508:0.1176470588235294 511:0.07142857142857144 525:0.07142857142857142 530:0.043478260869565216 538:0.022727272727272728 540:0.037037037037037035 542:0.16666666666666666 557:0.046511627906976744 570:0.06896551724137931 576:0.25 582:0.041666666666666664 587:0.009615384615384616 600:0.05405405405405405 601:0.03326465026309496 602:0.007097398008391881 603:0.07536849025301623 604:0.16813073922232427 605:0.5936608505361103 606:0.016847068032777735 607:0.3481705831053778 608:0.5123453705721053 609:0.008762871478046844 610:0.11397212232789834 
1.0 0.0 0.0 0.0 0.0 0.0 0.0 9:0.045454545454545456 15:0.10389610389610389 29:0.025862068965517238 34:0.027027027027027025 45:0.022727272727272728 66:0.21875000000000003 69:0.0813953488372093 76:0.02222222222222222 77:0.16666666666666666 86:0.031578947368421054 88:0.3157894736842105 103:0.07142857142857144 116:0.07142857142857144 120:0.009523809523809523 126:0.02173913043478261 136:0.06666666666666667 141:0.003937007874015748 155:0.020833333333333336 169:0.03571428571428572 173:0.02702702702702703 177:0.21666666666666667 198:0.017543859649122806 213:0.09999999999999999 233:0.04 239:0.2947368421052632 252:0.1111111111111111 255:0.0425531914893617 257:0.2272727272727273 287:0.041666666666666664 295:0.020512820512820516 312:0.012048192771084338 324:0.03571428571428572 388:0.015151515151515152 390:0.047619047619047616 451:0.17741935483870966 460:0.25 469:0.023809523809523808 483:0.4285714285714286 492:0.09090909090909091 505:0.013157894736842106 508:0.2235294117647059 514:0.0016556291390728477 525:0.07142857142857142 533:0.07317073170731708 538:0.022727272727272728 542:0.16666666666666666 565:0.03333333333333333 601:0.12495575246211368 602:0.019860179790203474 603:0.11253121819186286 604:0.03905795033403698 605:0.5067985093922128 606:0.009120928889709397 607:0.34631851217479664 608:0.6358997456220529 609:0.015741296741865342 610:0.18576377592210047 
0.07558518929092667 0.0 0.0 0.0 0.0 0.0 0.0 2:0.025974025974025976 9:0.045454545454545456 12:0.02127659574468085 29:0.025862068965517238 35:0.044444444444444446 48:0.125 54:0.0457516339869281 66:0.03125 69:0.01744186046511628 76:0.01111111111111111 77:0.08333333333333333 93:0.11538461538461539 94:0.03333333333333333 103:0.07142857142857144 116:0.053571428571428575 126:0.028985507246376812 131:0.005319148936170213 132:0.03225806451612904 136:0.2 141:0.3425196850393701 149:0.009174311926605503 169:0.011904761904761906 173:0.05405405405405406 194:0.031914893617021274 213:0.09999999999999999 233:0.18 255:0.02127659574468085 257:0.045454545454545456 258:0.004484304932735426 281:0.045454545454545456 282:0.13043478260869568 295:0.010256410256410258 296:0.9600000000000001 299:0.13333333333333333 302:0.18604651162790697 312:0.006024096385542169 319:0.08571428571428572 324:0.03571428571428572 353:0.03488372093023256 373:0.03125 382:0.010526315789473684 390:0.09523809523809523 400:0.05882352941176471 405:0.001841620626151013 419:0.01020408163265306 423:0.3695652173913043 460:0.25 492:0.2727272727272727 494:0.023255813953488372 505:0.013157894736842106 508:0.1176470588235294 514:0.008278145695364237 525:0.07142857142857142 529:1.0 537:0.02857142857142857 540:0.037037037037037035 542:0.16666666666666666 557:0.046511627906976744 572:0.28571428571428575 576:0.125 587:0.009615384615384616 592:0.18055555555555558 601:0.17700619729064435 602:0.06309931028063483 603:0.15976995739877464 604:0.07255679494176176 605:0.611505054217562 606:0.21986093437797616 607:0.47088089022366464 608:0.5562184537021545 609:0.13715158831897367 610:0.1876629526017253 
1.0 0.0 0.08189379860773974 0.0 0.0 0.0 0.0 11:0.03333333333333333 12:0.1702127659574468 21:0.031746031746031744 45:0.022727272727272728 54:0.006535947712418301 58:0.30303030303030304 66:0.09375 72:0.125 77:0.08333333333333333 88:0.052631578947368425 116:0.01785714285714286 126:0.04347826086956522 132:0.03225806451612904 141:0.01968503937007874 169:0.011904761904761906 213:0.09999999999999999 216:0.07692307692307693 218:0.5 219:0.011904761904761906 233:0.04 255:0.02127659574468085 257:0.6136363636363636 295:0.015384615384615385 307:0.010204081632653062 312:0.024096385542168676 316:0.0410958904109589 324:0.03571428571428572 337:0.043478260869565216 378:0.1 390:0.19047619047619047 394:0.13821138211382114 413:0.007633587786259542 434:0.02 440:0.016129032258064516 460:0.25 462:0.026315789473684213 469:0.047619047619047616 492:0.09090909090909091 505:0.013157894736842106 508:0.047058823529411764 514:0.013245033112582781 525:0.07142857142857142 533:0.024390243902439025 542:0.16666666666666666 572:0.28571428571428575 576:0.25 601:0.13196032853058035 602:0.03310931456565021 603:0.1146092475673594 604:0.04595151397777276 605:0.562103343356809 606:0.007506214217355634 607:0.3791437710072452 608:0.43707613115123856 609:0.009416437031547657 610:0.15331567396086024 
1.0 1.0 0.994101345309083 1.0 1.0 1.0 1.0 6:0.013157894736842106 11:0.009523809523809523 36:0.08333333333333334 126:0.007246376811594203 131:0.0425531914893617 141:0.03543307086614173 258:0.008968609865470852 378:0.1 521:0.016260162601626015 538:0.11363636363636363 543:0.22222222222222224 564:0.01694915254237288 575:0.03225806451612903 601:0.03138819885969083 602:0.041338572177768394 603:0.04972153580008173 604:0.03999002580048184 605:0.19396361585760719 606:0.11660311164100182 607:0.28375011406349226 608:0.09971039144995529 609:0.041289618731426815 610:0.032616406127125706 
0.6946237169512082 0.0 0.0 0.0 0.0 0.0 0.0 11:0.014285714285714287 12:0.14893617021276595 29:0.025862068965517238 34:0.16216216216216214 54:0.032679738562091505 58:0.01515151515151515 66:0.0625 69:0.31976744186046513 72:0.07142857142857144 76:0.10555555555555556 77:0.08333333333333333 86:0.021052631578947368 103:0.35714285714285715 112:0.3188405797101449 116:0.053571428571428575 126:0.14492753623188406 127:0.009615384615384616 131:0.12234042553191489 132:0.03225806451612904 141:0.17716535433070868 149:0.018348623853211007 169:0.011904761904761906 173:0.05405405405405406 202:0.05263157894736842 213:0.09999999999999999 252:0.1111111111111111 255:0.06382978723404255 257:0.09090909090909091 295:0.015384615384615385 300:0.1888888888888889 302:0.023255813953488372 304:0.03846153846153846 312:0.006024096385542169 316:0.3972602739726027 319:0.05714285714285714 324:0.03571428571428572 329:0.022988505747126436 345:0.023255813953488372 353:0.0813953488372093 370:0.024999999999999998 390:0.19047619047619047 400:0.05882352941176471 405:0.001841620626151013 406:0.03333333333333333 413:0.015267175572519083 460:0.25 469:0.07142857142857142 492:0.09090909090909091 494:0.046511627906976744 505:0.039473684210526314 508:0.12941176470588234 511:0.14285714285714288 518:0.10101010101010102 525:0.07142857142857142 530:0.043478260869565216 533:0.07317073170731708 542:0.16666666666666666 572:0.28571428571428575 576:0.25 601:0.07343747226181065 602:0.02377819842499764 603:0.04750577485031242 604:0.1694288841356668 605:0.7496232425298951 606:0.09527921330387752 607:0.41838597635365243 608:0.6875778135790505 609:0.10635014540555825 610:0.08567240426130616 
1.0 0.0 0.0 0.0 0.0 0.0 0.0 15:0.012987012987012986 29:0.025862068965517238 48:0.40625000000000006 54:0.0196078431372549 72:0.026785714285714288 76:0.02222222222222222 77:0.5833333333333334 86:0.17894736842105263 112:0.057971014492753624 116:0.16071428571428573 132:0.03225806451612904 138:0.058823529411764705 141:0.043307086614173235 173:0.05405405405405406 213:0.09999999999999999 233:0.02 252:0.1111111111111111 255:0.02127659574468085 257:0.022727272727272728 281:0.06818181818181819 295:0.005128205128205129 304:0.1923076923076923 316:0.09589041095890412 324:0.03571428571428572 337:0.043478260869565216 353:0.12790697674418605 363:0.06666666666666667 390:0.047619047619047616 428:0.015873015873015872 434:0.02 440:0.016129032258064516 460:0.25 492:0.18181818181818182 505:0.026315789473684213 507:0.015384615384615385 508:0.12941176470588234 511:0.07142857142857144 514:0.0016556291390728477 525:0.07142857142857142 530:0.043478260869565216 533:0.04878048780487805 542:0.16666666666666666 572:0.28571428571428575 576:0.125 598:0.012738853503184712 601:0.12866839136966687 602:0.01667305031338143 603:0.129918697441332 604:0.03778708768937174 605:0.6488822879564312 606:0.009284861626217056 607:0.30765460341120127 608:0.5146919964576802 609:0.03431673423133947 610:0.1636384149706111 
0.0 0.0 0.2768207788477148 0.0 0.0 0.0 0.0 15:0.025974025974025972 26:0.011363636363636364 43:0.024793388429752067 46:0.08333333333333333 76:0.027777777777777776 110:0.08823529411764706 118:0.012195121951219513 138:0.058823529411764705 140:0.038834951456310676 151:0.11458333333333333 194:0.010638297872340425 198:0.08771929824561403 219:0.02380952380952381 227:0.14285714285714285 228:0.008547008547008546 233:0.04 239:0.031578947368421054 245:0.02531645569620253 258:0.004484304932735426 265:0.006211180124223602 289:0.09803921568627452 299:0.06666666666666667 303:0.014285714285714285 316:0.0136986301369863 358:0.05405405405405405 388:0.015151515151515152 390:0.047619047619047616 394:0.008130081300813007 395:0.015151515151515152 405:0.001841620626151013 438:0.014705882352941178 443:0.005376344086021505 445:0.0625 451:0.03225806451612903 455:0.003952569169960474 457:0.19672131147540983 468:0.0125 494:0.09302325581395349 500:0.16 507:0.015384615384615385 508:0.0588235294117647 510:0.027777777777777776 518:0.010101010101010102 533:0.1951219512195122 539:0.044444444444444446 541:0.05882352941176471 562:0.04347826086956522 566:0.7090909090909091 571:0.05434782608695651 577:0.08 583:0.0196078431372549 596:0.008196721311475409 600:0.05405405405405405 601:0.06572814739690776 602:0.1490395437624065 603:0.11071494475005506 604:0.25369692175403985 605:0.08067573514146423 606:0.2515065440075806 607:0.10120072209211083 608:0.5068908382155255 609:0.14365713802800736 610:0.3894907604104253 
1.0 0.0 1.0 0.0 0.0 0.0 0.0 15:0.025974025974025972 29:0.017241379310344827 48:0.09375 50:0.07042253521126761 66:0.03125 69:0.04069767441860465 72:0.00892857142857143 76:0.016666666666666666 90:0.04 94:0.03333333333333333 109:0.02702702702702703 116:0.01785714285714286 126:0.02173913043478261 131:0.01595744680851064 138:0.029411764705882353 141:0.03543307086614173 209:0.01801801801801802 213:0.09999999999999999 228:0.017094017094017092 235:0.07142857142857142 255:0.0425531914893617 257:0.09090909090909091 266:0.023255813953488372 278:0.03614457831325302 295:0.010256410256410258 299:0.13333333333333333 312:0.012048192771084338 316:0.0136986301369863 318:0.052631578947368425 324:0.03571428571428572 337:0.043478260869565216 353:0.03488372093023256 381:0.01098901098901099 390:0.047619047619047616 396:0.05084745762711865 460:0.25 469:0.09523809523809523 491:0.058823529411764705 492:0.09090909090909091 507:0.015384615384615385 508:0.19999999999999998 514:0.0016556291390728477 525:0.07142857142857142 530:0.08695652173913043 533:0.07317073170731708 534:0.07692307692307691 542:0.16666666666666666 572:0.28571428571428575 576:0.125 601:0.14321061189756784 602:0.04008531686236789 603:0.2068275194518639 604:0.2064679027352789 605:0.609270057755921 606:0.043070417648675724 607:0.3701763460053944 608:0.38722045946133493 609:0.05296103621716897 610:0.19817446771503555 
1.0 0.0 0.9082180062883486 0.0 0.0 0.0 0.0 9:0.09090909090909091 29:0.06034482758620689 34:0.1081081081081081 37:0.04166666666666667 45:0.022727272727272728 54:0.1830065359477124 69:0.011627906976744186 76:0.005555555555555555 77:0.16666666666666666 115:0.008928571428571428 116:0.01785714285714286 141:0.09448818897637797 213:0.09999999999999999 218:0.5 227:0.2571428571428571 228:0.008547008547008546 233:0.04 251:0.017241379310344827 252:0.1111111111111111 255:0.02127659574468085 257:0.022727272727272728 295:0.005128205128205129 302:0.023255813953488372 324:0.07142857142857144 336:0.01754385964912281 351:0.07692307692307693 390:0.09523809523809523 415:0.20987654320987656 423:0.021739130434782608 460:0.25 491:0.058823529411764705 492:0.09090909090909091 498:0.037037037037037035 508:0.3176470588235294 514:0.0016556291390728477 525:0.07142857142857142 533:0.0975609756097561 542:0.16666666666666666 565:0.03333333333333333 572:0.28571428571428575 576:0.125 601:0.12464330167304528 602:0.03452594811334874 603:0.1870229981402978 604:0.19508936756496276 605:0.42351685770579783 606:0.03466959891851485 607:0.20063129830439566 608:0.3926505456695254 609:0.03599555413363418 610:0.15574715419856935 
0.8411119299983247 0.0 0.0 0.0 0.0 0.0 0.0 29:0.09482758620689656 34:0.18918918918918917 48:0.109375 54:0.0196078431372549 72:0.026785714285714288 76:0.04444444444444444 77:0.16666666666666666 112:0.11594202898550725 116:0.08928571428571429 126:0.06521739130434782 131:0.005319148936170213 132:0.03225806451612904 138:0.058823529411764705 141:0.08267716535433071 173:0.02702702702702703 213:0.09999999999999999 218:0.5 233:0.06 239:0.5473684210526316 255:0.02127659574468085 257:0.045454545454545456 295:0.005128205128205129 312:0.01807228915662651 324:0.03571428571428572 381:0.02197802197802198 423:0.021739130434782608 428:0.04761904761904762 460:0.25 469:0.09523809523809523 492:0.09090909090909091 505:0.026315789473684213 508:0.047058823529411764 518:0.04040404040404041 525:0.07142857142857142 533:0.024390243902439025 542:0.16666666666666666 572:0.28571428571428575 576:0.125 587:0.40384615384615385 600:0.4054054054054054 601:0.041529043384115165 602:0.01413599095900182 603:0.09203906163859911 604:0.042641171193916284 605:0.5999189694681101 606:0.00668974702099898 607:0.3826372979704558 608:0.6721826932651052 609:0.0060649227616860575 610:0.15282541529544247 
1.0 0.0 0.0 0.0 0.0 0.0 0.0 9:0.045454545454545456 16:0.0042194092827004225 17:0.045454545454545456 29:0.04310344827586207 50:0.014084507042253521 54:0.006535947712418301 69:0.03488372093023256 72:0.04464285714285715 77:0.3333333333333333 86:0.1368421052631579 103:0.07142857142857144 116:0.10714285714285715 126:0.10869565217391304 138:0.08823529411764705 202:0.02631578947368421 213:0.09999999999999999 232:0.011904761904761906 233:0.06 255:0.10638297872340426 275:0.012987012987012988 281:0.022727272727272728 294:0.016129032258064516 295:0.005128205128205129 302:0.023255813953488372 324:0.03571428571428572 353:0.023255813953488372 380:0.019607843137254905 419:0.14285714285714285 440:0.04838709677419355 460:0.25 464:0.11111111111111112 468:0.0125 469:0.07142857142857142 492:0.09090909090909091 505:0.026315789473684213 525:0.07142857142857142 530:0.043478260869565216 540:0.1111111111111111 542:0.16666666666666666 572:0.28571428571428575 576:0.125 583:0.0196078431372549 601:0.0346274606669462 602:0.016969389473212977 603:0.045793306295691893 604:0.04367880144488591 605:0.49987905428413204 606:0.015585523445388943 607:0.25949585953247173 608:0.30303456209850327 609:0.05158380944174161 610:0.08068013327302302 
1.0 0.0 0.44550212533361666 0.0 0.0 0.0 0.0 9:0.045454545454545456 11:0.15714285714285714 12:0.10638297872340424 17:0.045454545454545456 20:0.01851851851851852 29:0.008620689655172414 54:0.026143790849673203 58:0.01515151515151515 66:0.03125 72:0.15178571428571427 76:0.005555555555555555 77:0.4166666666666667 86:0.031578947368421054 112:0.014492753623188406 131:0.010638297872340425 138:0.058823529411764705 173:0.05405405405405406 213:0.09999999999999999 252:0.1111111111111111 255:0.06382978723404255 257:0.022727272727272728 278:0.012048192771084338 281:0.11363636363636363 295:0.010256410256410258 302:0.023255813953488372 304:0.11538461538461538 307:0.020408163265306124 324:0.03571428571428572 337:0.08695652173913043 353:0.0813953488372093 362:0.1764705882352941 363:0.06666666666666667 375:0.02127659574468085 394:0.008130081300813007 419:0.01020408163265306 428:0.04761904761904762 460:0.25 464:0.22222222222222224 469:0.16666666666666666 487:0.026315789473684213 492:0.09090909090909091 498:0.037037037037037035 507:0.015384615384615385 508:0.27058823529411763 525:0.07142857142857142 534:0.07692307692307691 542:0.16666666666666666 561:0.024390243902439025 564:0.01694915254237288 570:0.034482758620689655 572:0.28571428571428575 582:0.041666666666666664 601:0.03846745552827891 602:0.030479383696553668 603:0.049626733250175796 604:0.04549002625050832 605:0.6428070317535367 606:0.016988791823758537 607:0.29499385555783036 608:0.238731730000332 609:0.03321289927675534 610:0.09349382640883626 
1.0 0.0 0.0 0.0 0.0 0.0 0.0 11:0.0047619047619047615 12:0.10638297872340424 15:0.025974025974025972 21:0.015873015873015872 29:0.15517241379310345 34:0.027027027027027025 35:0.08888888888888889 48:0.125 50:0.028169014084507043 66:0.046875 69:0.1627906976744186 72:0.00892857142857143 77:0.08333333333333333 116:0.10714285714285715 131:0.005319148936170213 132:0.06451612903225808 138:0.14705882352941177 141:0.11023622047244096 149:0.045871559633027525 199:0.058823529411764705 213:0.09999999999999999 233:0.08 255:0.46808510638297873 295:0.020512820512820516 316:0.0136986301369863 324:0.03571428571428572 353:0.023255813953488372 375:0.0425531914893617 380:0.019607843137254905 390:0.047619047619047616 400:0.05882352941176471 419:0.04081632653061224 440:0.0967741935483871 460:0.25 464:0.22222222222222224 469:0.023809523809523808 492:0.09090909090909091 507:0.015384615384615385 508:0.023529411764705882 511:0.07142857142857144 525:0.07142857142857142 533:0.024390243902439025 542:0.16666666666666666 572:0.28571428571428575 576:0.125 601:0.06604182509474545 602:0.01946135102751735 603:0.05436462041562655 604:0.04454757507300644 605:0.6107287030765592 606:0.04160896289973839 607:0.3294815560088462 608:0.34237440116711343 609:0.04480630620235356 610:0.11338563299577153 
1.0 0.0 0.0 0.0 0.0 0.0 0.0 9:0.045454545454545456 29:0.034482758620689655 48:0.015625 76:0.2222222222222222 77:0.25 103:0.2142857142857143 112:0.2028985507246377 116:0.16071428571428573 138:0.029411764705882353 141:0.12598425196850394 213:0.09999999999999999 228:0.025641025641025644 233:0.04 252:0.2222222222222222 255:0.0425531914893617 295:0.010256410256410258 312:0.030120481927710843 315:0.007462686567164179 316:0.09589041095890412 324:0.03571428571428572 329:0.022988505747126436 353:0.18604651162790697 381:0.01098901098901099 390:0.14285714285714285 395:0.015151515151515152 400:0.05882352941176471 434:0.02 440:0.016129032258064516 460:0.25 490:0.02127659574468085 492:0.09090909090909091 505:0.10526315789473685 508:0.12941176470588234 511:0.07142857142857144 525:0.07142857142857142 533:0.0975609756097561 542:0.16666666666666666 569:0.003968253968253968 572:0.28571428571428575 576:0.25 601:0.04042099077103809 602:0.11673500194891957 603:0.053669331933373914 604:0.18597409241599547 605:0.44372702295668925 606:0.049290861778476754 607:0.24595324947129094 608:0.44385464728503565 609:0.02821978895119741 610:0.08077213716751702 
0.23740778223540512 0.0 0.20925118714509428 0.0 0.0 0.0 0.0 2:0.012987012987012988 9:0.045454545454545456 10:0.13043478260869565 12:0.06382978723404255 15:0.025974025974025972 34:0.05405405405405405 48:0.015625 54:0.0196078431372549 76:0.005555555555555555 112:0.10144927536231885 116:0.07142857142857144 131:0.01595744680851064 132:0.03225806451612904 138:0.058823529411764705 141:0.16535433070866143 174:0.03225806451612903 213:0.09999999999999999 228:0.04273504273504273 233:0.02 241:0.00980392156862745 245:0.0379746835443038 260:0.21739130434782608 295:0.005128205128205129 296:0.02 300:0.011111111111111112 307:0.020408163265306124 309:0.00909090909090909 319:0.08571428571428572 324:0.03571428571428572 325:0.043478260869565216 336:0.01754385964912281 375:0.06382978723404255 390:0.23809523809523808 400:0.05882352941176471 423:0.06521739130434784 428:0.015873015873015872 434:0.36000000000000004 445:0.041666666666666664 460:0.25 468:0.0125 486:0.25 492:0.09090909090909091 505:0.06578947368421054 508:0.15294117647058825 514:0.009933774834437087 518:0.010101010101010102 525:0.07142857142857142 529:0.125 533:0.1951219512195122 540:0.037037037037037035 542:0.16666666666666666 570:0.034482758620689655 572:0.28571428571428575 576:0.125 578:0.8235294117647058 581:0.04081632653061225 596:0.008196721311475409 601:0.1748921844548466 602:0.07843223858320567 603:0.16333903140899725 604:0.3416800431064488 605:0.40431290423995747 606:0.042289782420188965 607:0.39090177541505733 608:0.5107466788428745 609:0.053100380787417835 610:0.21686077431319659 
0.7951738127808426 0.0 0.0 0.0 0.0 0.0 0.0 36:0.08333333333333334 37:0.08333333333333334 45:0.5681818181818181 54:0.006535947712418301 69:0.0813953488372093 103:0.14285714285714288 109:0.5405405405405406 138:0.029411764705882353 141:0.003937007874015748 209:0.03603603603603604 213:0.09999999999999999 217:0.0625 232:0.011904761904761906 258:0.008968609865470852 275:0.4545454545454546 281:0.045454545454545456 302:0.023255813953488372 324:0.03571428571428572 382:0.010526315789473684 390:0.047619047619047616 405:0.001841620626151013 428:0.015873015873015872 457:0.01639344262295082 460:0.25 468:0.0125 487:0.026315789473684213 492:0.09090909090909091 505:0.07894736842105263 507:0.046153846153846156 508:0.023529411764705882 525:0.07142857142857142 533:0.07317073170731708 542:0.16666666666666666 572:0.28571428571428575 601:0.04038699077561846 602:0.04936924689568031 603:0.1466234961525104 604:0.05942462482633976 605:0.2349523770508125 606:0.2152070098922751 607:0.2000137080474784 608:0.3265032038213246 609:0.13544821498491919 610:0.07439047884569841 
1.0 0.0 0.0 0.0 0.0 0.0 0.0 9:0.09090909090909091 12:0.2553191489361702 22:0.0198019801980198 29:0.025862068965517238 45:0.022727272727272728 48:0.015625 50:0.028169014084507043 54:0.0196078431372549 72:0.00892857142857143 77:0.08333333333333333 109:0.05405405405405406 112:0.08695652173913043 116:0.5357142857142858 132:0.03225806451612904 138:0.029411764705882353 141:0.11023622047244096 202:0.02631578947368421 212:0.006944444444444444 213:0.09999999999999999 228:0.07692307692307691 255:0.0851063829787234 257:0.022727272727272728 260:0.014492753623188406 272:0.1090909090909091 281:0.045454545454545456 295:0.02564102564102564 304:0.03846153846153846 312:0.006024096385542169 319:0.2 324:0.03571428571428572 353:0.05813953488372093 376:0.009259259259259259 390:0.09523809523809523 416:0.06060606060606061 428:0.015873015873015872 434:0.28 440:0.0967741935483871 460:0.25 469:0.047619047619047616 492:0.09090909090909091 494:0.023255813953488372 505:0.026315789473684213 508:0.09411764705882353 511:0.07142857142857144 525:0.07142857142857142 530:0.08695652173913043 532:0.19999999999999998 534:0.07692307692307691 542:0.16666666666666666 564:0.01694915254237288 570:0.034482758620689655 572:0.28571428571428575 576:0.125 601:0.04476906068022446 602:0.009876575122472003 603:0.060701732714601615 604:0.2110898095830089 605:0.6897423947468447 606:0.03566567223463014 607:0.27907678333463676 608:0.528625169318484 609:0.032494043839766236 610:0.0922119887874579 
1.0 0.0 0.0 0.0 0.0 0.0 0.0 9:0.045454545454545456 12:0.06382978723404255 15:0.051948051948051945 29:0.051724137931034475 35:0.08888888888888889 47:1.0 69:0.011627906976744186 72:0.04464285714285715 76:0.04444444444444444 112:0.11594202898550725 126:0.014492753623188406 138:0.14705882352941177 141:0.05118110236220473 203:0.14285714285714285 213:0.09999999999999999 216:0.07692307692307693 228:0.008547008547008546 233:0.02 252:0.1111111111111111 255:0.0851063829787234 257:0.022727272727272728 258:0.004484304932735426 266:0.13953488372093023 281:0.06818181818181819 282:0.04347826086956522 295:0.010256410256410258 302:0.046511627906976744 316:0.0547945205479452 319:0.14285714285714285 324:0.03571428571428572 345:0.023255813953488372 353:0.0813953488372093 400:0.05882352941176471 406:0.2111111111111111 460:0.25 468:0.0125 492:0.09090909090909091 508:0.08235294117647057 525:0.07142857142857142 530:0.043478260869565216 533:0.17073170731707316 542:0.16666666666666666 570:0.034482758620689655 572:0.28571428571428575 601:0.0334925709343571 602:0.029026256845561073 603:0.0762729425364471 604:0.22517615370988087 605:0.6140842548582127 606:0.14944455936920464 607:0.32405942765638057 608:0.47478296488132277 609:0.048367509889788635 610:0.10259089583823267 
1.0 0.0 0.2336139633572022 0.0 0.0 0.0 0.0 9:0.045454545454545456 11:0.06190476190476191 15:0.012987012987012986 19:0.017857142857142856 29:0.051724137931034475 37:0.020833333333333336 45:0.022727272727272728 50:0.014084507042253521 62:0.01639344262295082 63:0.03278688524590164 88:0.07894736842105263 93:0.12820512820512822 116:0.01785714285714286 126:0.5507246376811594 127:0.009615384615384616 128:0.02777777777777778 131:0.01595744680851064 138:0.029411764705882353 141:0.12204724409448818 152:0.038461538461538464 158:0.02631578947368421 174:0.16129032258064516 180:0.012048192771084336 194:0.010638297872340425 213:0.09999999999999999 232:0.011904761904761906 235:0.35714285714285715 260:0.014492753623188406 272:0.09090909090909093 275:0.012987012987012988 278:0.31325301204819284 281:0.022727272727272728 282:0.04347826086956522 295:0.005128205128205129 296:0.02 302:0.023255813953488372 307:0.020408163265306124 309:0.00909090909090909 317:0.11111111111111109 324:0.03571428571428572 339:0.017543859649122806 378:0.6000000000000001 390:0.09523809523809523 423:0.19565217391304346 455:0.003952569169960474 457:0.01639344262295082 460:0.25 462:0.3157894736842105 471:0.005681818181818181 472:0.020661157024793386 487:0.026315789473684213 490:0.02127659574468085 492:0.18181818181818182 498:0.07407407407407407 508:0.03529411764705882 511:0.5 514:0.004966887417218543 521:0.04065040650406504 525:0.07142857142857142 529:0.041666666666666664 530:0.043478260869565216 532:0.225 542:0.16666666666666666 564:0.01694915254237288 570:0.06896551724137931 572:0.28571428571428575 576:0.125 581:0.020408163265306124 600:0.18918918918918917 601:0.15396964995269513 602:0.06843259458065183 603:0.17658256477327625 604:0.045140753179102745 605:0.4922202727405216 606:0.042933714161681444 607:0.6605345068327193 608:0.3321746610097429 609:0.09335976517272766 610:0.1715002580336387 
0.17122113066786063 0.0 0.0 0.0 0.0 0.0 0.0 9:0.045454545454545456 12:0.21276595744680848 29:0.1293103448275862 34:0.18918918918918917 48:0.03125 54:0.0718954248366013 66:0.140625 72:0.00892857142857143 76:0.005555555555555555 77:0.08333333333333333 86:0.021052631578947368 109:0.02702702702702703 112:0.391304347826087 116:0.6785714285714285 126:0.12318840579710147 128:0.02777777777777778 132:0.03225806451612904 138:0.029411764705882353 141:0.03543307086614173 155:0.05208333333333333 213:0.09999999999999999 255:0.0425531914893617 257:0.022727272727272728 258:0.013452914798206279 287:0.041666666666666664 295:0.005128205128205129 302:0.023255813953488372 312:0.006024096385542169 313:0.012048192771084338 316:0.0136986301369863 319:0.08571428571428572 324:0.03571428571428572 337:0.043478260869565216 353:0.0813953488372093 406:0.2 460:0.25 469:0.11904761904761904 492:0.09090909090909091 507:0.015384615384615385 518:0.12121212121212122 525:0.07142857142857142 542:0.16666666666666666 572:0.28571428571428575 576:0.125 601:0.026860507541706144 602:0.02702449656865343 603:0.06876330266073442 604:0.08414889658246344 605:0.6453318883378487 606:0.12465799188042034 607:0.2788398835713886 608:0.514859006078218 609:0.06297171987255804 610:0.10053612052385355 
0.0 0.5179355537131409 0.0 1.0 1.0 0.7312296726902475 1.0 2:0.025974025974025976 4:0.16666666666666669 26:0.017045454545454548 28:0.05063291139240506 73:0.037037037037037035 89:0.009345794392523364 96:0.031746031746031744 103:0.14285714285714288 115:0.053571428571428575 128:0.02777777777777778 130:0.012195121951219511 133:0.025316455696202528 149:0.009174311926605503 174:0.03225806451612903 188:0.007999999999999998 196:0.07482993197278912 209:0.02702702702702703 219:0.02380952380952381 241:0.0392156862745098 243:0.10416666666666666 254:0.09375 258:0.04932735426008969 288:0.06666666666666667 293:0.022727272727272728 294:0.016129032258064516 355:0.005076142131979695 367:0.015625 373:0.015625 382:0.010526315789473684 394:0.008130081300813007 408:0.005988023952095809 415:0.01234567901234568 418:0.012987012987012988 443:0.005376344086021505 444:0.0425531914893617 445:0.020833333333333332 472:0.004132231404958678 476:0.00625 487:0.026315789473684213 490:0.02127659574468085 492:0.09090909090909091 494:0.627906976744186 501:0.011904761904761906 503:0.039473684210526314 510:0.013888888888888888 513:0.05405405405405406 521:0.008130081300813007 522:0.058823529411764705 569:0.015873015873015872 601:0.15599831559913346 602:0.4568270708399264 603:0.22096932193520408 604:0.1632513751594155 605:0.019060835354847903 606:0.23769529689189708 607:0.09422694915924766 608:0.12465615206089994 609:0.12485069187563243 610:0.04175775439742305 
0.0 0.0 0.5301002737609687 0.0 0.0 0.0 0.0 29:0.396551724137931 34:0.2162162162162162 35:0.022222222222222223 48:0.015625 54:0.013071895424836602 55:0.013513513513513514 76:0.016666666666666666 103:0.14285714285714288 116:0.10714285714285715 123:0.00847457627118644 126:0.07246376811594203 131:0.005319148936170213 132:0.03225806451612904 138:0.029411764705882353 141:0.07086614173228346 158:0.013157894736842105 169:0.02380952380952381 173:0.08108108108108109 203:0.03571428571428571 213:0.09999999999999999 228:0.017094017094017092 233:0.06 242:0.04347826086956522 252:0.1111111111111111 255:0.0851063829787234 257:0.2272727272727273 266:0.7441860465116279 267:0.013605442176870748 278:0.012048192771084338 281:0.022727272727272728 282:0.08695652173913045 302:0.023255813953488372 304:0.11538461538461538 312:0.03614457831325302 316:0.0136986301369863 324:0.03571428571428572 336:0.5789473684210527 337:0.043478260869565216 349:0.04310344827586207 353:0.023255813953488372 367:0.0078125 415:0.11111111111111112 416:0.06060606060606061 424:0.008130081300813007 434:0.02 440:0.016129032258064516 457:0.11475409836065574 469:0.09523809523809523 485:0.01020408163265306 505:0.013157894736842106 508:0.08235294117647057 514:0.006622516556291391 523:0.07792207792207792 533:0.024390243902439025 542:0.16666666666666666 570:0.034482758620689655 572:0.14285714285714288 583:0.0392156862745098 587:0.11538461538461539 601:0.197949825316588 602:0.05149622181326991 603:0.30976900358382475 604:0.21660492878349566 605:0.6030434373119995 606:0.10473137070310067 607:0.5361793565284136 608:0.6528275201104161 609:0.04776188185346385 610:0.2475108443304532 
1.0 0.0 0.0 0.0 0.0 0.0 0.0 23:0.049999999999999996 43:0.008264462809917356 50:0.028169014084507043 76:0.03333333333333333 116:0.07142857142857144 126:0.036231884057971016 138:0.029411764705882353 141:0.02755905511811024 158:0.013157894736842105 165:0.09999999999999999 169:0.02380952380952381 173:0.08108108108108109 180:0.09638554216867469 225:0.029411764705882353 233:0.02 255:0.0425531914893617 260:0.014492753623188406 296:0.04 304:0.11538461538461538 316:0.0410958904109589 337:0.043478260869565216 379:0.024390243902439025 390:0.19047619047619047 406:0.044444444444444446 423:0.021739130434782608 483:0.14285714285714288 492:0.09090909090909091 494:0.023255813953488372 501:0.011904761904761906 508:0.07058823529411765 518:0.020202020202020204 529:0.041666666666666664 572:0.14285714285714288 583:0.0392156862745098 587:0.019230769230769232 601:0.024063488167313386 602:0.010723178331553417 603:0.07135321930040772 604:0.017992424623403218 605:0.2795036421378381 606:0.003299132056309942 607:0.3987919160360845 608:0.4657545679366921 609:0.004742563647582299 610:0.0755270258446206 
0.0 0.0 1.0 1.0 1.0 1.0 0.0 89:0.009345794392523364 94:0.03333333333333333 128:0.02777777777777778 219:0.03571428571428571 237:0.006369426751592357 239:0.010526315789473684 243:0.08333333333333334 260:0.014492753623188406 276:0.021739130434782608 289:0.0196078431372549 293:0.12272727272727273 312:0.012048192771084338 345:0.023255813953488372 411:0.02272727272727273 445:0.08333333333333333 455:0.011857707509881424 483:0.14285714285714288 494:0.023255813953488372 498:0.037037037037037035 500:0.04 514:0.0016556291390728477 518:0.010101010101010102 533:0.024390243902439025 539:0.022222222222222223 558:0.007575757575757576 562:0.04347826086956522 572:0.14285714285714288 587:0.009615384615384616 601:0.1749472895320827 602:0.17030609283042736 603:0.15559390370870518 604:0.009603363832933235 605:0.027852662177267746 606:0.049470186926693055 607:0.06413430710659819 608:0.2880054716469114 609:0.018137242247096428 610:0.17869370851690042 
1.0 0.0 0.0 0.0 0.0 0.0 0.0 21:0.031746031746031744 45:0.022727272727272728 50:0.014084507042253521 69:0.03488372093023256 70:0.5 72:0.01785714285714286 77:0.16666666666666666 86:0.021052631578947368 141:0.003937007874015748 173:0.05405405405405406 207:0.03571428571428571 216:0.07692307692307693 228:0.025641025641025644 233:0.02 255:0.10638297872340426 257:0.20454545454545453 258:0.004484304932735426 281:0.022727272727272728 295:0.005128205128205129 302:0.023255813953488372 304:0.07692307692307691 316:0.0136986301369863 324:0.03571428571428572 353:0.10465116279069767 381:0.03296703296703297 390:0.047619047619047616 406:0.1 460:0.25 469:0.23809523809523808 483:0.14285714285714288 490:0.02127659574468085 492:0.09090909090909091 494:0.046511627906976744 505:0.013157894736842106 508:0.047058823529411764 518:0.020202020202020204 525:0.07142857142857142 530:0.043478260869565216 542:0.16666666666666666 576:0.125 601:0.03098714039315778 602:0.020975463807683788 603:0.05365844770092892 604:0.23129607580613448 605:0.4997595791129586 606:0.13889210346000097 607:0.2157510403605689 608:0.4974697562951611 609:0.04038780333453925 610:0.07605380354662562 
1.0 0.0 0.0 0.0 0.0 0.7325871360966155 0.0 12:0.5319148936170213 43:0.01652892561983471 45:0.1590909090909091 77:0.08333333333333333 86:0.021052631578947368 138:0.029411764705882353 141:0.003937007874015748 228:0.07692307692307691 281:0.045454545454545456 302:0.023255813953488372 319:0.08571428571428572 363:0.06666666666666667 406:0.011111111111111112 428:0.04761904761904762 440:0.03225806451612903 469:0.16666666666666666 483:0.14285714285714288 487:0.026315789473684213 492:0.09090909090909091 494:0.023255813953488372 518:0.010101010101010102 557:0.023255813953488372 601:0.024247751845191887 602:0.004456529451314974 603:0.0359032539523816 604:0.16730216762992461 605:0.28534431382391556 606:0.025862089901253583 607:0.17794188372385453 608:0.30418404429606066 609:0.013867983792992283 610:0.03860340223931133 
0.0 0.0 0.8695082555085192 0.0 0.0 0.0 0.0 17:0.045454545454545456 29:0.2672413793103448 34:0.05405405405405405 43:0.01652892561983471 112:0.2318840579710145 116:0.03571428571428572 126:0.07971014492753624 140:0.009708737864077669 153:0.012658227848101266 199:0.23529411764705882 207:0.03571428571428571 232:0.011904761904761906 245:0.06329113924050633 255:0.02127659574468085 257:0.25 289:0.0196078431372549 299:0.06666666666666667 302:0.023255813953488372 303:0.014285714285714285 312:0.0963855421686747 316:0.5068493150684931 324:0.03571428571428572 338:0.031914893617021274 380:0.03921568627450981 381:0.01098901098901099 390:0.14285714285714285 406:0.2 460:0.25 469:0.047619047619047616 483:0.14285714285714288 492:0.18181818181818182 494:0.023255813953488372 508:0.03529411764705882 514:0.0016556291390728477 518:0.010101010101010102 525:0.07142857142857142 533:0.024390243902439025 542:0.16666666666666666 576:0.125 601:0.10864333774496575 602:0.015279471110226603 603:0.11598998782363089 604:0.04867108590915776 605:0.3219374804310708 606:0.007768289035732133 607:0.15227338402437685 608:0.45118139034183413 609:0.023576814107238598 610:0.44430237561776764 
0.0 0.0 1.0 1.0 0.0 0.0 0.0 2:0.012987012987012988 8:0.14634146341463417 21:0.015873015873015872 34:0.05405405405405405 46:0.023809523809523808 77:0.08333333333333333 78:0.06779661016949153 93:0.025641025641025644 96:0.04761904761904762 112:0.014492753623188406 126:0.02173913043478261 130:0.012195121951219511 131:0.010638297872340425 141:0.003937007874015748 169:0.07142857142857144 188:0.007999999999999998 194:0.010638297872340425 196:0.006802721088435374 207:0.03571428571428571 219:0.03571428571428571 237:0.006369426751592357 241:0.08823529411764705 243:0.0625 246:0.019230769230769232 254:0.0625 255:0.06382978723404255 282:0.08695652173913045 288:0.06666666666666667 293:0.06818181818181819 316:0.0547945205479452 324:0.03571428571428572 340:0.11320754716981132 406:0.07777777777777778 445:0.08333333333333333 460:0.25 483:0.14285714285714288 494:0.023255813953488372 501:0.011904761904761906 505:0.013157894736842106 514:0.0033112582781456954 517:0.018867924528301886 518:0.010101010101010102 525:0.07142857142857142 526:0.01652892561983471 533:0.04878048780487805 539:0.022222222222222223 542:0.16666666666666666 549:0.007936507936507936 558:0.007575757575757576 569:0.003968253968253968 601:0.2898905269136003 602:0.3781488342100822 603:0.14164696915283723 604:0.11876876330161813 605:0.23132910155411196 606:0.11866773922166517 607:0.3452121629656498 608:0.5668318067837834 609:0.06494418613075752 610:0.13629379611556725 
1.0 0.0 0.0 0.0 0.0 0.0 0.0 69:0.01744186046511628 76:0.01111111111111111 112:0.17391304347826086 141:0.003937007874015748 173:0.21621621621621623 255:0.0851063829787234 257:0.022727272727272728 260:0.014492753623188406 288:0.06666666666666667 304:0.5384615384615384 337:0.043478260869565216 390:0.047619047619047616 406:0.011111111111111112 469:0.047619047619047616 483:0.14285714285714288 492:0.36363636363636365 494:0.023255813953488372 508:0.08235294117647057 518:0.010101010101010102 601:0.01356034767327732 602:0.004669376319234248 603:0.02409777460213532 604:0.01528296354581622 605:0.274322625710249 606:0.006143133645357594 607:0.14498824149869619 608:0.3701525250309527 609:0.00495808528545304 610:0.039300711014059235 
0.0 0.0 0.0 0.0 0.4182160934863437 0.0 0.0 34:0.1081081081081081 54:0.013071895424836602 69:0.011627906976744186 76:0.01111111111111111 83:0.017857142857142856 94:0.06666666666666667 112:0.36231884057971014 126:0.014492753623188406 207:0.03571428571428571 219:0.011904761904761906 227:0.11428571428571428 255:0.0425531914893617 257:0.06818181818181818 299:0.06666666666666667 312:0.006024096385542169 316:0.0136986301369863 324:0.03571428571428572 380:0.019607843137254905 381:0.02197802197802198 390:0.14285714285714285 428:0.031746031746031744 445:0.08333333333333333 472:0.004132231404958678 483:0.14285714285714288 494:0.023255813953488372 508:0.07058823529411765 518:0.12121212121212122 525:0.07142857142857142 542:0.16666666666666666 576:0.125 596:0.016393442622950817 601:0.017689755143066525 602:0.05640569149339016 603:0.05022709197781562 604:0.0249925389847236 605:0.1342123869502789 606:0.002585486556378905 607:0.1217350192762342 608:0.26402796953164004 609:0.006905594334841561 610:0.06709339865216661 
1.0 0.0 0.05973948109539004 0.0 0.0 0.0 0.0 15:0.051948051948051945 17:0.5909090909090909 23:0.19999999999999998 35:0.044444444444444446 43:0.01652892561983471 45:0.022727272727272728 77:0.08333333333333333 88:0.026315789473684213 116:0.01785714285714286 120:0.02857142857142857 126:0.07971014492753624 127:0.06730769230769232 131:0.0851063829787234 135:0.3076923076923077 138:0.11764705882352941 141:0.03937007874015748 149:0.027522935779816512 158:0.03947368421052632 169:0.16666666666666669 173:0.02702702702702703 174:0.03225806451612903 180:0.012048192771084336 207:0.03571428571428571 210:0.125 231:0.06557377049180328 232:0.011904761904761906 233:0.16 234:0.043478260869565216 242:0.4347826086956522 255:0.0425531914893617 260:0.08695652173913043 281:0.06818181818181819 282:0.08695652173913045 295:0.005128205128205129 296:0.78 299:0.06666666666666667 302:0.023255813953488372 304:0.03846153846153846 312:0.01807228915662651 320:0.19999999999999998 324:0.03571428571428572 329:0.022988505747126436 337:0.13043478260869565 340:0.1509433962264151 349:0.034482758620689655 353:0.11627906976744186 365:0.022727272727272728 388:0.015151515151515152 390:0.09523809523809523 400:0.05882352941176471 419:0.01020408163265306 423:0.17391304347826086 440:0.06451612903225806 446:0.047619047619047616 462:0.052631578947368425 469:0.047619047619047616 472:0.04958677685950413 483:0.14285714285714288 490:0.10638297872340426 492:0.09090909090909091 494:0.023255813953488372 498:0.037037037037037035 499:0.5714285714285714 505:0.2368421052631579 507:0.015384615384615385 508:0.0588235294117647 514:0.03642384105960265 518:0.010101010101010102 521:0.016260162601626015 525:0.07142857142857142 529:0.08333333333333333 530:0.08695652173913043 542:0.16666666666666666 557:0.023255813953488372 564:0.03389830508474576 570:0.034482758620689655 576:0.125 583:0.2549019607843137 592:0.01388888888888889 596:0.008196721311475409 598:0.012738853503184712 601:0.1937396331084826 602:0.06395719997107605 603:0.15703196938926853 604:0.05659012870922936 605:0.5916339165917343 606:0.06336408637508649 607:0.7963624533951764 608:0.4476543201891399 609:0.0953900516150538 610:0.19337819421298885 
1.0 0.0 0.22387638514972366 0.0 0.0 0.0 0.0 11:0.08095238095238094 34:0.08108108108108107 37:0.020833333333333336 48:0.0625 50:0.18309859154929578 54:0.013071895424836602 76:0.02222222222222222 115:0.017857142857142856 116:0.03571428571428572 125:0.0925925925925926 126:0.1956521739130435 138:0.029411764705882353 141:0.031496062992125984 158:0.17105263157894737 168:0.11475409836065573 169:0.011904761904761906 173:0.16216216216216217 174:0.03225806451612903 180:0.012048192771084336 188:0.007999999999999998 194:0.010638297872340425 196:0.006802721088435374 198:0.017543859649122806 207:0.03571428571428571 233:0.16 239:0.031578947368421054 241:0.0196078431372549 260:0.014492753623188406 264:0.024390243902439022 272:0.03636363636363637 296:0.02 304:0.11538461538461538 307:0.010204081632653062 312:0.006024096385542169 316:0.0684931506849315 317:0.015873015873015872 324:0.03571428571428572 345:0.023255813953488372 390:0.047619047619047616 400:0.05882352941176471 406:0.18888888888888888 419:0.01020408163265306 423:0.021739130434782608 433:0.010204081632653062 445:0.041666666666666664 457:0.04918032786885246 462:0.052631578947368425 467:0.01818181818181818 472:0.008264462809917356 483:0.14285714285714288 492:0.09090909090909091 494:0.023255813953488372 499:0.047619047619047616 500:0.04 501:0.011904761904761906 505:0.013157894736842106 507:0.015384615384615385 511:0.07142857142857144 514:0.008278145695364237 518:0.020202020202020204 521:0.008130081300813007 525:0.07142857142857142 529:0.041666666666666664 533:0.14634146341463417 542:0.16666666666666666 569:0.003968253968253968 570:0.034482758620689655 576:0.125 592:0.05555555555555556 600:0.05405405405405405 601:0.16596935501488122 602:0.2666837944240345 603:0.2273320068904341 604:0.06178082362551364 605:0.37615030714189546 606:0.07039823152485873 607:0.595559743172993 608:0.6737829484842504 609:0.044261347474463746 610:0.24503622659283705 
0.0 0.0 0.9133684984669275 0.0 0.0 0.0 0.0 15:0.10389610389610389 29:0.025862068965517238 35:0.022222222222222223 48:0.015625 50:0.04225352112676056 69:0.011627906976744186 70:0.22916666666666669 77:0.08333333333333333 110:0.029411764705882356 116:0.07142857142857144 131:0.005319148936170213 198:0.03508771929824561 207:0.03571428571428571 228:0.008547008547008546 240:0.041666666666666664 255:0.3404255319148936 257:0.15909090909090912 265:0.006211180124223602 286:0.012195121951219511 299:0.06666666666666667 302:0.023255813953488372 316:0.0136986301369863 324:0.03571428571428572 353:0.046511627906976744 363:0.06666666666666667 368:0.047619047619047616 390:0.047619047619047616 406:0.08888888888888889 415:0.02469135802469136 469:0.023809523809523808 483:0.14285714285714288 492:0.18181818181818182 494:0.023255813953488372 508:0.24705882352941178 514:0.0016556291390728477 518:0.1414141414141414 525:0.07142857142857142 542:0.16666666666666666 583:0.0196078431372549 601:0.12523714469544375 602:0.02202254886383187 603:0.16557491376987113 604:0.19683604988320233 605:0.34331604650641234 606:0.03690266557901068 607:0.1555218159023009 608:0.4587395667936467 609:0.022263979824917814 610:0.14946829553810537 
1.0 0.0 0.0 0.0 0.9063727719255773 0.0 0.0 70:0.125 76:0.005555555555555555 116:0.01785714285714286 126:0.007246376811594203 141:0.02362204724409449 255:0.0851063829787234 257:0.06818181818181818 312:0.09036144578313253 380:0.019607843137254905 381:0.06593406593406594 390:0.047619047619047616 445:0.020833333333333332 483:0.14285714285714288 494:0.023255813953488372 508:0.12941176470588234 518:0.12121212121212122 601:0.008583760654992395 602:0.03861064272605447 603:0.04859152269987927 604:0.004655097381932991 605:0.21907404565463443 606:0.001391589797631843 607:0.16523886227506962 608:0.28273202104208933 609:0.004318350638235259 610:0.03605770813422413 
0.4123989725665423 0.0 0.0 0.0 0.0 0.0 0.0 11:0.04285714285714286 32:0.5 50:0.014084507042253521 93:0.038461538461538464 131:0.05851063829787234 132:0.06451612903225808 138:0.029411764705882353 141:0.003937007874015748 207:0.03571428571428571 275:0.025974025974025976 281:0.022727272727272728 317:0.015873015873015872 460:0.25 462:0.026315789473684213 483:0.14285714285714288 492:0.09090909090909091 523:0.012987012987012988 542:0.16666666666666666 572:0.28571428571428575 576:0.125 601:0.03383064757507168 602:0.01806016831570235 603:0.048963428435744666 604:0.02723903541237254 605:0.2360140717747817 606:0.005852449243020198 607:0.2749632710213856 608:0.20015725831906264 609:0.005236573069913853 610:0.04364318557720647 
0.0 0.0 1.0 0.0 0.0 0.0 0.0 32:0.5 34:0.027027027027027025 76:0.005555555555555555 78:0.00847457627118644 116:0.03571428571428572 125:0.01851851851851852 131:0.005319148936170213 132:0.03225806451612904 138:0.029411764705882353 209:0.00900900900900901 219:0.011904761904761906 251:0.017241379310344827 266:0.023255813953488372 275:0.06493506493506493 483:0.14285714285714288 494:0.023255813953488372 505:0.013157894736842106 514:0.0033112582781456954 554:0.022222222222222223 572:0.14285714285714288 584:0.0058823529411764705 601:0.13582155345579672 602:0.054590318294571845 603:0.25309448812222685 604:0.013731041221253616 605:0.0968677713479599 606:0.015272563119021395 607:0.15870198240151762 608:0.3250911035499336 609:0.0058889462889817265 610:0.11255361976575833 
0.0 0.22528920397043722 0.0 0.0 1.0 1.0 0.0 32:0.5 132:0.03225806451612904 483:0.14285714285714288 572:0.14285714285714288 601:9.261169633331132E-4 602:2.8168332646615285E-4 603:0.007006183485488346 604:0.004407274153023016 605:0.007024528650349957 606:1.4426959821617442E-4 607:0.0041202748492961865 608:0.03338689939310015 609:2.9472643889351906E-4 610:0.004582752887766753 
1.0 0.0 0.0 0.0 0.0 0.0 0.0 11:0.04285714285714286 32:0.5 50:0.014084507042253521 93:0.038461538461538464 131:0.05851063829787234 132:0.06451612903225808 138:0.029411764705882353 141:0.003937007874015748 207:0.03571428571428571 275:0.025974025974025976 281:0.022727272727272728 317:0.015873015873015872 460:0.25 462:0.026315789473684213 483:0.14285714285714288 492:0.09090909090909091 523:0.012987012987012988 542:0.16666666666666666 572:0.28571428571428575 576:0.125 601:0.03383064757507168 602:0.01806016831570235 603:0.048963428435744666 604:0.02723903541237254 605:0.2360140717747817 606:0.005852449243020198 607:0.2749632710213856 608:0.20015725831906264 609:0.005236573069913853 610:0.04364318557720647 
0.0 0.0 0.0 0.0 0.09597515047891905 0.0 0.0 32:0.5 50:0.014084507042253521 54:0.0196078431372549 131:0.005319148936170213 132:0.03225806451612904 207:0.03571428571428571 241:0.00980392156862745 460:0.25 483:0.14285714285714288 492:0.09090909090909091 534:0.07692307692307691 542:0.16666666666666666 572:0.28571428571428575 576:0.25 601:0.024695541359481828 602:0.01848770274570472 603:0.02281361032445242 604:0.039279055308580633 605:0.05251991069374175 606:0.009176277014718176 607:0.0716736845739075 608:0.061559311655473486 609:0.0019616011024194005 610:0.029457063126935166 
0.0 0.0 1.0 0.7713610596810326 0.0 0.0 0.0 32:0.5 34:0.027027027027027025 76:0.005555555555555555 78:0.00847457627118644 116:0.03571428571428572 125:0.01851851851851852 131:0.005319148936170213 132:0.03225806451612904 138:0.029411764705882353 209:0.00900900900900901 219:0.011904761904761906 251:0.017241379310344827 266:0.023255813953488372 275:0.06493506493506493 483:0.14285714285714288 494:0.023255813953488372 505:0.013157894736842106 514:0.0033112582781456954 554:0.022222222222222223 572:0.14285714285714288 584:0.0058823529411764705 601:0.13582155345579672 602:0.054590318294571845 603:0.25309448812222685 604:0.013731041221253616 605:0.0968677713479599 606:0.015272563119021395 607:0.15870198240151762 608:0.3250911035499336 609:0.0058889462889817265 610:0.11255361976575833 
0.0 1.0 0.0 0.0 1.0 1.0 0.0 32:0.5 132:0.03225806451612904 483:0.14285714285714288 572:0.14285714285714288 601:9.261169633331132E-4 602:2.8168332646615285E-4 603:0.007006183485488346 604:0.004407274153023016 605:0.007024528650349957 606:1.4426959821617442E-4 607:0.0041202748492961865 608:0.03338689939310015 609:2.9472643889351906E-4 610:0.004582752887766753 
0.0 0.2314734426159 0.0 0.0 0.0 0.16791274688847171 0.6036581488753028 32:0.5 45:0.022727272727272728 72:0.03571428571428572 132:0.03225806451612904 207:0.03571428571428571 216:0.15384615384615385 252:0.1111111111111111 258:0.004484304932735426 285:0.09090909090909091 295:0.005128205128205129 329:0.011494252873563218 460:0.25 483:0.14285714285714288 492:0.09090909090909091 542:0.16666666666666666 572:0.28571428571428575 576:0.25 601:0.009928863002932112 602:0.02117720855269337 603:0.037475105316664266 604:0.07416715568905533 605:0.14149621076104987 606:0.11851814930135472 607:0.020727017737367355 608:0.07520220798753598 609:0.04397510586624802 610:0.06832201034010502 
0.7708982871015839 0.0 0.0 0.0 0.0 0.0 0.0 11:0.05714285714285715 15:0.06493506493506493 23:0.09999999999999999 26:0.005681818181818182 29:0.034482758620689655 35:0.022222222222222223 45:0.022727272727272728 46:0.023809523809523808 54:0.006535947712418301 58:0.04545454545454545 62:0.03278688524590164 126:0.050724637681159424 131:0.1542553191489362 132:0.03225806451612904 138:0.1764705882352941 141:0.1062992125984252 146:0.17391304347826086 149:0.03669724770642201 152:0.038461538461538464 155:0.1875 158:0.02631578947368421 160:0.02702702702702703 174:0.06451612903225806 202:0.02631578947368421 207:0.03571428571428571 225:0.029411764705882353 232:0.011904761904761906 233:0.16 245:0.012658227848101266 255:0.02127659574468085 278:0.13253012048192772 281:0.022727272727272728 282:0.21739130434782608 295:0.010256410256410258 296:0.060000000000000005 302:0.023255813953488372 309:0.01818181818181818 317:0.11111111111111109 329:0.011494252873563218 339:0.017543859649122806 345:0.023255813953488372 349:0.02586206896551724 362:0.47058823529411764 373:0.046875 375:0.5319148936170213 388:0.015151515151515152 390:0.14285714285714285 394:0.03252032520325203 410:1.0 411:0.11363636363636365 440:0.016129032258064516 445:0.041666666666666664 455:0.011857707509881424 457:0.04918032786885246 472:0.004132231404958678 482:1.0 491:0.23529411764705882 492:0.09090909090909091 494:0.046511627906976744 495:0.008620689655172414 501:0.011904761904761906 508:0.10588235294117647 512:0.014084507042253521 513:0.02702702702702703 514:0.018211920529801324 521:0.03252032520325203 526:0.024793388429752067 529:0.125 530:0.08695652173913043 537:0.02857142857142857 540:0.07407407407407407 564:0.0847457627118644 569:0.003968253968253968 570:0.034482758620689655 576:0.125 583:0.0196078431372549 598:0.006369426751592356 601:0.2348568925233568 602:0.27230438323439604 603:0.21397702314704953 604:0.09070606285184667 605:0.5345908820442228 606:0.14140666046585876 607:0.6733154829355862 608:0.3751682081948466 609:0.18301166408255032 610:0.2266708156208111 
0.0 0.0 0.07261969945183265 0.0 0.0 0.0 0.0 37:0.04166666666666667 76:0.027777777777777776 116:0.03571428571428572 132:0.03225806451612904 138:0.058823529411764705 169:0.011904761904761906 213:0.09999999999999999 251:0.017241379310344827 257:0.3409090909090909 272:0.018181818181818184 295:0.005128205128205129 313:0.012048192771084338 316:0.1095890410958904 324:0.03571428571428572 336:0.07017543859649124 352:0.005714285714285715 353:0.011627906976744186 381:0.01098901098901099 390:0.09523809523809523 415:0.04938271604938272 428:1.0 451:0.016129032258064516 469:0.047619047619047616 492:0.09090909090909091 505:0.026315789473684213 508:0.12941176470588234 514:0.0016556291390728477 532:0.024999999999999998 542:0.16666666666666666 565:0.016666666666666666 572:0.14285714285714288 587:0.07692307692307693 601:0.11265724834148443 602:0.01596404549876075 603:0.20656625262341996 604:0.03724441649737142 605:0.25969927167006907 606:0.011336574074973542 607:0.15161644921396147 608:0.46396712500873544 609:0.00843705143950872 610:0.15731635018798204 
0.0 0.0 0.3556839360096029 0.0 0.0 0.0 0.0 9:0.045454545454545456 43:0.008264462809917356 45:0.022727272727272728 46:0.023809523809523808 78:0.025423728813559317 102:0.7528089887640449 110:0.05882352941176471 112:0.07246376811594203 115:0.03571428571428571 126:0.06521739130434782 132:0.03225806451612904 138:0.029411764705882353 141:0.015748031496062992 199:0.23529411764705882 203:0.03571428571428571 213:0.09999999999999999 232:0.02380952380952381 239:0.3368421052631579 240:0.041666666666666664 251:0.12068965517241381 255:0.02127659574468085 257:0.022727272727272728 289:0.0196078431372549 295:0.005128205128205129 301:0.047619047619047616 307:0.010204081632653062 312:0.012048192771084338 316:0.19178082191780824 324:0.03571428571428572 336:0.08771929824561404 357:0.05882352941176471 369:0.02 390:0.09523809523809523 406:0.03333333333333333 412:0.09090909090909091 428:0.015873015873015872 445:0.020833333333333332 469:0.023809523809523808 491:0.058823529411764705 492:0.09090909090909091 505:0.013157894736842106 508:0.21176470588235294 514:0.009933774834437087 518:0.05050505050505051 533:0.17073170731707316 542:0.16666666666666666 565:0.11666666666666667 569:0.011904761904761904 572:0.14285714285714288 587:0.27884615384615385 600:0.2702702702702703 601:0.13530285560796387 602:0.19446264200307567 603:0.2244017992644709 604:0.06213995804059387 605:0.3573151066056565 606:0.02539890100635857 607:0.29115074728427276 608:0.7888944852698014 609:0.04266486104911729 610:0.38926858938274284 
1.0 0.0 0.0 0.0 0.0 0.0 0.0 23:0.09999999999999999 29:0.12068965517241378 35:0.022222222222222223 43:0.01652892561983471 66:0.03125 69:0.011627906976744186 78:0.050847457627118633 120:0.009523809523809523 126:0.014492753623188406 131:0.03191489361702128 132:0.03225806451612904 134:0.0065359477124183 135:0.019230769230769232 138:0.029411764705882353 141:0.08661417322834647 158:0.10526315789473684 160:0.02702702702702703 202:0.02631578947368421 213:0.09999999999999999 255:0.0425531914893617 257:0.045454545454545456 258:0.004484304932735426 281:0.06818181818181819 295:0.015384615384615385 302:0.023255813953488372 324:0.03571428571428572 349:0.034482758620689655 353:0.011627906976744186 365:0.022727272727272728 375:0.02127659574468085 388:0.015151515151515152 390:0.09523809523809523 411:0.02272727272727273 423:0.021739130434782608 472:0.004132231404958678 492:0.09090909090909091 505:0.06578947368421054 508:0.047058823529411764 511:0.07142857142857144 537:0.05714285714285714 542:0.16666666666666666 564:0.05084745762711864 569:0.003968253968253968 572:0.14285714285714288 583:0.0392156862745098 601:0.052798437302274535 602:0.16135134415752583 603:0.0678264770854677 604:0.0656436851699132 605:0.4979328321798871 606:0.14525438095088272 607:0.5062502000278921 608:0.37238507850238345 609:0.06977683753142194 610:0.08612561377653963 
